tree
version=v4
num_class=1
num_tree_per_iteration=1
label_index=0
max_feature_idx=215
objective=regression
feature_names=Column_0 Column_1 Column_2 Column_3 Column_4 Column_5 Column_6 Column_7 Column_8 Column_9 Column_10 Column_11 Column_12 Column_13 Column_14 Column_15 Column_16 Column_17 Column_18 Column_19 Column_20 Column_21 Column_22 Column_23 Column_24 Column_25 Column_26 Column_27 Column_28 Column_29 Column_30 Column_31 Column_32 Column_33 Column_34 Column_35 Column_36 Column_37 Column_38 Column_39 Column_40 Column_41 Column_42 Column_43 Column_44 Column_45 Column_46 Column_47 Column_48 Column_49 Column_50 Column_51 Column_52 Column_53 Column_54 Column_55 Column_56 Column_57 Column_58 Column_59 Column_60 Column_61 Column_62 Column_63 Column_64 Column_65 Column_66 Column_67 Column_68 Column_69 Column_70 Column_71 Column_72 Column_73 Column_74 Column_75 Column_76 Column_77 Column_78 Column_79 Column_80 Column_81 Column_82 Column_83 Column_84 Column_85 Column_86 Column_87 Column_88 Column_89 Column_90 Column_91 Column_92 Column_93 Column_94 Column_95 Column_96 Column_97 Column_98 Column_99 Column_100 Column_101 Column_102 Column_103 Column_104 Column_105 Column_106 Column_107 Column_108 Column_109 Column_110 Column_111 Column_112 Column_113 Column_114 Column_115 Column_116 Column_117 Column_118 Column_119 Column_120 Column_121 Column_122 Column_123 Column_124 Column_125 Column_126 Column_127 Column_128 Column_129 Column_130 Column_131 Column_132 Column_133 Column_134 Column_135 Column_136 Column_137 Column_138 Column_139 Column_140 Column_141 Column_142 Column_143 Column_144 Column_145 Column_146 Column_147 Column_148 Column_149 Column_150 Column_151 Column_152 Column_153 Column_154 Column_155 Column_156 Column_157 Column_158 Column_159 Column_160 Column_161 Column_162 Column_163 Column_164 Column_165 Column_166 Column_167 Column_168 Column_169 Column_170 Column_171 Column_172 Column_173 Column_174 Column_175 Column_176 Column_177 Column_178 Column_179 Column_180 Column_181 Column_182 Column_183 Column_184 Column_185 Column_186 Column_187 Column_188 Column_189 Column_190 Column_191 Column_192 Column_193 Column_194 Column_195 Column_196 Column_197 Column_198 Column_199 Column_200 Column_201 Column_202 Column_203 Column_204 Column_205 Column_206 Column_207 Column_208 Column_209 Column_210 Column_211 Column_212 Column_213 Column_214 Column_215
feature_infos=[0.09526089954792738:0.99999999999999989] [0:1] [0:0.97872973374981409] [0.010780669144981412:0.99999999999999978] [0.0072632190586868093:1] [0.0075023871231755558:1] [0:23] [0:6] [1:12] [0.09526089954792738:0.99999999999999989] [0:1] [0:0.97872973374981409] [0.010780669144981412:0.99999999999999978] [0.0072632190586868093:1] [0.0075023871231755558:1] [0:23] [0:6] [1:12] [0.09526089954792738:0.99999999999999989] [0:1] [0:0.97872973374981409] [0.010780669144981412:0.99999999999999978] [0.0072632190586868093:1] [0.0075023871231755558:1] [0:23] [0:6] [1:12] [0.09526089954792738:0.99999999999999989] [0:1] [0:0.97872973374981409] [0.010780669144981412:0.99999999999999978] [0.0072632190586868093:1] [0.0075023871231755558:1] [0:23] [0:6] [1:12] [0.09526089954792738:0.99999999999999989] [0:1] [0:0.97872973374981409] [0.010780669144981412:0.99999999999999978] [0.0072632190586868093:1] [0.0075023871231755558:1] [0:23] [0:6] [1:12] [0.09526089954792738:0.99999999999999989] [0:1] [0:0.97872973374981409] [0.010780669144981412:0.99999999999999978] [0.0072632190586868093:1] [0.0075023871231755558:1] [0:23] [0:6] [1:12] [0.09526089954792738:0.99999999999999989] [0:1] [0:0.97872973374981409] [0.010780669144981412:0.99999999999999978] [0.0072632190586868093:1] [0.0075023871231755558:1] [0:23] [0:6] [1:12] [0.09526089954792738:0.99999999999999989] [0:1] [0:0.97872973374981409] [0.010780669144981412:0.99999999999999978] [0.0072632190586868093:1] [0.0075023871231755558:1] [0:23] [0:6] [1:12] [0.09526089954792738:0.99999999999999989] [0:1] [0:0.97872973374981409] [0.010780669144981412:0.99999999999999978] [0.0072632190586868093:1] [0.0075023871231755558:1] [0:23] [0:6] [1:12] [0.09526089954792738:0.99999999999999989] [0:1] [0:0.97872973374981409] [0.010780669144981412:0.99999999999999978] [0.0072632190586868093:1] [0.0075023871231755558:1] [0:23] [0:6] [1:12] [0.09526089954792738:0.99999999999999989] [0:1] [0:0.97872973374981409] [0.010780669144981412:0.99999999999999978] [0.0072632190586868093:1] [0.0075023871231755558:1] [0:23] [0:6] [1:12] [0.09526089954792738:0.99999999999999989] [0:1] [0:0.97872973374981409] [0.010780669144981412:0.99999999999999978] [0.0072632190586868093:1] [0.0075023871231755558:1] [0:23] [0:6] [1:12] [0.09526089954792738:0.99999999999999989] [0:1] [0:0.97872973374981409] [0.010780669144981412:0.99999999999999978] [0.0072632190586868093:1] [0.0075023871231755558:1] [0:23] [0:6] [1:12] [0.09526089954792738:0.99999999999999989] [0:1] [0:0.97872973374981409] [0.010780669144981412:0.99999999999999978] [0.0072632190586868093:1] [0.0075023871231755558:1] [0:23] [0:6] [1:12] [0.09526089954792738:0.99999999999999989] [0:1] [0:0.97872973374981409] [0.010780669144981412:0.99999999999999978] [0.0072632190586868093:1] [0.0075023871231755558:1] [0:23] [0:6] [1:12] [0.09526089954792738:0.99999999999999989] [0:1] [0:0.97872973374981409] [0.010780669144981412:0.99999999999999978] [0.0072632190586868093:1] [0.0075023871231755558:1] [0:23] [0:6] [1:12] [0.09526089954792738:0.99999999999999989] [0:1] [0:0.97872973374981409] [0.010780669144981412:0.99999999999999978] [0.0072632190586868093:1] [0.0075023871231755558:1] [0:23] [0:6] [1:12] [0.09526089954792738:0.99999999999999989] [0:1] [0:0.97872973374981409] [0.010780669144981412:0.99999999999999978] [0.0072632190586868093:1] [0.0075023871231755558:1] [0:23] [0:6] [1:12] [0.09526089954792738:0.99999999999999989] [0:1] [0:0.97872973374981409] [0.010780669144981412:0.99999999999999978] [0.0072632190586868093:1] [0.0075023871231755558:1] [0:23] [0:6] [1:12] [0.09526089954792738:0.99999999999999989] [0:1] [0:0.97872973374981409] [0.010780669144981412:0.99999999999999978] [0.0072632190586868093:1] [0.0075023871231755558:1] [0:23] [0:6] [1:12] [0.09526089954792738:0.99999999999999989] [0:1] [0:0.97872973374981409] [0.010780669144981412:0.99999999999999978] [0.0072632190586868093:1] [0.0075023871231755558:1] [0:23] [0:6] [1:12] [0.09526089954792738:0.99999999999999989] [0:1] [0:0.97872973374981409] [0.010780669144981412:0.99999999999999978] [0.0072632190586868093:1] [0.0075023871231755558:1] [0:23] [0:6] [1:12] [0.09526089954792738:0.99999999999999989] [0:1] [0:0.97872973374981409] [0.010780669144981412:0.99999999999999978] [0.0072632190586868093:1] [0.0075023871231755558:1] [0:23] [0:6] [1:12] [0.09526089954792738:0.99999999999999989] [0:1] [0:0.97872973374981409] [0.010780669144981412:0.99999999999999978] [0.0072632190586868093:1] [0.0075023871231755558:1] [0:23] [0:6] [1:12]
tree_sizes=2861 3043 3034 3017 3036 3043 3036 3032 3031 3050 3043 3041 3036 3049 3033 3040 3058 3042 3051 3049 3052 3049 3048 3040 3054 3054 3056 3051 3060 3045 3051 3058 3050 3067 3030 3045 3062 3054 3043 3054 3066 3068 3077 3059 3065 3056 3049 3054 3062 3071 3044 3085 3074 3061 3070 3090 3056 3075 3069 3072 3059 3068 3082 3059 3057 3060 3068 3063 3076 3060 3079 3086 3081 3077 3083 3085 3068 3079 3060 3081 3076 3076 3079 3072 3088 3079 3076 3089 3062 3087 3082 3094 3087 3078 3087 3099 3096 3092 3086 3092 3082 3074 3058 3059 3078 3091 3079 3075 3066 3077 3073 3088 3072 3082 3062 3081 3073 3089 3063 3064 3069 3072 3086 3073 3072 3081 3075 3086 3066 3070 3066 3087 3079 3070 3069 3067 3076 3079 3089 3078 3085 3079 3075 3087 3064 3073 3066 3078 3080 3087 3087 3085 3067 3082 3093 3082 3079 3096 3077 3088 3074 3068 3072 3076 3097 3082 3081 3081 3064 3083 3088 3070 3111 3070 3071 3081 3065 3087 3085 3085 3085 3084 3073 3088 3090 3076 3076 3075 3075 3060 3094 3068 3091 3101 3088 3082 3099 3105 3077 3089 3080 3073 3064 3066 3061 3083 3076 3078 3074 3064 3069 3079 3051 3064 3047 3090 3083 3072 3080 3077 3086 3079 3063 3081 3062 3075 3085 3060 3079 3077 3071 3078 3060 3077 3103 3094 3078 3061 3083 3063 3094 3082 3090 3073 3061 3079 3074 3077 3074 3076 3092 3077 3067 3069 3087 3056 3082 3090 3076 3074 3089 3084 3079 3086 3090 3080 3070 3074 3085 3097 3083 3073 3076 3068 3068 3083 3083 3100 3079 3093 3088 3099 3091 3077 3082 3086 3098 3081 3085 3086 3081 3086 3077 3092 3082 3070 3068 3076 3068 3091 3089 3087 3088 3079 3094 3083 3092 3083 3065 3086 3068 3100 3070 3079 3078 3092 3090 3091 3091 3082 3097 3089 3099 3091 3087 3080 3059 3078 3070 3090 3084 3076 3060 3074 3069 3058 3089 3082 3088 3090 3068 3095 3085 3080 3080 3073 3109 3094 3084 3096 3089 3083 3096 3085 3093 3103 3084 3071 3082 3071 3084 3075 3085 3074 3086 3079 3098 3095 3097 3076 3061 3091 3090 3086 3072 3092 3097 3077 3068 3071 3076 3094 3088 3081 3107 3076 3067 3065 3085 3097 3101 3100 3101 3086 3079 3096 3069 3080 3083 3076 3074 3107 3078 3096 3082 3069 3089 3115 3075 3069 3085 3114 3085 3089 3087 3088 3098 3110 3088 3096 3084 3093 3088 3071 3076 3084 3084 3100 3102 3093 3056 3072 3065 3065 3089 3071 3078 3090 3064 3068 3081 3081 3091 3083 3080 3062 3078 3089 3071 3093 3066 3093 3086 3081 3089 3096 3089 3073 3092 3068 3073 3090 3065 3075 3082 3068 3087 3081 3086 3081 3094 3070 3097 3081 3088 3052 3069 3077 3077 3069 3073 3067 3092 3086 3086 3099 3100 3076 3080 3091 3091 3100 3087 3099 3098 3083 3062 3099 3085 3069 3085 3085 3093 3061 3102 3080 3094 3090 3077 3113 3075 3090 3083 3090 3099 3060 3082 3080 3093 3076 3079 3083 3086 3070 3071 3084 3093 3093 3061 3084 3096 3098 3081 3073 3097 3073 3070 3074 3077 3087 3085 3087 3079 3096 3076 3081 3108 3094 3093 3086 3075 3079 3083 3092 3103 3091 3101 3096 3097 3090 3076 3089 3071 3087 3081 3075 3092 3078 3072 3078 3079 3097 3088 3083 3081 3093 3103 3082 3086 3077 3069 3069 3074 3073 3080 3079 3075 3079 3067 3073 3071 3083 3063 3088 3096 3092 3084 3094 3084 3084 3069 3091 3071 3069 3076 3085 3073 3102 3098 3099 3087 3088 3095 3090 3074 3071 3072 3095 3076 3084 3101 3085 3094 3084 3082 3098 3105 3096 3077 3090 3099 3081 3099 3090 3093 3072 3091 3093 3086 3098 3093 3098 3090 3077 3078 3094 3082 3082 3103 3076 3083 3075 3081 3078 3064 3088 3067 3088 3091 3090 3078 3068 3086 3080 3088 3084 3097 3067 3096 3092 3083 3090 3074 3084 3094 3092 3095 3076 3088 3089 3099 3080 3079 3075 3069 3087 3073 3068 3097 3080 3084 3088 3085 3097 3081 3072 3088 3071 3079 3071 3104 3094 3093 3085 3088 3085 3072 3089 3071 3098 3078 3081 3079 3067 3103 3080 3086 3104 3103 3114 3083 3091 3078 3093 3097 3100 3087 3093 3091 3078 3093 3058 3103 3091 3077 3102 3074 3100 3078 3093 3102 3100 3078 3090 3072 3109 3084 3101 3096 3114 3084 3083 3097 3102 3074 3122 3131 3115 3105 3112 3096 3116 3080 3074 3118 3122 3098 3099 3076 3109 3065 3068 3081 3085 3096 3080 3094 3085 3083 3054 3077 3094 3053 3084 3098 3089 3088 3082 3083 3082 3091 3097 3071 3094 3065 3098 3099 3087 3096 3079 3081 3093 3084 3086 3095 3089 3066 3062 3090 3075 3091 3082 3092 3092 3044 3098 3094 3105 3088 3109 3079 3085 3064 3105 3092 3080 3097 3120 3123 3093 3082 3080 3061 3092 3082 3077 3090 3070 3087 3087 3107 3090 3101 3103 3095 3067 3100 3075 3070 3084 3082 3084 3087 3074 3087 3074 3071 3093 3080 3078 3097 3097 3095 3081 3097 3105 3087 3092 3109 3089 3089 3080 3069 3091 3099 3072 3079 3087 3082 3107 3081 3070 3083 3091 3103 3086 3087 3087 3082 3076 3111 3093 3080 3102 3097 3090 3095 3089 3105 3078 3082 3105 3104 3091 3093 3075 3093 3120 3092 3094 3079 3078 3081 3088 3064 3065 3075 3077 3086 3075 3074 3084 3090 3092 3070 3109 3085 3105 3089 3092 3088 3091 3096 3087 3074 3071 3081 3081 3097 3088 3099 3086 3099 3083 3086 3078 3066 3072 3068 3080 3091 3087 3079 3099 3074 3090 3113 3100 3090 3099 3100 3078 3103 3086 3086 3093 3092 3098 3078 3081 3084 3088 3090 3093 3083 3076 3077 3085 3072 3085 3088 3090 3089 3080 3062 3093 3069 3116 3097 3086 3054 3078 3080 3075 3088 3072 3074 3079 3082 3080

Tree=0
num_leaves=31
num_cat=0
split_feature=120 139 136 212 136 101 23 45 142 81 163 0 193 122 93 207 51 211 169 205 198 42 137 110 86 43 208 182 136 207
split_gain=0.0112996 0.0383817 0.0003692 0.000199193 7.6301e-05 4.69973e-05 4.10292e-05 4.0295e-05 3.84402e-05 3.53348e-05 2.94758e-05 2.37895e-05 2.35354e-05 2.39025e-05 3.858e-05 1.94305e-05 1.32906e-05 1.14864e-05 2.47993e-05 4.84538e-05 1.12545e-05 1.11949e-05 1.04349e-05 1.0223e-05 9.20842e-06 1.10354e-05 6.65065e-06 6.49438e-06 6.39239e-06 7.02466e-06
threshold=0.028438661710037175 0.046993027309703665 0.99347878109060017 0.22247987996180604 0.99307167035548727 0.17150081808716347 0.43370617923884874 0.31905601103363729 1.5000000000000002 0.28708528082139301 0.99382780407448357 0.37659949429162515 0.059340499709471244 0.09541672350293276 0.099814126394052058 0.31905601103363729 8.5000000000000018 0.053965717606043004 3.5000000000000004 2.5000000000000004 0.38939544862462644 5.5000000000000009 0.097649858694035405 0.37494422132976352 0.073728004365025246 5.5000000000000009 0.99452932537779393 0.091030789825970557 0.99332834870921094 0.44054095471611371
decision_type=2 2 2 2 2 2 2 2 2 2 2 2 2 2 2 2 2 2 2 2 2 2 2 2 2 2 2 2 2 2
left_child=1 -1 4 7 16 8 10 24 -5 -9 -7 12 -11 14 -14 23 -2 18 19 -17 -16 -12 -15 -6 25 -4 -26 -23 -19 -30
right_child=2 -3 3 5 15 6 -8 9 -10 11 21 -13 13 22 20 17 -18 28 -20 -21 -22 27 -24 -25 26 -27 -28 -29 29 -31
leaf_value=0.99313923548429683 0.99312336776111565 0.99064748873469088 0.99314012305407628 0.99322840582102634 0.99313395106006486 0.99325359000394975 0.99326379726059977 0.99323216517149593 0.99316105028110557 0.99314887140786745 0.9931657349366757 0.99315084499399431 0.99326434393085261 0.99319883649147211 0.99316111899125037 0.99315329760697824 0.99313324521630431 0.99314100196715782 0.99313855731175327 0.99324452913835204 0.9932083225053645 0.9932234838396119 0.99316389719230802 0.99314184467677702 0.99315302324119048 0.99316407208242641 0.99318216216225197 0.99319379779241557 0.99314956948549227 0.9931803159803535
leaf_weight=68 934 20 341 28 653 26 39 20 87 73 26 195 20 26 28 43 536 271 55 22 23 27 120 1103 290 56 21 58 161 21
leaf_count=68 934 20 341 28 653 26 39 20 87 73 26 195 20 26 28 43 536 271 55 22 23 27 120 1103 290 56 21 58 161 21
internal_value=0.993135 0.992573 0.993144 0.993165 0.993136 0.993202 0.993219 0.993156 0.993177 0.993167 0.993206 0.993164 0.993173 0.993182 0.993205 0.993142 0.993127 0.99315 0.993163 0.993184 0.993182 0.993194 0.99317 0.993139 0.993149 0.993144 0.993155 0.993203 0.993146 0.993153
internal_weight=5391 88 5303 1504 3799 291 176 1213 115 505 137 485 290 217 71 2329 1470 573 120 65 51 111 146 1756 708 397 311 85 453 182
internal_count=5391 88 5303 1504 3799 291 176 1213 115 505 137 485 290 217 71 2329 1470 573 120 65 51 111 146 1756 708 397 311 85 453 182
is_linear=0
shrinkage=1


Tree=1
num_leaves=31
num_cat=0
split_feature=120 65 136 212 136 139 101 36 81 23 142 56 0 8 168 207 210 56 48 186 137 211 169 205 141 208 128 10 143 85
split_gain=0.0101979 0.0381585 0.000333203 0.000179772 6.88616e-05 4.99002e-05 4.2415e-05 3.74593e-05 4.18936e-05 3.70288e-05 3.46923e-05 3.08369e-05 2.09091e-05 2.29024e-05 3.06728e-05 1.75361e-05 1.61562e-05 1.93002e-05 1.37601e-05 1.19948e-05 1.06843e-05 1.03664e-05 2.23814e-05 4.37295e-05 9.85877e-06 9.68546e-06 8.30448e-06 9.90718e-06 8.14853e-06 7.85419e-06
threshold=0.028438661710037175 0.56113342257920573 0.99347878109060017 0.22247987996180604 0.99307167035548727 0.044378268448576411 0.17150081808716347 0.31905601103363729 0.28068730365489231 0.43370617923884874 1.5000000000000002 0.43347463929793251 0.37659949429162515 11.500000000000002 18.500000000000004 0.31905601103363729 0.10873605947955391 0.36430908820467062 0.098698884758364316 14.500000000000002 0.097649858694035405 0.053965717606043004 3.5000000000000004 2.5000000000000004 19.500000000000004 0.99315358897901607 0.3390599434776142 0.99368332941116899 10.500000000000002 0.034936083672283562
decision_type=2 2 2 2 2 2 2 2 2 2 2 2 2 2 2 2 2 2 2 2 2 2 2 2 2 2 2 2 2 2
left_child=1 5 4 7 19 -1 10 29 -9 11 -5 18 13 20 16 24 -15 -18 -8 -2 -10 22 23 -17 28 -26 27 -20 -6 -4
right_child=2 -3 3 6 15 -7 9 8 12 -11 -12 -13 -14 14 -16 21 17 -19 26 -21 -22 -23 -24 -25 25 -27 -28 -29 -30 -31
leaf_value=8.4429578843507144e-06 3.7334811246019762e-06 -0.0024484014872541596 9.8290548291698995e-06 9.4136061306926422e-05 5.493487701778498e-06 0.00010244559316561209 2.6067440982539364e-05 9.9132910203479711e-05 6.2422187395647847e-05 0.00012775792227983358 3.0148293154817878e-05 0.00012991203784622486 2.0252862153947855e-05 1.178450300428197e-05 0.00010668203478696971 2.2783252453061936e-05 2.7959941151796858e-05 8.5361083029056325e-05 0.00010438023670576514 -5.6501014846545983e-06 2.5061288683096467e-05 1.5726492776687018e-05 8.7799719982616469e-06 0.00010945320708825339 1.0179994154939432e-05 2.7629128247497192e-05 4.3778183780060235e-05 6.5699674287687381e-05 1.530319836027567e-05 2.1499098801113553e-05
leaf_weight=48 536 20 201 28 1159 20 21 25 22 39 87 20 197 26 26 43 27 32 25 934 147 453 55 22 210 128 22 49 259 510
leaf_count=48 536 20 201 28 1159 20 21 25 22 39 87 20 197 26 26 43 27 32 25 934 147 453 55 22 210 128 22 49 259 510
internal_value=5.27186e-06 -0.000528567 1.41306e-05 3.40499e-05 6.24465e-06 3.60908e-05 6.93431e-05 2.5583e-05 3.60399e-05 8.47734e-05 4.57279e-05 7.2537e-05 3.27332e-05 4.15139e-05 5.91586e-05 1.15927e-05 4.4622e-05 5.90928e-05 6.27293e-05 -2.2286e-06 2.99248e-05 1.91879e-05 3.22546e-05 5.21177e-05 9.11436e-06 1.6788e-05 7.07491e-05 7.87674e-05 7.28525e-06 1.82e-05
internal_weight=5391 88 5303 1504 3799 68 291 1213 502 176 115 137 477 280 111 2329 85 59 117 1470 169 573 120 65 1756 338 96 74 1418 711
internal_count=5391 88 5303 1504 3799 68 291 1213 502 176 115 137 477 280 111 2329 85 59 117 1470 169 573 120 65 1756 338 96 74 1418 711
is_linear=0
shrinkage=0.05


Tree=2
num_leaves=31
num_cat=0
split_feature=120 0 136 212 65 136 92 5 36 81 133 121 56 0 8 169 102 146 135 48 42 212 136 137 100 75 77 43 209 56
split_gain=0.00920359 0.0387231 0.000300716 0.000162244 6.50845e-05 6.21476e-05 3.86847e-05 3.47906e-05 3.3807e-05 3.7809e-05 2.94685e-05 2.79421e-05 2.77452e-05 1.88705e-05 2.06694e-05 2.78562e-05 3.58135e-05 1.89799e-05 1.59272e-05 1.35593e-05 1.08886e-05 1.03608e-05 1.00872e-05 8.3513e-06 8.4076e-06 7.49309e-06 7.29878e-06 1.12662e-05 7.04644e-06 1.4221e-05
threshold=0.028438661710037175 0.22954179756340512 0.99347878109060017 0.22247987996180604 0.55581585601665928 0.99307167035548727 0.17150081808716347 0.43370617923884874 0.31905601103363729 0.28068730365489231 1.5000000000000002 0.033773968622893669 0.43347463929793251 0.37659949429162515 11.500000000000002 5.5000000000000009 0.097583643122676589 0.28320690168079732 0.21834533752202895 0.098698884758364316 7.5000000000000009 0.092552175692265731 0.99326430323990655 0.3390599434776142 0.99442804417052189 0.096468401486988861 0.077820215523121003 5.5000000000000009 0.44410977242302546 0.40684962070504244
decision_type=2 2 2 2 2 2 2 2 2 2 2 2 2 2 2 2 2 2 2 2 2 2 2 2 2 2 2 2 2 2
left_child=1 4 5 8 11 20 10 12 26 -10 -5 -1 19 14 21 16 -16 -18 -7 -8 -2 -11 -20 24 -21 -24 27 -4 29 -27
right_child=2 -3 3 6 -6 18 7 -9 9 13 -12 -13 -14 -15 15 -17 17 -19 22 23 -22 -23 25 -25 -26 28 -28 -29 -30 -31
leaf_value=8.031980105411347e-07 -5.6009599406004822e-06 -0.0024361245465161119 9.4743287883115124e-06 8.5231095047978071e-05 0.00013986150290639629 4.8505710236896172e-06 2.4329548167853235e-05 0.00012275747907503835 9.4176265929490913e-05 1.4401457239937127e-05 2.7316193262688504e-05 7.87774499576699e-05 0.00012340752018644708 1.9240219018665534e-05 0.00012807236733351602 8.5111023584734838e-06 8.8637232578469638e-05 3.2588697228096534e-05 1.0192670026154009e-05 8.7795686986468427e-05 3.1982919212269576e-06 3.9354997989712026e-05 1.3483542902263882e-05 3.8863656009198173e-05 5.4186268243938684e-05 1.5612491903729154e-05 2.3168508210942597e-05 3.2934114596325044e-05 1.6401721829098793e-05 4.491580275204546e-05
leaf_weight=27 888 20 348 30 21 723 22 38 25 74 82 20 20 197 20 24 23 44 881 49 582 95 393 20 30 79 303 60 166 87
leaf_count=27 888 20 348 30 21 723 22 38 25 74 82 20 20 197 20 24 23 44 881 49 582 95 393 20 30 79 303 60 166 87
internal_value=5.00827e-06 -0.000502138 1.34241e-05 3.23474e-05 6.66813e-05 5.93241e-06 6.58759e-05 8.02963e-05 2.43039e-05 3.42379e-05 4.28291e-05 3.39837e-05 6.88528e-05 3.10965e-05 3.94382e-05 5.62007e-05 6.93564e-05 5.18292e-05 1.10131e-05 5.98355e-05 -2.11717e-06 2.84286e-05 1.37874e-05 6.77258e-05 7.50326e-05 1.81556e-05 1.729e-05 1.29243e-05 2.3686e-05 3.09703e-05
internal_weight=5391 88 5303 1504 68 3799 291 179 1213 502 112 47 141 477 280 111 87 67 2329 121 1470 169 1606 99 79 725 711 408 332 166
internal_count=5391 88 5303 1504 68 3799 291 179 1213 502 112 47 141 477 280 111 87 67 2329 121 1470 169 1606 99 79 725 711 408 332 166
is_linear=0
shrinkage=0.05


Tree=3
num_leaves=31
num_cat=0
split_feature=120 96 145 212 162 145 56 32 15 36 81 0 8 177 92 144 42 4 169 93 212 69 66 187 200 132 129 8 205 127
split_gain=0.00830624 0.0370429 0.000259947 0.000148051 6.14185e-05 5.20561e-05 3.52934e-05 3.57858e-05 4.50752e-05 2.85379e-05 3.41653e-05 1.69923e-05 1.89764e-05 2.97115e-05 1.69565e-05 1.66487e-05 1.47722e-05 1.47328e-05 1.37678e-05 1.07805e-05 1.03283e-05 9.56302e-06 9.29547e-06 1.14505e-05 2.56697e-05 8.55879e-06 8.42578e-06 1.1103e-05 8.23219e-06 8.1153e-06
threshold=0.028438661710037175 20.500000000000004 0.99349615776831846 0.22247987996180604 0.18318519653666385 0.99309500475128032 0.45474490554811842 0.37491474560087301 7.5000000000000009 0.31905601103363729 0.28068730365489231 0.37659949429162515 11.500000000000002 19.500000000000004 0.25126431652536074 0.27429890429852116 7.5000000000000009 0.58149331783846614 5.5000000000000009 0.10873605947955391 0.098554085390806165 16.500000000000004 0.15241635687732344 3.5000000000000004 0.46538003867321137 18.500000000000004 0.13773234200743495 9.5000000000000018 1.5000000000000002 0.99365751263284485
decision_type=2 2 2 2 2 2 2 2 2 2 2 2 2 2 2 2 2 2 2 2 2 2 2 2 2 2 2 2 2 2
left_child=1 4 5 9 -1 16 7 14 -9 -4 -11 12 20 18 -5 25 -2 -10 19 -14 -12 22 -17 24 -24 -7 -16 -28 -22 -21
right_child=2 -3 3 6 -6 15 -8 8 17 10 11 -13 13 -15 26 21 -18 -19 -20 29 28 -23 23 -25 -26 -27 27 -29 -30 -31
leaf_value=3.179146487167707e-05 -5.1217000511918376e-06 -0.0023685924756853185 1.620405390223232e-05 2.663239962208985e-05 0.00012682898534823088 4.3321175806501048e-06 0.00012668248458794551 0.0001264351080559815 3.920277080413014e-05 8.7781956209307906e-05 1.3413795924392957e-05 1.730408497188156e-05 8.0894309247101087e-05 0.00010670701671014762 3.5169726749830137e-05 1.5946581964762943e-05 4.3299398779491991e-06 9.0494731418965831e-05 4.0030528225543094e-06 1.693346192723766e-05 1.9417917376683496e-05 8.5446254020585333e-06 7.6418507281535625e-05 1.3283415905789297e-05 2.0444559581594352e-05 1.4261069084559213e-05 5.3598290644206128e-05 9.6940484416501761e-05 5.0664112591821671e-05 6.0482393537313334e-05
leaf_weight=34 894 20 689 77 34 854 20 36 42 26 80 188 21 21 28 555 769 21 20 23 35 326 33 60 54 291 45 22 53 20
leaf_count=34 894 20 689 77 34 854 20 36 42 26 80 188 21 21 28 555 769 21 20 23 35 326 33 60 54 291 45 22 53 20
internal_value=4.75786e-06 -0.000477031 1.27528e-05 3.06538e-05 7.93102e-05 5.907e-06 6.25852e-05 5.78547e-05 8.18037e-05 2.27524e-05 3.20169e-05 2.88718e-05 3.68379e-05 5.35124e-05 4.40701e-05 1.10024e-05 -7.51098e-07 5.63001e-05 4.02138e-05 5.15297e-05 2.64162e-05 1.56213e-05 1.89077e-05 3.00872e-05 4.16761e-05 6.85555e-06 5.82039e-05 6.78301e-05 3.82366e-05 3.71888e-05
internal_weight=5391 88 5303 1467 68 3836 291 271 99 1176 487 461 273 105 172 2173 1663 63 84 64 168 1028 702 147 87 1145 95 67 88 43
internal_count=5391 88 5303 1467 68 3836 291 271 99 1176 487 461 273 105 172 2173 1663 63 84 64 168 1028 702 147 87 1145 95 67 88 43
is_linear=0
shrinkage=0.05


Tree=4
num_leaves=31
num_cat=0
split_feature=120 77 136 212 87 90 136 101 23 45 90 142 163 207 126 8 102 209 171 132 208 48 162 203 208 180 19 197 136 75
split_gain=0.00749638 0.0367173 0.000246848 0.000131879 0.000114898 5.2073e-05 5.12225e-05 3.31267e-05 2.81182e-05 2.76885e-05 2.94522e-05 2.62244e-05 2.43517e-05 1.81078e-05 1.56484e-05 1.8591e-05 2.84907e-05 1.0885e-05 1.20846e-05 1.07169e-05 8.9414e-06 8.93301e-06 1.20578e-05 8.93144e-06 8.32645e-06 8.23745e-06 8.20416e-06 7.47642e-06 7.03985e-06 7.10181e-06
threshold=0.028438661710037175 0.05872323011867412 0.99347878109060017 0.22247987996180604 19.500000000000004 0.17679679718029268 0.99301854736932005 0.17150081808716347 0.43370617923884874 0.31905601103363729 0.28068730365489231 1.5000000000000002 0.99382780407448357 0.28068730365489231 0.37659949429162515 11.500000000000002 0.098698884758364316 0.34835638851703116 0.39578384798099758 18.500000000000004 0.99552525724930174 0.14795539033457253 0.35742471841238221 0.12528986495703179 0.99439329081508554 0.32545398820013793 0.99348771766771238 9.5000000000000018 0.9932598349513504 0.096468401486988861
decision_type=2 2 2 2 2 2 2 2 2 2 2 2 2 2 2 2 2 2 2 2 2 2 2 2 2 2 2 2 2 2
left_child=1 4 6 9 5 -1 -2 11 12 24 -11 -5 -9 19 15 21 -17 18 23 27 -14 -12 -23 -16 -4 -26 -18 -8 -15 -30
right_child=2 -3 3 7 -6 -7 13 8 -10 10 14 -13 20 28 17 16 26 -19 -20 -21 -22 22 -24 -25 25 -27 -28 -29 29 -31
leaf_value=2.1433194164770117e-06 -4.3201673225207791e-06 -0.0023364104809297718 1.4215595994698116e-05 8.0706474130108434e-05 0.00020139976229984315 0.0001066632255550268 9.8075558949657152e-07 0.00010601845901524381 0.00011058248439952972 8.6229607436309942e-05 1.6194439236016934e-05 2.5073363543344448e-05 5.8912774125769083e-05 1.0040353186111588e-05 3.0002206458448202e-05 0.00010167316490696977 5.6966755559747427e-05 1.084190369948013e-05 1.9352092770061646e-05 1.3010532030136176e-05 2.1989633346493068e-05 2.7105998767783219e-05 7.3459042405374936e-05 7.7255351643543688e-05 5.7363413440686173e-05 1.456798142746927e-05 1.7615702936971638e-05 9.65647184050838e-06 1.1855040363566386e-05 2.348305864599682e-05
leaf_weight=22 1010 20 663 28 20 26 936 26 39 23 80 87 91 625 20 25 26 145 72 364 20 47 20 20 23 22 27 338 253 273
leaf_count=22 1010 20 663 28 20 26 936 26 39 23 80 87 91 625 20 25 26 145 72 364 20 47 20 20 23 22 27 338 253 273
internal_value=4.51996e-06 -0.00045318 1.21152e-05 2.92601e-05 0.000100712 5.87583e-05 5.32765e-06 5.94887e-05 7.31253e-05 2.20082e-05 3.09528e-05 3.86188e-05 6.24623e-05 8.82149e-06 2.83151e-05 3.79436e-05 5.76742e-05 1.98855e-05 3.15938e-05 5.44427e-06 5.226e-05 2.74743e-05 4.09427e-05 5.36288e-05 1.56282e-05 3.64412e-05 3.692e-05 3.28248e-06 1.36276e-05 1.78901e-05
internal_weight=5391 88 5303 1504 68 48 3799 291 176 1213 505 115 137 2789 482 225 78 257 112 1638 111 147 67 40 708 45 53 1274 1151 526
internal_count=5391 88 5303 1504 68 48 3799 291 176 1213 505 115 137 2789 482 225 78 257 112 1638 111 147 67 40 708 45 53 1274 1151 526
is_linear=0
shrinkage=0.05


Tree=5
num_leaves=31
num_cat=0
split_feature=120 136 86 212 180 136 212 6 3 47 34 52 8 193 92 73 132 210 164 111 135 211 47 8 37 132 39 209 156 136
split_gain=0.000457273 0.000222843 0.000178918 0.000101992 7.35819e-05 5.46872e-05 3.50822e-05 3.40194e-05 3.33047e-05 2.74222e-05 2.45235e-05 2.75585e-05 2.44658e-05 4.54115e-05 4.30406e-05 2.29028e-05 1.51922e-05 1.44128e-05 1.42073e-05 1.41698e-05 1.35542e-05 1.20667e-05 8.41476e-06 9.8601e-06 1.40384e-05 8.10738e-06 1.40533e-05 2.22018e-05 2.91945e-05 7.40379e-06
threshold=0.028438661710037175 0.99355573494906657 0.050948028918292192 0.25051152639476199 0.18957359589303502 0.99313224048924797 0.097735643159187022 8.5000000000000018 0.18141263940520447 0.47069760523575782 3.5000000000000004 1.0000000180025095e-35 9.5000000000000018 0.12855897733875654 0.38557935445485653 0.99405370088482059 18.500000000000004 0.22342007434944239 0.32574743418116919 0.18810408921933089 0.21834533752202895 0.19763219058686812 0.38557935445485653 10.500000000000002 0.99361531212981491 14.500000000000002 0.15018587360594798 0.44410977242302546 0.083085501858736061 0.99300365307413296
decision_type=2 2 2 2 2 2 2 2 2 2 2 2 2 2 2 2 2 2 2 2 2 2 2 2 2 2 2 2 2 2
left_child=2 5 4 6 9 16 22 8 19 -1 11 -8 21 14 18 17 29 -9 -14 -5 -7 -13 23 -3 -25 -22 -27 28 -28 -2
right_child=1 3 -4 7 -6 20 10 15 -10 -11 -12 12 13 -15 -16 -17 -18 -19 -20 -21 25 -23 -24 24 -26 26 27 -29 -30 -31
leaf_value=7.4048086435141159e-06 -5.1599077710750808e-06 1.2031351787462241e-05 0.00023392634242414858 2.86321623062494e-05 0.00015072527779314744 4.5343854023430809e-06 1.2546608253691836e-05 4.5115973407519056e-05 0.00012216938489083466 8.5954058336028551e-05 1.7194447836577089e-05 2.1961575031117729e-05 8.5144779518486757e-05 3.2848726587381435e-05 0.00014457342158889135 3.1901987250536183e-05 1.2586575382045438e-05 0.00010376249343938651 3.4253937576522732e-05 8.1100614296437631e-05 1.101932656730864e-05 6.4854981155804131e-05 8.1458025305950699e-06 5.9612434404588193e-05 1.9355883173808425e-05 1.4726558874139762e-05 2.7179362491226914e-05 1.4512887004040446e-05 0.00010627401386045677 1.341492020466506e-06
leaf_weight=25 839 129 26 22 24 531 71 20 35 20 176 91 32 76 23 101 206 22 24 31 961 20 287 33 63 455 28 60 20 916
leaf_count=25 839 129 26 22 24 531 71 20 35 20 176 91 32 76 23 101 206 22 24 31 961 20 287 33 63 455 28 60 20 916
internal_value=1.3422e-05 1.14629e-05 0.000122144 2.98445e-05 8.00233e-05 5.71406e-06 2.30806e-05 5.98578e-05 8.43177e-05 4.23156e-05 3.23217e-05 4.02221e-05 4.76091e-05 6.04414e-05 8.69863e-05 4.48056e-05 -2.58807e-07 7.58356e-05 6.33344e-05 5.93213e-05 1.14137e-05 2.96901e-05 1.38213e-05 2.10608e-05 3.31941e-05 1.38107e-05 1.85752e-05 3.47896e-05 6.01355e-05 -1.76658e-06
internal_weight=5367 5272 95 1256 69 4016 1025 231 88 45 513 337 266 155 79 143 1961 42 56 53 2055 111 512 225 96 1524 563 108 48 1755
internal_count=5367 5272 95 1256 69 4016 1025 231 88 45 513 337 266 155 79 143 1961 42 56 53 2055 111 512 225 96 1524 563 108 48 1755
is_linear=0
shrinkage=0.05


Tree=6
num_leaves=31
num_cat=0
split_feature=120 145 86 211 47 145 63 36 81 92 4 10 163 126 8 65 207 56 141 88 192 188 137 45 30 56 141 183 210 208
split_gain=0.000412689 0.000194105 0.000161473 9.53685e-05 6.69904e-05 3.76998e-05 3.11276e-05 2.77651e-05 2.95394e-05 2.63793e-05 2.61934e-05 2.63137e-05 2.1654e-05 1.84188e-05 2.28153e-05 3.2995e-05 1.63179e-05 1.25118e-05 1.1961e-05 9.24277e-06 1.33289e-05 8.67752e-06 8.59895e-06 8.49492e-06 8.49072e-06 8.2098e-06 8.03442e-06 9.69506e-06 6.71597e-06 6.66458e-06
threshold=0.028438661710037175 0.99347878109060017 0.050948028918292192 0.21252178965717608 0.49196787148594379 0.99301258965124528 0.17679679718029268 0.33184238755650908 0.28708528082139301 0.30975754871337208 0.27622022080185943 0.9941723587698108 0.99435953041266145 0.39578384798099758 11.500000000000002 0.3284248103525213 0.31905601103363729 0.16681540978729734 19.500000000000004 3.5000000000000004 0.084200743494423788 9.5000000000000018 0.097649858694035405 0.39578384798099758 0.21449814126394054 0.43347463929793251 18.500000000000004 0.11431226765799256 0.20111524163568775 0.99312777220069182
decision_type=2 2 2 2 2 2 2 2 2 2 2 2 2 2 2 2 2 2 2 2 2 2 2 2 2 2 2 2 2 2
left_child=2 5 4 7 6 -2 -1 25 -9 10 24 -12 -11 14 19 -16 18 -13 21 20 -10 -7 -15 26 -5 28 -18 -28 -3 -20
right_child=1 3 -4 9 -6 16 -8 8 13 12 11 17 -14 22 15 -17 23 -19 29 -21 -22 -23 -24 -25 -26 -27 27 -29 -30 -31
leaf_value=-6.2794594345197536e-07 -3.6714503337945991e-06 1.7298637072665874e-05 0.00022223002519100333 1.4608329733000069e-05 0.00014348306085594232 1.7976620180892995e-06 8.256258806795814e-05 8.6721467860942627e-05 6.7626226835114798e-05 0.00010354072855989216 0.00011070634925090418 3.1902324119275568e-05 5.2280614792026526e-05 3.3521801097300515e-05 2.5684045554522817e-05 9.157370268918673e-05 1.454462226528686e-05 6.9068019850722828e-05 8.3012082468795055e-06 8.5269364090676295e-06 2.4667091581082313e-05 9.2560111715914305e-06 7.1774708111029293e-06 9.6457431726609874e-07 4.9504194383031148e-05 9.4426666042166641e-06 2.1955089451553314e-05 6.062742120429036e-05 3.8352427911250258e-05 2.1736440704838172e-05
leaf_weight=23 958 318 26 72 24 1264 22 22 23 38 20 54 45 42 38 38 443 39 224 54 84 564 118 93 23 406 71 21 43 157
leaf_count=23 958 318 26 72 24 1264 22 22 23 38 20 54 45 42 38 38 443 39 224 54 84 564 118 93 23 406 71 21 43 157
internal_value=1.27509e-05 1.08898e-05 0.000116037 2.62683e-05 7.60221e-05 4.90446e-06 4.0043e-05 1.99749e-05 3.03256e-05 5.19178e-05 4.24082e-05 5.8677e-05 7.57491e-05 2.72004e-05 3.60493e-05 5.86289e-05 7.80038e-06 4.74879e-05 5.77851e-06 2.53906e-05 3.39013e-05 4.09882e-06 1.40929e-05 1.49124e-05 2.30568e-05 1.43205e-05 1.73369e-05 3.07825e-05 1.98064e-05 1.38375e-05
internal_weight=5367 5272 95 1477 69 3795 45 1186 419 291 208 113 83 397 237 76 2837 93 2209 161 107 1828 160 628 95 767 535 92 361 381
internal_count=5367 5272 95 1477 69 3795 45 1186 419 291 208 113 83 397 237 76 2837 93 2209 161 107 1828 160 628 95 767 535 92 361 381
is_linear=0
shrinkage=0.05


Tree=7
num_leaves=31
num_cat=0
split_feature=120 136 86 212 180 136 212 6 3 47 34 52 100 8 193 92 76 132 111 126 207 88 132 30 209 121 47 8 28 146
split_gain=0.000372452 0.000183414 0.00014573 8.36799e-05 6.35341e-05 4.53591e-05 2.99191e-05 2.95957e-05 2.8464e-05 2.17827e-05 2.15137e-05 2.42461e-05 2.11917e-05 2.09978e-05 4.03464e-05 3.76205e-05 1.32142e-05 1.29635e-05 1.24017e-05 1.13995e-05 1.03875e-05 9.00256e-06 7.52162e-06 1.22835e-05 1.76756e-05 2.49122e-05 6.91861e-06 8.55163e-06 1.41952e-05 6.79554e-06
threshold=0.028438661710037175 0.99355573494906657 0.050948028918292192 0.25051152639476199 0.18957359589303502 0.99313224048924797 0.097735643159187022 8.5000000000000018 0.18141263940520447 0.47069760523575782 3.5000000000000004 1.0000000180025095e-35 0.99393007823476798 9.5000000000000018 0.12855897733875654 0.38557935445485653 0.083599651365485181 18.500000000000004 0.18810408921933089 0.21834533752202895 0.46611370776185734 1.5000000000000002 14.500000000000002 0.12992565055762081 0.44410977242302546 0.052513073794305636 0.38557935445485653 10.500000000000002 0.99355573494906657 0.23531161683772125
decision_type=2 2 2 2 2 2 2 2 2 2 2 2 2 2 2 2 2 2 2 2 2 2 2 2 2 2 2 2 2 2
left_child=2 5 4 6 9 17 26 8 18 -1 11 -8 -9 20 15 16 -15 -2 -5 -7 -13 -14 -21 -24 25 -25 27 -3 -29 -23
right_child=1 3 -4 7 -6 19 10 12 -10 -11 -12 13 21 14 -16 -17 -18 -19 -20 22 -22 29 23 24 -26 -27 -28 28 -30 -31
leaf_value=6.0676793205516335e-06 -1.7027033926019108e-06 1.0499452983194786e-05 0.00021111852368518999 2.5202439693120228e-05 0.00013791862493235386 3.9876137741738187e-06 1.0869605602186915e-05 8.1985185017401826e-05 0.00011201450783638783 7.6075614852015865e-05 1.5260337079568067e-05 1.9986381879949315e-05 6.0157619769928385e-05 8.990977152106574e-05 2.963719525364707e-05 0.00013450552758750628 3.9740184739847405e-05 1.1555907586555196e-05 7.4288280325896682e-05 9.8474646627758086e-06 5.9783406068163463e-05 1.2714580317100078e-05 1.2348591857526255e-05 8.1869636111756949e-05 1.3748873412977345e-05 2.278092580354496e-05 7.1977654579947617e-06 5.7398712544909362e-05 1.6612688657269281e-05 3.9465917287215724e-05
leaf_weight=25 1755 129 26 22 24 528 71 25 35 20 176 91 22 21 76 23 35 206 31 969 20 53 394 30 90 44 287 32 64 43
leaf_count=25 1755 129 26 22 24 528 71 25 35 20 176 91 22 21 76 23 35 206 31 969 20 53 394 30 90 44 287 32 64 43
internal_value=1.21134e-05 1.03453e-05 0.000110235 2.70216e-05 7.2221e-05 5.12976e-06 2.08948e-05 5.42074e-05 7.70216e-05 3.71823e-05 2.9429e-05 3.68286e-05 4.01679e-05 4.37575e-05 5.56456e-05 8.06663e-05 5.85538e-05 -3.09907e-07 5.3913e-05 1.03206e-05 2.7157e-05 3.13083e-05 1.25104e-05 1.71348e-05 2.86332e-05 4.67358e-05 1.23441e-05 1.89084e-05 3.0208e-05 2.4697e-05
internal_weight=5367 5272 95 1256 69 4016 1025 231 88 45 513 337 143 266 155 79 56 1961 53 2055 111 118 1527 558 164 74 512 225 96 96
internal_count=5367 5272 95 1256 69 4016 1025 231 88 45 513 337 143 266 155 79 56 1961 53 2055 111 118 1527 558 164 74 512 225 96 96
is_linear=0
shrinkage=0.05


Tree=8
num_leaves=31
num_cat=0
split_feature=120 136 86 212 96 136 90 212 141 3 34 61 8 193 36 112 90 5 55 126 212 111 42 141 208 211 210 57 47 8
split_gain=0.000336138 0.000165531 0.000131521 7.55211e-05 5.85393e-05 4.12775e-05 3.56545e-05 2.7002e-05 2.6948e-05 2.27461e-05 1.94161e-05 2.17819e-05 1.91468e-05 3.76539e-05 3.37344e-05 4.14045e-05 1.50145e-05 1.44337e-05 1.40553e-05 1.17838e-05 9.75689e-06 9.63106e-06 9.00738e-06 8.0504e-06 9.07605e-06 1.18864e-05 1.40777e-05 6.90906e-06 6.24404e-06 7.71785e-06
threshold=0.028438661710037175 0.99355573494906657 0.050948028918292192 0.25051152639476199 16.500000000000004 0.99309500475128032 0.17999578576354303 0.097735643159187022 15.500000000000002 0.18141263940520447 3.5000000000000004 1.0000000180025095e-35 9.5000000000000018 0.12855897733875654 0.33184238755650908 0.10945671121441024 0.41496820167037007 0.3352885008866458 0.99425725625237704 0.21834533752202895 0.19731278133951716 0.18810408921933089 7.5000000000000009 18.500000000000004 0.99309500475128032 0.067184776292853007 0.11988847583643124 0.13438661710037178 0.38557935445485653 10.500000000000002
decision_type=2 2 2 2 2 2 2 2 2 2 2 2 2 2 2 2 2 2 2 2 2 2 2 2 2 2 2 2 2 2
left_child=2 5 4 7 6 22 -1 28 16 21 11 -9 20 14 -14 -16 -5 -18 -19 -7 -13 -10 -2 -21 -25 26 -26 -15 29 -3
right_child=1 3 -4 8 -6 19 -8 10 9 -11 -12 12 13 27 15 -17 17 18 -20 23 -22 -23 -24 24 25 -27 -28 -29 -30 -31
leaf_value=-2.0370297630296803e-06 -4.5040824988662712e-06 9.9744802573096505e-06 0.00020056259437786561 7.9556835044058974e-05 0.00013592421063632091 3.4504752420423373e-06 8.5558039427269253e-05 9.7043787486186637e-06 2.7124063944938828e-05 0.00010857026760908002 1.4497320130082225e-05 1.8495370424496508e-05 4.4199620565450462e-05 1.6364487448893726e-05 0.00016000680159777402 5.8266264950361808e-05 1.5500228246970261e-05 8.4053874597884718e-05 3.4458651946806641e-05 9.4750013562052227e-06 5.630516395848688e-05 7.2553103979901479e-05 2.9232001670957682e-06 7.9268637853147088e-06 2.721162810717666e-05 1.4067592954326304e-05 7.3270495435974155e-05 4.7499417282129539e-05 6.8378771107707682e-06 2.8697628379840508e-05
leaf_weight=26 915 129 26 20 22 662 21 68 20 31 176 91 40 49 20 20 62 20 50 1324 21 28 737 145 79 133 21 28 287 96
leaf_count=26 915 129 26 20 22 662 21 68 20 31 176 91 40 49 20 20 62 20 50 1324 21 28 737 145 79 133 21 28 287 96
internal_value=1.15077e-05 9.828e-06 0.000104723 2.56705e-05 6.861e-05 4.87327e-06 3.71012e-05 1.98501e-05 5.1497e-05 7.51854e-05 2.79575e-05 3.49872e-05 4.13784e-05 5.26452e-05 7.66681e-05 0.000109137 3.91853e-05 3.30684e-05 4.86287e-05 9.11079e-06 2.55847e-05 5.36243e-05 -1.19058e-06 1.13124e-05 1.77481e-05 2.386e-05 3.6884e-05 2.76863e-05 1.17269e-05 1.7963e-05
internal_weight=5367 5272 95 1256 69 4016 47 1025 231 79 513 337 269 157 80 40 152 132 70 2364 112 48 1652 1702 378 233 100 77 512 225
internal_count=5367 5272 95 1256 69 4016 47 1025 231 79 513 337 269 157 80 40 152 132 70 2364 112 48 1652 1702 378 233 100 77 512 225
is_linear=0
shrinkage=0.05


Tree=9
num_leaves=31
num_cat=0
split_feature=120 136 140 212 96 136 63 212 141 3 70 52 8 202 129 164 100 123 212 88 135 57 153 64 214 140 22 136 132 39
split_gain=0.000303364 0.000149392 0.000121781 6.81578e-05 6.79769e-05 3.73324e-05 3.62639e-05 2.44677e-05 2.43206e-05 2.05284e-05 1.8072e-05 1.99487e-05 1.98933e-05 3.01452e-05 3.27974e-05 1.73901e-05 1.46543e-05 1.13005e-05 1.04036e-05 1.00256e-05 9.39722e-06 9.07782e-06 7.90453e-06 6.54041e-06 6.04985e-06 5.7978e-06 9.046e-06 8.69492e-06 5.93296e-06 1.0773e-05
threshold=0.028438661710037175 0.99355573494906657 0.049038330377847501 0.25051152639476199 16.500000000000004 0.99313224048924797 0.17999578576354303 0.089414813804392312 15.500000000000002 0.18141263940520447 3.5000000000000004 1.0000000180025095e-35 9.5000000000000018 0.12855897733875654 0.11654275092936804 0.29384203480589027 0.99393007823476798 17.500000000000004 0.19731278133951716 1.5000000000000002 0.21834533752202895 0.13438661710037178 0.5236571910198452 0.99542298308901744 1.0000000180025095e-35 0.13497476469785843 0.073285880302149928 0.99327274334051252 14.500000000000002 0.15241635687732344
decision_type=2 2 2 2 2 2 2 2 2 2 2 2 2 2 2 2 2 2 2 2 2 2 2 2 2 2 2 2 2 2
left_child=2 5 4 7 6 17 -1 24 16 22 11 -9 18 14 -14 -16 -5 -2 -13 -18 -7 -15 -10 -21 -3 26 -22 -28 -29 -30
right_child=1 3 -4 8 -6 20 -8 10 9 -11 -12 12 13 21 15 -17 19 -19 -20 23 25 -23 -24 -25 -26 -27 27 28 29 -31
leaf_value=-3.2482698198119012e-06 -1.8673202906359799e-06 2.675401133546984e-05 0.00020911319792503492 7.1402596526800509e-05 0.00013560142283845029 3.610751401164191e-06 8.3231036164348063e-05 1.1489304592742174e-05 2.7936132669094065e-05 0.0001031417524744381 1.2680882727299118e-05 1.6860267962892111e-05 0.00012259425066903613 1.427373423211975e-05 7.7000077488478661e-05 2.5645636696935981e-05 5.9249703008390503e-05 8.9179812689176003e-06 5.6206890076282437e-05 2.9779009298776441e-05 9.0292862537039743e-06 4.8711697018593588e-05 6.8837443514321763e-05 -1.5336793088257158e-06 8.3365536531273872e-06 4.3561003002446438e-06 1.0005581502261634e-05 1.5890921238595915e-05 2.0879944119805692e-05 4.8526621632319414e-05
leaf_weight=27 1677 50 20 26 26 531 22 91 21 31 178 105 22 50 34 32 24 284 20 81 725 31 27 21 412 249 226 159 114 51
leaf_count=27 1677 50 20 26 26 531 22 91 21 31 178 105 22 50 34 32 24 284 20 81 725 31 27 21 412 249 226 159 114 51
internal_value=1.09323e-05 9.3366e-06 9.94872e-05 2.4387e-05 7.02536e-05 4.62961e-06 3.55792e-05 1.88576e-05 4.89222e-05 7.14261e-05 2.58556e-05 3.19467e-05 3.82787e-05 4.94644e-05 6.97243e-05 5.2101e-05 3.7226e-05 -3.05349e-07 2.31557e-05 3.01737e-05 9.33883e-06 2.74537e-05 5.09431e-05 2.33323e-05 1.03298e-05 1.13346e-05 1.26975e-05 1.75329e-05 2.27834e-05 2.94253e-05
internal_weight=5367 5272 95 1256 75 4016 49 1025 231 79 563 385 294 169 88 66 152 1961 125 126 2055 81 48 102 462 1524 1275 550 324 165
internal_count=5367 5272 95 1256 75 4016 49 1025 231 79 563 385 294 169 88 66 152 1961 125 126 2055 81 48 102 462 1524 1275 550 324 165
is_linear=0
shrinkage=0.05


Tree=10
num_leaves=31
num_cat=0
split_feature=57 120 106 136 77 208 150 30 68 136 14 46 154 49 139 198 112 67 12 132 128 75 207 7 40 135 59 20 78 136
split_gain=0.0360926 0.00889505 0.0365127 0.000128922 0.000110561 6.79644e-05 5.02507e-05 3.17588e-05 2.12684e-05 1.87711e-05 1.72195e-05 2.48962e-05 1.59493e-05 1.45555e-05 1.41991e-05 2.33104e-05 2.36326e-05 1.3779e-05 9.34621e-06 7.87105e-06 7.38101e-06 7.60261e-06 6.9983e-06 6.93826e-06 6.49956e-06 9.62984e-06 8.12784e-06 6.29882e-06 6.29545e-06 6.13118e-06
threshold=0.023977695167286244 0.028438661710037175 4.5000000000000009 0.99328565172967465 0.056540717501023054 0.99362375223042088 17.500000000000004 0.081226765799256515 0.030350566089210208 0.99301258965124528 0.31844223161915158 0.99405370088482059 0.99390426145644384 0.071106914584543879 0.11061882626380012 0.35102674124588151 0.083018593840790245 0.36199883788495063 0.28884758364312274 18.500000000000004 0.31243492488472419 0.14572490706319705 0.28068730365489231 2.5000000000000004 0.18557524694944799 0.34462876407938087 0.083958532260264632 0.047486241261341669 16.500000000000004 0.99331941213209862
decision_type=2 2 2 2 2 2 2 2 2 2 2 2 2 2 2 2 2 2 2 2 2 2 2 2 2 2 2 2 2 2
left_child=-1 2 -2 9 8 13 10 -8 -4 -3 18 -12 -9 28 15 29 -17 20 23 22 21 -14 -11 24 25 -7 -27 -13 -5 -15
right_child=1 3 4 5 -6 6 7 12 -10 19 11 27 17 14 -16 16 -18 -19 -20 -21 -22 -23 -24 -25 -26 26 -28 -29 -30 -31
leaf_value=-0.0018665314673223924 -0.0023730347693260972 -3.9190583455193543e-06 7.6462461156552304e-05 9.2425585400965137e-06 0.00018167902682242649 1.7089552693106636e-05 1.6089780202340384e-05 0.00010452994110892178 3.5440350438875614e-06 6.5620240261252297e-07 8.6738134268671277e-05 5.8030588992220485e-06 3.5613248300727546e-05 3.6802074150967346e-05 9.0889656590092578e-06 8.0646376642334874e-05 1.8327926039626948e-05 9.558113713865169e-05 4.6777181008413515e-05 1.1058560996914203e-05 2.3719831265875007e-05 7.4577169993238888e-05 7.5079698770573431e-06 1.159044622242315e-05 5.8232520534020724e-06 5.6552330036203407e-05 2.744330004431434e-05 3.7458789674102184e-05 -1.4295511871308544e-06 1.5640879908726288e-05
leaf_weight=26 20 934 20 555 21 114 39 24 20 1033 24 22 21 38 374 32 29 20 30 388 21 31 583 225 43 38 65 55 184 345
leaf_count=26 20 934 20 555 21 114 39 24 20 1033 24 22 21 38 374 32 29 20 30 388 21 31 583 225 43 38 65 55 184 345
internal_value=-8.1316e-06 9.03249e-07 -0.000519078 8.89992e-06 8.87769e-05 1.76859e-05 2.9816e-05 5.51649e-05 4.00032e-05 1.9351e-06 2.33964e-05 4.22734e-05 6.819e-05 1.16716e-05 1.62666e-05 2.23126e-05 5.10196e-05 5.88119e-05 1.96943e-05 4.66354e-06 4.87382e-05 5.88417e-05 3.1281e-06 1.80191e-05 2.35824e-05 2.71014e-05 3.81826e-05 2.84143e-05 6.58536e-06 1.77404e-05
internal_weight=5374 5348 81 5267 61 2329 772 156 40 2938 616 101 117 1557 818 444 61 93 515 2004 73 52 1616 485 260 217 103 77 739 383
internal_count=5374 5348 81 5267 61 2329 772 156 40 2938 616 101 117 1557 818 444 61 93 515 2004 73 52 1616 485 260 217 103 77 739 383
is_linear=0
shrinkage=0.05


Tree=11
num_leaves=31
num_cat=0
split_feature=48 120 74 210 136 208 150 48 193 136 14 46 2 4 49 104 198 102 132 12 210 209 153 16 207 40 202 72 180 20
split_gain=0.0443977 0.00770423 0.0362207 0.000123597 0.000114692 6.17763e-05 4.43471e-05 3.16237e-05 2.88374e-05 1.52553e-05 1.52351e-05 2.26664e-05 1.41742e-05 1.72398e-05 1.28507e-05 1.25658e-05 3.44798e-05 9.811e-06 7.56865e-06 7.53586e-06 6.44713e-06 1.4594e-05 7.10115e-06 6.37582e-06 6.30714e-06 5.9716e-06 8.94127e-06 6.58822e-06 6.82863e-06 5.57268e-06
threshold=0.0224907063197026 0.028438661710037175 0.50260300461103691 0.067472118959107832 0.99328565172967465 0.99360687202920883 17.500000000000004 0.10204460966542751 0.039439279488669383 0.99301258965124528 0.31844223161915158 0.99405370088482059 0.28848728246318611 0.088393375944218491 0.071106914584543879 0.10782976401582323 0.3702015171251245 0.21895910780669145 18.500000000000004 0.28884758364312274 0.11096654275092938 0.43347463929793251 0.33184238755650908 2.5000000000000004 0.28068730365489231 0.18557524694944799 0.21252178965717608 0.2998812351543943 0.33184238755650908 0.047486241261341669
decision_type=2 2 2 2 2 2 2 2 2 2 2 2 2 2 2 2 2 2 2 2 2 2 2 2 2 2 2 2 2 2
left_child=-1 2 3 8 9 14 10 -8 -2 -3 19 -12 17 -14 -6 16 20 -9 24 23 -16 -22 -23 25 -11 26 27 -7 -29 -13
right_child=1 4 -4 -5 5 6 7 12 -10 18 11 29 13 -15 15 -17 -18 -19 -20 -21 21 22 -24 -25 -26 -27 -28 28 -30 -31
leaf_value=-0.0023591201149338308 2.2573187727010175e-05 -3.2378309201405978e-06 -0.0023307225762982851 0.00021063860677670513 6.1703910771996575e-06 9.2799162448642395e-06 1.8443477261826047e-05 3.0567467479158954e-05 0.00010552889654718457 6.2452483007015517e-07 8.2401226942844616e-05 5.512905900931483e-06 4.7865815727163866e-05 0.00010636889646240674 1.3942439795671899e-05 9.6761060824138851e-06 8.6042497264315906e-05 7.1917794523939786e-05 1.0746748598359661e-05 4.2746897088363772e-05 5.7624541950058163e-05 3.9257379763119555e-06 3.5169096182588906e-05 1.1286597529629405e-05 7.1325713904173068e-06 5.2506564881717902e-06 5.6854155517222745e-05 4.8930547666259376e-05 2.2714430276398349e-05 3.521205535191387e-05
leaf_weight=20 22 939 20 21 726 64 50 32 20 1030 24 22 20 34 238 442 20 26 389 31 31 44 31 233 583 42 21 32 111 56
leaf_count=20 22 939 20 21 726 64 50 32 20 1030 24 22 20 34 238 442 20 26 389 31 31 44 31 233 583 42 21 32 111 56
internal_value=-7.72502e-06 1.05867e-06 -0.000476914 0.000111597 8.58508e-06 1.68714e-05 2.81519e-05 5.15065e-05 6.20759e-05 2.0203e-06 2.22031e-05 3.99097e-05 6.62668e-05 8.47011e-05 1.09954e-05 1.53416e-05 2.22211e-05 4.91038e-05 4.48653e-06 1.8821e-05 1.85106e-05 2.87673e-05 1.68397e-05 1.73464e-05 2.97678e-06 2.25758e-05 2.57672e-05 2.26135e-05 2.8581e-05 2.68354e-05
internal_weight=5374 5354 83 63 5271 2330 798 162 42 2941 636 102 112 54 1532 806 364 58 2002 534 344 106 75 503 1613 270 228 207 143 78
internal_count=5374 5354 83 63 5271 2330 798 162 42 2941 636 102 112 54 1532 806 364 58 2002 534 344 106 75 503 1613 270 228 207 143 78
is_linear=0
shrinkage=0.05


Tree=12
num_leaves=31
num_cat=0
split_feature=48 120 3 136 180 207 150 48 40 209 205 215 75 135 33 150 199 210 46 184 8 207 132 148 47 93 214 147 79 52
split_gain=0.0400689 0.00695307 0.0354725 0.000103509 9.57845e-05 5.37304e-05 2.78261e-05 1.99018e-05 1.63791e-05 1.61519e-05 2.83255e-05 1.38748e-05 1.26836e-05 1.11521e-05 9.14631e-06 8.44438e-06 1.71151e-05 1.42946e-05 1.38623e-05 1.36907e-05 8.37131e-06 8.72726e-06 7.97102e-06 7.31921e-06 1.63977e-05 6.96742e-06 9.7447e-06 6.75518e-06 6.56129e-06 7.2434e-06
threshold=0.0224907063197026 0.028438661710037175 0.072304832713754666 0.99328565172967465 0.18957359589303502 0.3702015171251245 17.500000000000004 0.12211895910780669 0.067184776292853007 0.3337051911349101 2.5000000000000004 9.5000000000000018 0.22565055762081784 0.29348325798789371 6.5000000000000009 17.500000000000004 0.99359793545209663 0.11096654275092938 0.99357261515027862 0.090136548518303314 1.5000000000000002 0.46611370776185734 14.500000000000002 0.055418361417780358 0.48665030492339734 0.2278810408921933 2.5000000000000004 0.12657992565055765 1.0000000180025095e-35 1.5000000000000002
decision_type=2 2 2 2 2 2 2 2 2 2 2 2 2 2 2 2 2 2 2 2 2 2 2 2 2 2 2 2 2 2
left_child=-1 2 4 11 -2 8 13 -8 -5 10 -9 14 -12 -7 -3 -10 17 -17 -19 -18 21 -15 -13 24 -24 26 -23 -22 -29 -30
right_child=1 3 -4 5 -6 6 7 9 15 -11 12 22 -14 20 -16 16 19 18 -20 -21 27 25 23 -25 -26 -27 -28 28 29 -31
leaf_value=-0.0022411641781218349 7.9325879201669046e-05 -3.9475979902676614e-06 -0.0022876296972174259 6.3405310402604445e-06 0.00020534201324335302 5.7919629861793336e-05 1.6092159189611265e-05 0.00010083631782256482 1.2485350784470561e-05 2.9158466427637952e-05 1.9439485304946387e-05 4.7563428169526029e-06 7.1684325285743748e-05 1.0640176871019385e-05 2.5630921057307155e-06 1.2164750146004078e-05 8.0577338108014376e-05 6.8995658078089647e-05 1.5795876981201218e-05 2.9469185212866781e-05 4.4389825227665963e-06 7.6555454179469968e-05 1.5354442927593785e-05 1.9733890223372735e-06 6.1670103921484127e-05 2.1714316130007984e-05 3.4885044024509199e-05 -2.8318362514786109e-06 5.1101311818575088e-05 2.0318558411587076e-05
leaf_weight=20 38 871 20 800 25 21 40 38 596 37 26 459 21 43 1417 235 20 24 25 38 95 20 113 58 23 44 47 24 23 113
leaf_count=20 38 871 20 800 25 21 40 38 596 37 26 459 21 43 1417 235 20 24 25 38 95 20 113 58 23 44 47 24 23 113
internal_value=-7.33877e-06 1.00574e-06 -0.000453068 8.15583e-06 0.000129332 1.60278e-05 2.90374e-05 4.66983e-05 1.15964e-05 5.67331e-05 6.87362e-05 1.91929e-06 4.27829e-05 2.23838e-05 8.45908e-08 1.60791e-05 2.23418e-05 1.7287e-05 4.18529e-05 4.70927e-05 2.05592e-05 2.9764e-05 8.34775e-06 1.6845e-05 2.31872e-05 3.71724e-05 4.7324e-05 1.50003e-05 2.1271e-05 2.55245e-05
internal_weight=5374 5354 83 5271 63 2330 592 162 1738 122 85 2941 47 430 2288 938 342 284 49 58 409 154 653 194 136 111 67 255 160 136
internal_count=5374 5354 83 5271 63 2330 592 162 1738 122 85 2941 47 430 2288 938 342 284 49 58 409 154 653 194 136 111 67 255 160 136
is_linear=0
shrinkage=0.05


Tree=13
num_leaves=31
num_cat=0
split_feature=48 129 201 120 120 210 136 212 150 136 27 79 132 209 126 149 3 99 7 46 132 180 207 5 68 190 205 90 203 149
split_gain=0.0361622 0.00636193 0.0390228 0.000290823 0.000154962 0.00012295 9.33492e-05 4.34552e-05 2.32812e-05 1.94025e-05 1.52779e-05 2.0668e-05 2.06122e-05 2.55502e-05 2.94907e-05 2.27702e-05 1.47082e-05 1.38081e-05 1.28269e-05 1.7527e-05 9.08144e-06 8.50866e-06 7.36236e-06 7.10813e-06 6.65456e-06 6.60727e-06 6.40642e-06 5.8399e-06 1.63962e-05 1.60844e-05
threshold=0.0224907063197026 0.029553903345724903 0.081226765799256515 0.028438661710037175 0.028438661710037175 0.049256505576208177 0.99341920390985183 0.25051152639476199 16.500000000000004 0.99301258965124528 0.31905601103363729 3.5000000000000004 15.500000000000002 0.30711735832217762 0.41496820167037007 0.097735643159187022 0.18141263940520447 0.40217224733736878 2.5000000000000004 0.99370864971298711 18.500000000000004 0.32545398820013793 0.28068730365489231 0.59296139680807547 0.10210066839448917 0.99311883562357961 2.5000000000000004 0.28708528082139301 0.04999317964806984 0.036625289864957035
decision_type=2 2 2 2 2 2 2 2 2 2 2 2 2 2 2 2 2 2 2 2 2 2 2 2 2 2 2 2 2 2
left_child=-1 2 4 -3 5 -2 9 10 17 -5 24 12 21 14 15 -14 -10 -9 -15 -20 22 -12 -11 -19 26 -22 -8 28 29 -24
right_child=1 3 -4 6 -6 -7 7 8 16 20 11 -13 13 18 -16 -17 -18 23 19 -21 25 -23 27 -25 -26 -27 -28 -29 -30 -31
leaf_value=-0.002129105889471248 7.9424679037840866e-05 0.00019881394822732548 -0.0023699762586329599 -3.1573229510905213e-06 3.6416736010919679e-06 0.00023422571552067026 1.2171687721029605e-05 6.4435688095510992e-05 4.3931829397052404e-05 1.2782949589654027e-06 3.4720634156516239e-05 7.4108011371002748e-06 4.8333833460674215e-05 8.3245121779745217e-06 2.4065624675938212e-05 0.00012057073984882057 9.0457851967165387e-05 1.6551745316064624e-05 7.8482877653414108e-05 1.6224069676039877e-05 6.5827859252422721e-06 1.190747336172702e-05 1.2662402455574802e-05 4.7990079855524184e-05 1.6571696065308254e-05 1.778886503589176e-05 1.8500309494517796e-06 4.9693164491120691e-06 5.8715481163606438e-06 6.5448990951861368e-05
leaf_weight=20 29 20 20 919 29 23 291 21 49 1209 52 219 20 61 31 24 26 125 20 26 334 191 31 21 248 217 311 612 148 27
leaf_count=20 29 20 20 919 29 23 291 21 49 1209 52 219 20 61 31 24 26 125 20 26 334 191 31 21 248 217 311 612 148 27
internal_value=-6.97183e-06 9.5545e-07 -0.000392113 8.51302e-06 9.62483e-05 0.000147894 7.78571e-06 1.72638e-05 3.69193e-05 3.08052e-06 1.408e-05 1.98889e-05 2.63188e-05 3.90422e-05 6.14188e-05 8.77358e-05 6.00609e-05 2.65264e-05 2.33577e-05 4.32931e-05 5.30417e-06 1.67893e-05 3.75694e-06 2.10737e-05 9.67894e-06 1.09961e-05 6.8394e-06 7.42038e-06 1.47022e-05 3.72355e-05
internal_weight=5374 5354 101 5253 81 52 5233 1736 242 3497 1494 644 425 182 75 44 75 167 107 46 2578 243 2027 146 850 551 602 818 206 58
internal_count=5374 5354 101 5253 81 52 5233 1736 242 3497 1494 644 425 182 75 44 75 167 107 46 2578 243 2027 146 850 551 602 818 206 58
is_linear=0
shrinkage=0.05


Tree=14
num_leaves=31
num_cat=0
split_feature=30 120 211 196 57 136 210 208 150 30 127 129 163 4 57 132 63 78 207 108 11 69 12 206 29 4 82 81 21 199
split_gain=0.0281288 0.005545 0.0359324 0.000222729 0.000165916 8.44427e-05 6.6448e-05 4.03881e-05 3.16019e-05 2.26286e-05 1.84793e-05 1.48077e-05 1.30921e-05 1.1783e-05 2.76082e-05 1.05017e-05 1.01065e-05 9.46694e-06 9.73062e-06 2.81165e-05 8.71227e-06 8.28193e-06 8.16886e-06 7.50818e-06 3.57374e-05 6.46078e-06 6.10172e-06 5.50585e-06 5.07122e-06 6.19423e-06
threshold=0.023977695167286244 0.028438661710037175 0.052222545031958167 2.5000000000000004 0.025464684014869888 0.99341920390985183 0.050929368029739776 0.99362375223042088 17.500000000000004 0.081226765799256515 0.99301258965124528 0.029553903345724903 0.99395142672453607 0.25261475886112728 0.11988847583643124 15.500000000000002 0.53005516818634579 15.500000000000002 0.37659949429162515 0.37659949429162515 0.042131488918637515 15.500000000000002 0.28884758364312274 11.500000000000002 0.47069760523575782 0.11395990703079605 0.99342814048696415 0.20236955022603634 0.18810408921933089 0.99525269164737862
decision_type=2 2 2 2 2 2 2 2 2 2 2 2 2 2 2 2 2 2 2 2 2 2 2 2 2 2 2 2 2 2
left_child=-1 2 3 -2 -3 10 -5 17 13 -10 -6 -12 -11 22 -15 -13 25 18 27 -20 -16 -22 28 26 -25 -14 -17 -7 29 -9
right_child=1 4 -4 6 5 7 -8 8 9 12 11 15 16 14 20 23 -18 -19 19 -21 21 -23 -24 24 -26 -27 -28 -29 -30 -31
leaf_value=-0.0015872616889461306 0.00029635519604198635 0.00014212616504506593 -0.0022522619547089562 3.9899772413524003e-05 -3.1101673275501399e-06 2.2770194472300456e-06 0.00016568113406676625 2.020400537673837e-05 1.2627547193077541e-05 8.834488491209833e-05 4.5148108430388998e-05 2.8183304680984055e-06 5.3590985157825346e-05 8.7891031726030646e-05 -4.3719980116531017e-06 6.6798774721423632e-06 7.9309331194963309e-05 2.4267477398104645e-06 7.4900943271435005e-05 8.141118323000346e-06 5.0441370837006617e-05 1.5917624193662049e-05 4.2958580107316029e-05 5.377197622956667e-06 8.2242046501050951e-05 2.2962261089725707e-05 2.4364402410150055e-05 1.3592965749379736e-05 1.4475563877464804e-07 3.200289942225339e-06
leaf_weight=28 23 23 20 21 898 132 21 267 38 26 23 1837 36 20 22 612 20 273 24 46 32 38 27 62 20 33 53 579 53 67
leaf_count=28 23 23 20 21 898 132 21 267 38 26 23 1837 36 20 22 612 20 273 24 46 32 38 27 62 20 33 53 579 53 67
internal_value=-6.62324e-06 1.65545e-06 -0.000398963 0.000171283 8.12809e-06 7.53971e-06 0.00010279 1.65682e-05 2.60782e-05 4.60786e-05 3.07571e-06 5.20648e-06 5.7132e-05 2.02606e-05 3.46485e-05 4.85097e-06 4.80137e-05 1.04417e-05 1.32433e-05 3.10302e-05 2.3074e-05 3.16999e-05 1.63682e-05 9.84957e-06 2.41247e-05 3.89425e-05 8.08932e-06 1.14921e-05 1.45131e-05 1.67931e-05
internal_weight=5374 5346 85 65 5261 5238 42 1733 679 153 3505 2607 115 526 112 2584 89 1054 781 70 92 70 414 747 82 69 665 711 387 334
internal_count=5374 5346 85 65 5261 5238 42 1733 679 153 3505 2607 115 526 112 2584 89 1054 781 70 92 70 414 747 82 69 665 711 387 334
is_linear=0
shrinkage=0.05


Tree=15
num_leaves=31
num_cat=0
split_feature=39 120 1 201 57 136 212 136 101 13 6 4 141 36 79 144 172 22 61 78 43 129 78 207 211 7 129 51 208 10
split_gain=0.0318051 0.00543449 0.0360222 0.000305304 0.000113027 7.73673e-05 4.02644e-05 1.72967e-05 1.68424e-05 1.84384e-05 1.94819e-05 1.68184e-05 1.30674e-05 1.21054e-05 2.06165e-05 2.3791e-05 3.82525e-05 1.53495e-05 1.74333e-05 1.47367e-05 1.05335e-05 9.7853e-06 6.33633e-06 8.0706e-06 2.28443e-05 3.04135e-05 5.74961e-06 5.54528e-06 5.25516e-06 6.01986e-06
threshold=0.0224907063197026 0.028438661710037175 0.9930632302548813 0.057434944237918215 0.025464684014869888 0.99347878109060017 0.21334060837539218 0.99309500475128032 0.22999405027517478 0.31703951191167928 11.500000000000002 0.58149331783846614 6.5000000000000009 0.31905601103363729 3.5000000000000004 0.34462876407938087 0.99350459786892442 0.12107786170830913 1.0000000180025095e-35 9.5000000000000018 1.5000000000000002 0.029553903345724903 18.500000000000004 0.32545398820013793 0.050479372457873338 2.5000000000000004 0.032527881040892194 9.5000000000000018 0.99332834870921094 0.993170469180228
decision_type=2 2 2 2 2 2 2 2 2 2 2 2 2 2 2 2 2 2 2 2 2 2 2 2 2 2 2 2 2 2
left_child=-1 2 3 -2 -3 7 12 21 11 20 -11 -8 -7 -14 15 16 -15 18 -17 -20 -10 -6 23 -9 25 -25 -24 -23 -29 -30
right_child=1 4 -4 -5 5 6 8 22 9 10 -12 -13 13 14 -16 17 -18 -19 19 -21 -22 27 26 24 -26 -27 -28 28 29 -31
leaf_value=-0.0019481281946701484 0.00012230741140695339 0.00011597951455163032 -0.0022451753573113817 0.00035877396391394237 2.7885630006494464e-05 2.1371507132720597e-06 1.4971069847646846e-05 5.9608932362150528e-06 6.4840112298208461e-05 0.0001097293009661371 4.0776335559452753e-05 6.058254484742065e-05 1.0583134200308242e-05 2.5553672346558735e-05 7.3604199194550962e-06 6.6240570166797852e-06 0.00011295357100953837 9.4129657050314892e-06 2.9062692067652413e-05 7.6008643702607515e-05 2.5494198266339182e-05 -3.2108899423798123e-06 2.7109089935384834e-05 7.9386125363381055e-05 8.8725724863252258e-06 9.6857787733697744e-06 3.8272526646064343e-07 1.2839493839428031e-06 5.78591502023589e-06 3.9245558982656801e-05
leaf_weight=21 39 24 20 21 30 229 128 1252 22 20 21 24 546 31 151 32 21 103 35 32 75 1007 21 29 325 34 482 547 41 20
leaf_count=21 39 24 20 21 30 229 128 1252 22 20 21 24 546 31 151 32 21 103 35 32 75 1007 21 29 325 34 482 547 41 20
internal_value=-6.08077e-06 1.52516e-06 -0.000407491 0.000205071 7.72002e-06 7.22588e-06 1.6962e-05 3.44761e-06 3.36542e-05 4.63003e-05 7.44119e-05 2.21729e-05 1.28597e-05 1.54416e-05 2.19916e-05 3.06896e-05 6.08498e-05 2.29256e-05 3.69842e-05 5.14846e-05 3.4418e-05 -4.08719e-07 6.40779e-06 7.9135e-06 1.42142e-05 4.17701e-05 1.49854e-06 -9.34311e-07 2.83627e-06 1.67563e-05
internal_weight=5383 5362 80 60 5282 5258 1470 3788 290 138 41 152 1180 951 405 254 52 202 99 67 97 1645 2143 1640 388 63 503 1615 608 61
internal_count=5383 5362 80 60 5282 5258 1470 3788 290 138 41 152 1180 951 405 254 52 202 99 67 97 1645 2143 1640 388 63 503 1615 608 61
is_linear=0
shrinkage=0.05


Tree=16
num_leaves=31
num_cat=0
split_feature=39 120 209 118 57 136 212 136 14 38 155 141 199 42 113 144 27 182 131 66 91 56 165 129 146 12 78 48 209 183
split_gain=0.0287041 0.00490463 0.034558 0.000233126 0.000102007 6.9824e-05 3.63386e-05 1.56103e-05 1.53054e-05 2.53214e-05 2.09372e-05 1.17933e-05 1.07115e-05 1.13815e-05 1.13413e-05 1.31046e-05 1.89746e-05 1.59661e-05 1.35173e-05 1.0165e-05 1.09345e-05 1.08798e-05 1.00851e-05 8.83123e-06 6.70525e-06 5.96477e-06 5.71854e-06 7.32452e-06 1.08991e-05 2.18276e-05
threshold=0.0224907063197026 0.028438661710037175 0.56645098914175229 0.99299074468497095 0.025464684014869888 0.99347878109060017 0.21334060837539218 0.99309500475128032 0.31844223161915158 0.13491001041201844 0.20340621746244236 6.5000000000000009 0.99318337756939024 4.5000000000000009 0.053676169690356025 0.40857022450386943 0.31905601103363729 0.30447716793098328 0.084504160414677412 0.080111524163568773 0.99407058108603252 0.28052952550944521 0.072304832713754666 0.029553903345724903 0.097649858694035405 0.10650557620817845 18.500000000000004 0.12992565055762081 0.43347463929793251 0.11319702602230483
decision_type=2 2 2 2 2 2 2 2 2 2 2 2 2 2 2 2 2 2 2 2 2 2 2 2 2 2 2 2 2 2
left_child=-1 2 3 -2 -3 7 11 23 19 -10 -11 -7 -13 -14 -15 16 22 -18 -19 -8 21 -21 -16 -6 -17 -20 27 -9 29 -29
right_child=1 4 -4 -5 5 6 8 26 9 10 -12 12 13 14 15 24 17 18 25 20 -22 -23 -24 -25 -26 -27 -28 28 -30 -31
leaf_value=-0.0018507218065982062 0.00012371748532380233 0.0001101805398320721 -0.0021870631995261646 0.00032182540442725577 2.6491348005113958e-05 2.0302931755568807e-06 -9.8104501462547059e-06 5.8343638517602822e-06 1.9495002921683744e-05 0.00010180444025116651 4.3256503570503541e-05 6.9093785651999171e-06 5.0067092700395063e-06 7.5119400274476743e-06 4.4188933389932576e-05 2.955640553929178e-05 7.279714723031125e-05 6.6961153653381331e-05 4.6460492566915321e-05 2.155546953292268e-05 1.6427324973884629e-05 6.3159221785595446e-05 1.2678862231087636e-05 -8.8759536680131191e-07 3.3667418191316192e-06 1.505606476425951e-05 1.4236107518395809e-06 1.4466848375758601e-05 6.3665144741698967e-06 6.2535307961297804e-05
leaf_weight=21 33 24 20 27 30 229 21 1308 49 26 37 303 129 112 32 35 37 24 21 30 94 33 123 1615 81 54 503 111 191 30
leaf_count=21 33 24 20 27 30 229 21 1308 49 26 37 303 129 112 32 35 37 24 21 30 94 33 123 1615 81 54 503 111 191 30
internal_value=-5.77673e-06 1.4489e-06 -0.000387116 0.000212866 7.33402e-06 6.86458e-06 1.61139e-05 3.27523e-06 3.19715e-05 4.64523e-05 6.74191e-05 1.22167e-05 1.46695e-05 1.82981e-05 2.16018e-05 2.54791e-05 3.11437e-05 4.4774e-05 3.43007e-05 2.28599e-05 2.72299e-05 4.33479e-05 1.91842e-05 -3.88283e-07 1.12688e-05 2.38493e-05 6.0874e-06 7.51782e-06 1.41503e-05 2.46942e-05
internal_weight=5383 5362 80 60 5282 5258 1470 3788 290 112 63 1180 951 648 519 407 291 136 99 178 157 63 155 1645 116 75 2143 1640 332 141
internal_count=5383 5362 80 60 5282 5258 1470 3788 290 112 63 1180 951 648 519 407 291 136 99 178 157 63 155 1645 116 75 2143 1640 332 141
is_linear=0
shrinkage=0.05


Tree=17
num_leaves=31
num_cat=0
split_feature=48 120 55 73 30 136 208 23 2 7 215 8 42 129 150 160 39 12 141 192 193 115 209 169 194 78 207 201 209 163
split_gain=0.0265872 0.00442453 0.0347768 0.00040454 7.73375e-05 6.40624e-05 3.32601e-05 1.60928e-05 3.01833e-05 1.8807e-05 1.51033e-05 1.02708e-05 1.05646e-05 1.6163e-05 1.02568e-05 1.51726e-05 1.28935e-05 1.01541e-05 8.7552e-06 1.0289e-05 2.00933e-05 7.98376e-06 1.39785e-05 7.2622e-06 1.01636e-05 6.66903e-06 8.19441e-06 1.68341e-05 5.86556e-06 5.85484e-06
threshold=0.0224907063197026 0.028438661710037175 0.99301010726871408 0.99322160626037026 0.025464684014869888 0.99347878109060017 0.99361531212981491 0.31844223161915158 0.25390450691655514 1.0000000180025095e-35 9.5000000000000018 3.5000000000000004 7.5000000000000009 0.029553903345724903 19.500000000000004 2.5000000000000004 0.11654275092936804 0.28104089219330858 16.500000000000004 0.11096654275092938 0.063117373619988384 3.5000000000000004 0.52922802320392692 1.5000000000000002 0.061314963852134773 15.500000000000002 0.37659949429162515 0.11431226765799256 0.32574743418116919 0.99525269164737862
decision_type=2 2 2 2 2 2 2 2 2 2 2 2 2 2 2 2 2 2 2 2 2 2 2 2 2 2 2 2 2 2
left_child=-1 2 -2 -4 -3 10 25 14 9 -9 11 21 -13 -14 17 16 -16 29 -12 -20 -21 22 23 -6 -25 26 -7 -28 -15 -8
right_child=1 4 3 -5 5 6 7 8 -10 -11 18 12 13 28 15 -17 -18 -19 19 20 -22 -23 -24 24 -26 -27 27 -29 -30 -31
leaf_value=-0.0018251173524186017 -0.0021733967305044644 9.1292064699801919e-05 0.00013533248213781535 0.00040474826673744249 8.9151415883624506e-06 9.6680131310740187e-06 1.7173438045920588e-05 6.6398568378644995e-05 7.7263578685616321e-05 1.1148041364488416e-05 5.6525344947192797e-06 -4.5388396030300437e-06 4.2269895147455832e-05 7.7680790148225534e-06 2.8867976143374106e-05 1.2778462192467747e-05 8.4962715516753856e-05 4.4573837752273729e-05 1.1728208439189457e-05 7.5389342409835084e-05 6.8640590202646665e-06 8.617284835002363e-07 1.9272331029185356e-06 5.4815660170039772e-05 1.9790855501597899e-05 1.0299337834645102e-06 6.2327441620531636e-05 5.0473355588173008e-06 -9.7353685094302674e-08 -1.1341674580762628e-06
leaf_weight=20 20 27 38 22 46 583 345 20 38 67 782 899 25 307 20 35 21 31 196 20 23 232 130 34 53 207 23 29 1040 50
leaf_count=20 20 27 38 22 46 583 345 20 38 67 782 899 25 307 20 35 21 31 196 20 23 232 130 34 53 207 23 29 1040 50
internal_value=-5.4879e-06 1.29797e-06 -0.00036776 0.000234118 6.88659e-06 6.453e-06 1.5316e-05 2.40345e-05 4.00872e-05 2.38493e-05 3.01499e-06 1.09656e-06 -3.25899e-07 2.43462e-06 2.00373e-05 3.69582e-05 5.75994e-05 1.70186e-05 8.21221e-06 1.65874e-05 3.87363e-05 7.62264e-06 1.35866e-05 2.4983e-05 3.34787e-05 8.8237e-06 1.13643e-05 3.03828e-05 1.69529e-06 1.4856e-05
internal_weight=5383 5363 80 60 5283 5256 1469 627 125 87 3787 2766 2271 1372 502 76 41 426 1021 239 43 495 263 133 87 842 635 52 1347 395
internal_count=5383 5363 80 60 5283 5256 1469 627 125 87 3787 2766 2271 1372 502 76 41 426 1021 239 43 495 263 133 87 842 635 52 1347 395
is_linear=0
shrinkage=0.05


Tree=18
num_leaves=31
num_cat=0
split_feature=39 105 93 120 210 57 111 113 136 212 4 37 40 79 214 197 83 148 215 207 101 171 74 108 109 29 51 129 167 167
split_gain=0.0240594 0.00400711 0.0414574 0.0015618 0.000371321 0.000139778 0.000129771 5.84986e-05 5.74863e-05 3.29936e-05 1.6247e-05 1.67004e-05 1.206e-05 1.33412e-05 1.7217e-05 1.56956e-05 3.69875e-05 1.47538e-05 1.0218e-05 9.81505e-06 9.17371e-06 1.14746e-05 9.15364e-06 7.68198e-06 1.07318e-05 1.04202e-05 7.04365e-06 7.53132e-06 6.51058e-06 6.32247e-06
threshold=0.0224907063197026 22.500000000000004 0.045353159851301117 0.028438661710037175 0.061895910780669146 0.025464684014869888 0.041449814126394049 0.029668530896194246 0.99328962354172445 0.25051152639476199 0.33004067402672871 0.99420661564874102 0.06645845438698432 3.5000000000000004 1.5000000000000002 9.5000000000000018 0.428157072735386 0.053094131319000586 9.5000000000000018 0.42135660102674127 0.29384203480589027 0.6003850279672055 0.20604640785363679 0.40857022450386943 0.9938446842756955 0.34835638851703116 8.5000000000000018 0.029553903345724903 0.10973946255626792 0.013845314418223981
decision_type=2 2 2 2 2 2 2 2 2 2 2 2 2 2 2 2 2 2 2 2 2 2 2 2 2 2 2 2 2 2
left_child=-1 3 -3 4 7 -5 -4 -2 18 12 20 -12 19 14 28 17 23 -16 26 -10 -11 -22 -13 24 25 -17 -7 -28 -14 -20
right_child=1 2 6 5 -6 8 -8 -9 9 10 11 22 13 -15 15 16 -18 -19 29 -21 21 -23 -24 -25 -26 -27 27 -29 -30 -31
leaf_value=-0.0016943070383387663 0.00011404433686178751 -0.0023779885994918005 0.00013687664360531926 0.00012979044917617853 0.00041250379396263852 -2.8792787688083157e-06 2.1453154921603966e-06 0.00022229617691967485 4.5798659555440351e-06 8.5006706403537125e-06 8.6833215104320519e-05 1.9181359202775642e-05 1.7178292778366669e-05 6.6430906376122174e-06 5.1442889006618009e-05 1.2576541845542618e-05 8.3436727269996008e-05 1.0080550796057762e-05 3.2315263239809004e-05 3.5801891989159718e-05 5.1176258175227967e-05 4.1694222727528545e-06 5.4756069805466029e-05 5.7416687706704363e-06 5.2963989981579191e-05 4.4189855723169258e-05 3.2417307816753496e-05 2.1895407510034323e-06 5.7740596363546868e-07 6.1570824786138355e-06
leaf_weight=21 26 20 20 23 22 1098 168 24 790 81 20 40 97 438 24 83 31 212 24 26 37 20 33 42 38 38 21 1099 151 616
leaf_count=21 26 20 20 23 22 1098 168 24 790 81 20 40 97 438 24 83 31 212 24 26 37 20 33 42 38 38 21 1099 151 616
internal_value=-5.2135e-06 1.40175e-06 -0.000213759 1.0085e-05 0.000241324 6.80887e-06 1.64784e-05 0.000166005 6.24975e-06 1.23233e-05 3.02006e-05 4.63534e-05 1.0227e-05 1.35167e-05 1.77215e-05 2.33656e-05 3.26008e-05 1.42869e-05 1.57241e-06 5.57469e-06 1.9315e-05 3.46826e-05 3.52631e-05 2.47604e-05 2.97843e-05 2.25047e-05 -3.35344e-08 2.75631e-06 7.07049e-06 7.13801e-06
internal_weight=5383 5362 208 5154 72 5082 188 50 5059 2201 231 93 1970 1154 716 468 232 236 2858 816 138 57 73 201 159 121 2218 1120 248 640
internal_count=5383 5362 208 5154 72 5082 188 50 5059 2201 231 93 1970 1154 716 468 232 236 2858 816 138 57 73 201 159 121 2218 1120 248 640
is_linear=0
shrinkage=0.05


Tree=19
num_leaves=31
num_cat=0
split_feature=48 120 0 118 30 136 208 129 192 13 57 6 11 126 30 196 150 39 51 39 209 169 212 193 105 102 95 159 47 8
split_gain=0.0223139 0.00415092 0.0335463 0.000299009 0.000105097 4.83236e-05 2.79262e-05 1.37605e-05 2.71988e-05 1.30308e-05 2.42831e-05 1.46539e-05 1.34037e-05 1.26954e-05 8.09129e-06 9.1555e-06 1.39356e-05 1.12329e-05 7.00252e-06 6.66315e-06 1.10031e-05 1.62101e-05 2.13889e-05 3.18832e-05 8.11505e-06 1.83951e-05 5.99465e-06 7.68887e-06 1.11858e-05 2.14665e-05
threshold=0.0224907063197026 0.028438661710037175 0.23593977472990577 0.9929927305909958 0.025464684014869888 0.99347878109060017 0.99361531212981491 0.029553903345724903 0.057992565055762078 0.25261475886112728 0.1009293680297398 7.5000000000000009 0.21404135058753535 0.21834533752202895 0.27657992565055761 3.5000000000000004 19.500000000000004 0.11654275092936804 9.5000000000000018 0.098698884758364316 0.43347463929793251 3.5000000000000004 0.068953758013913527 0.042054038349796631 22.500000000000004 0.056877323420074351 0.053676169690356025 17.500000000000004 0.26457682582180581 11.500000000000002
decision_type=2 2 2 2 2 2 2 2 2 2 2 2 2 2 2 2 2 2 2 2 2 2 2 2 2 2 2 2 2 2
left_child=-1 2 3 -2 -3 7 26 8 -6 14 -11 12 -12 18 15 16 -8 -18 -9 24 21 22 23 -21 -15 -26 -7 -28 -29 -30
right_child=1 4 -4 -5 5 6 9 13 -10 10 11 -13 -14 19 -16 -17 17 -19 -20 20 -22 -23 -24 -25 25 -27 27 28 29 -31
leaf_value=-0.0016719472198747098 0.00013732592624899768 0.00010507151074745234 -0.0021296048221120145 0.00036257429304756587 -6.7181500071455964e-06 1.5727548319743449e-06 1.6839384570877499e-05 -3.9921646835131643e-06 7.3846266805048809e-05 8.5853621312708143e-05 2.4996031861519444e-05 1.4976075234178068e-05 7.9181381928113606e-05 2.2608071083589963e-06 4.3796123788654646e-05 6.0818942995335621e-06 2.2731018613003906e-05 7.5089057172590405e-05 2.7149986733438619e-06 1.1867451806040209e-05 4.19621912811265e-06 2.882709679291841e-06 1.5177339585001206e-05 9.0228549244649793e-05 6.0199928338988687e-05 9.5814350755206679e-07 7.0020666921928263e-06 1.8942106168913721e-06 1.6920077988141265e-05 6.8630135512229081e-05
leaf_weight=20 34 27 20 26 22 258 252 766 20 20 25 89 21 1268 28 151 21 20 791 25 523 142 145 27 20 38 411 59 88 26
leaf_count=20 34 27 20 26 22 258 252 766 20 20 25 89 21 1268 28 151 21 20 791 25 523 142 145 27 20 38 411 59 88 26
internal_value=-4.95283e-06 1.26382e-06 -0.000356201 0.000234934 6.67688e-06 6.17143e-06 1.38691e-05 3.18546e-06 3.16459e-05 2.1858e-05 3.44365e-05 2.68191e-05 4.97328e-05 2.86628e-06 1.77274e-05 1.60834e-05 2.12377e-05 4.82715e-05 -5.84736e-07 5.32205e-06 8.74424e-06 1.57608e-05 2.50435e-05 5.25549e-05 3.09737e-06 2.13863e-05 7.92011e-06 1.07242e-05 1.95671e-05 2.87136e-05
internal_weight=5383 5363 80 60 5283 5256 1469 3787 42 627 155 135 46 3745 472 444 293 41 1557 2188 862 339 197 52 1326 58 842 584 173 114
internal_count=5383 5363 80 60 5283 5256 1469 3787 42 627 155 135 46 3745 472 444 293 41 1557 2188 862 339 197 52 1326 58 842 584 173 114
is_linear=0
shrinkage=0.05


Tree=20
num_leaves=31
num_cat=0
split_feature=30 105 138 111 96 48 90 138 144 136 140 102 208 111 126 150 39 11 119 111 210 21 111 151 209 203 202 39 189 74
split_gain=0.0194632 0.00391687 0.0391211 0.000939645 0.000290521 0.000255123 9.90879e-05 7.77283e-05 5.63029e-05 5.19679e-05 3.87851e-05 3.33618e-05 2.84521e-05 2.40626e-05 1.79101e-05 1.43394e-05 1.92142e-05 1.66849e-05 1.50614e-05 1.2885e-05 1.15416e-05 1.11324e-05 1.19673e-05 1.1303e-05 1.46987e-05 1.54522e-05 2.05936e-05 1.71373e-05 8.65566e-06 7.9504e-06
threshold=0.023977695167286244 22.500000000000004 0.033271375464684012 0.029553903345724903 16.500000000000004 0.025464684014869888 0.17999578576354303 0.028438661710037175 0.17999578576354303 0.99368332941116899 0.048492702223434735 0.04814126394052045 0.99350459786892442 0.031412639405204466 0.21834533752202895 16.500000000000004 0.1120817843866171 0.21404135058753535 0.35367395507957761 0.19888475836431227 0.10985130111524165 0.098698884758364316 0.042007434944237913 3.5000000000000004 0.43347463929793251 0.081776019642613565 0.042054038349796631 0.15018587360594798 0.28708528082139301 0.40153205414249599
decision_type=2 2 2 2 2 2 2 2 2 2 2 2 2 2 2 2 2 2 2 2 2 2 2 2 2 2 2 2 2 2
left_child=-1 3 -3 4 6 -5 10 8 -7 13 -2 -4 -11 -9 -15 20 -17 -18 19 -19 -14 -16 -23 24 25 26 -24 -28 -22 -30
right_child=1 2 11 5 -6 7 -8 9 -10 12 -12 -13 15 14 21 16 17 18 -20 -21 28 22 23 -25 -26 -27 27 -29 29 -31
leaf_value=-0.0013694960832183894 3.529889490264709e-05 -0.002313153204856051 6.7318268996868517e-05 0.00018593209892969753 0.00031416819177441848 2.3888218122549549e-05 0.00019153176683377955 4.7021497054799971e-05 0.00013457287176009912 6.6972227013599137e-06 0.00012580675088884165 6.4346267407700004e-07 1.7299806606274618e-06 -7.789966326551292e-07 3.182813846114844e-06 1.269827802426941e-05 2.3815302680581542e-05 0.00010968115200393229 3.6555095647372582e-05 5.3604829990945286e-05 5.0674886313992417e-05 4.6532033609930134e-05 2.8067404779008601e-06 3.1603920751538038e-06 6.8425317218020067e-06 1.4655238692540388e-05 3.4209601231381267e-05 9.117264492923152e-05 2.4363446020427623e-05 1.7702339748472911e-06
leaf_weight=26 29 20 21 20 24 27 27 32 20 405 20 176 80 1511 1359 60 46 21 32 20 26 22 24 436 332 178 31 23 227 47
leaf_count=26 29 20 21 20 24 27 27 32 20 405 20 176 80 1511 1359 60 46 21 32 20 26 22 24 436 332 178 31 23 227 47
internal_value=-4.82756e-06 1.8721e-06 -0.000206157 1.07601e-05 0.000162512 7.7123e-06 0.000114621 6.99353e-06 7.09881e-05 6.3812e-06 7.22409e-05 7.75093e-06 1.6789e-05 3.83989e-06 3.48703e-06 2.41006e-05 3.57685e-05 4.74006e-05 6.22625e-05 8.23268e-05 1.86043e-05 6.16726e-06 1.00448e-05 9.26085e-06 1.37843e-05 2.2787e-05 4.1344e-05 5.84716e-05 2.31042e-05 2.0488e-05
internal_weight=5322 5296 217 5079 100 4979 76 4959 47 4912 49 197 964 3948 3916 559 179 119 73 41 380 2405 1046 1024 588 256 78 54 300 274
internal_count=5322 5296 217 5079 100 4979 76 4959 47 4912 49 197 964 3948 3916 559 179 119 73 41 380 2405 1046 1024 588 256 78 54 300 274
is_linear=0
shrinkage=0.05


Tree=21
num_leaves=31
num_cat=0
split_feature=208 209 48 120 209 46 30 136 208 105 138 93 136 150 48 214 196 210 84 110 180 214 151 138 122 171 132 132 4 5
split_gain=0.017877 0.0296729 0.00477811 0.00442079 0.0338321 0.000285038 0.000100888 4.50231e-05 2.59418e-05 1.89544e-05 9.90233e-05 2.77771e-05 1.88046e-05 1.32966e-05 1.62418e-05 1.63107e-05 1.93138e-05 1.05704e-05 7.96717e-06 7.32551e-06 7.29587e-06 6.97693e-06 8.5023e-06 1.451e-05 1.64912e-05 2.52605e-05 4.64484e-05 5.97269e-06 5.70662e-06 6.98999e-06
threshold=0.99290981901445452 0.59303882195448476 0.023977695167286244 0.028438661710037175 0.56645098914175229 0.99302748394643225 0.025464684014869888 0.99368332941116899 0.99350459786892442 22.500000000000004 0.034200743494423792 0.053159851301115238 0.99317493746878416 16.500000000000004 0.10539033457249071 2.5000000000000004 1.5000000000000002 0.10985130111524165 0.21449814126394054 0.27521195894689876 0.29348325798789371 4.5000000000000009 1.5000000000000002 0.093122676579925651 0.088732778611376351 0.3126580338671367 14.500000000000002 18.500000000000004 0.037115049389889604 0.03812576728959214
decision_type=2 2 2 2 2 2 2 2 2 2 2 2 2 2 2 2 2 2 2 2 2 2 2 2 2 2 2 2 2 2
left_child=1 -1 -2 4 5 -4 -5 9 -9 12 -11 -12 27 17 -15 16 -16 -10 -17 -14 -19 22 -21 -24 25 -25 -27 -8 29 -29
right_child=2 -3 3 6 -6 -7 7 8 13 10 11 -13 19 14 15 18 -18 20 -20 21 -22 -23 23 24 -26 26 -28 28 -30 -31
leaf_value=-0.0024377300680157536 0.00068056962218878867 3.2511874357418669e-05 0.00040429880842566494 0.00011348667883959768 -0.002142742863397871 0.00016887569799956106 -1.1342761102462689e-06 6.2184143017422056e-06 1.5711850842419109e-06 0.00012456750262572315 6.2356910202652219e-05 -3.4889346822234343e-07 9.936709009112694e-07 9.4480273312038505e-06 3.3284705619962554e-05 1.5659730295579801e-05 9.5485650336531072e-05 4.4764521707322512e-05 4.757868884874316e-05 5.6483327408532861e-06 1.9205045702386791e-05 3.3115449525110844e-06 8.044781879226409e-06 1.3369751043700371e-05 1.179045528686167e-05 1.4807538416659685e-05 0.00010435016743334321 8.5960065411604275e-06 2.5985743760461398e-06 4.3531293634996039e-05
leaf_weight=20 26 31 20 22 20 36 1814 411 82 20 20 151 428 49 24 46 26 31 34 455 281 460 328 53 124 28 30 45 186 21
leaf_count=20 26 31 20 22 20 36 1814 411 82 20 20 151 428 49 24 46 26 31 34 455 281 460 328 53 124 28 30 45 186 21
internal_value=-4.58618e-06 -0.00093621 4.42783e-06 1.07612e-06 -0.000377492 0.000252955 6.64222e-06 6.18553e-06 1.58042e-05 3.91197e-06 1.92974e-05 6.98512e-06 3.17214e-06 2.26799e-05 3.39801e-05 4.32268e-05 6.56292e-05 1.75461e-05 2.92253e-05 6.75394e-06 2.17446e-05 8.422e-06 1.07312e-05 1.48391e-05 2.43223e-05 3.83217e-05 6.11227e-05 -1.32267e-07 7.0806e-06 1.97118e-05
internal_weight=5322 51 5271 5245 76 56 5169 5147 984 4163 191 171 3972 573 179 130 50 394 80 1906 312 1478 1018 563 235 111 58 2066 252 66
internal_count=5322 51 5271 5245 76 56 5169 5147 984 4163 191 171 3972 573 179 130 50 394 80 1906 312 1478 1018 563 235 111 58 2066 252 66
is_linear=0
shrinkage=0.05


Tree=22
num_leaves=31
num_cat=0
split_feature=30 105 66 120 47 48 147 210 136 208 200 208 136 150 39 11 211 210 19 172 208 164 65 110 142 151 162 167 58 198
split_gain=0.0179493 0.00357638 0.0396461 0.00218587 0.000427741 0.000240329 0.000146221 0.000118704 4.32633e-05 3.88847e-05 4.11321e-05 2.22813e-05 1.71012e-05 1.16723e-05 1.59401e-05 1.46837e-05 9.88313e-06 9.40221e-06 8.50454e-06 7.5284e-06 1.38822e-05 7.52582e-06 6.96894e-06 6.5343e-06 6.37657e-06 1.34017e-05 2.21497e-05 2.47336e-05 3.56019e-05 6.92077e-06
threshold=0.023977695167286244 22.500000000000004 0.044237918215613382 0.028438661710037175 0.52922802320392692 0.025464684014869888 0.033643122676579922 0.053717472118959102 0.99368332941116899 0.99290981901445452 0.58772125539193831 0.99350459786892442 0.99317493746878416 16.500000000000004 0.1120817843866171 0.15216421240517627 0.12238524113887275 0.10985130111524165 0.99398518712696016 0.99378510709494738 0.99425725625237704 0.3284248103525213 0.40684962070504244 0.27521195894689876 3.5000000000000004 1.5000000000000002 0.2998812351543943 0.083685718183058241 0.066022661243463107 0.31905601103363729
decision_type=2 2 2 2 2 2 2 2 2 2 2 2 2 2 2 2 2 2 2 2 2 2 2 2 2 2 2 2 2 2
left_child=-1 3 -3 4 7 -5 -4 -2 9 10 -7 -10 -11 17 -15 -16 -17 -13 -18 20 -19 -22 -21 -14 25 -25 -27 28 -28 -29
right_child=1 2 6 5 -6 8 -8 -9 11 12 -12 13 23 14 15 16 18 19 -20 22 21 -23 -24 24 -26 26 27 29 -30 -31
leaf_value=-0.0013148759196225841 0.00014043622553193321 -0.0023177910045251338 0.00014678202514915029 0.00017139400227857881 0.00046127530678693969 0.00010315119194274302 4.1535057169127518e-06 0.00029037541138346901 6.3531628752621784e-06 -1.8446993422867355e-07 6.9496948744927068e-06 1.5649224094715921e-06 9.439873953129468e-07 1.1268130711717581e-05 1.3283818677131598e-05 2.5131503855885495e-05 8.0011985992314302e-05 1.3460246282193112e-05 4.3732803108203679e-05 2.008653791474203e-05 7.6310832664603371e-05 3.3454585649278234e-05 -3.4891754622597216e-06 5.0621142929711342e-06 4.356223997948502e-06 7.0286694998614229e-06 2.5287461727613494e-05 4.1356312751304362e-05 0.00010845475685941478 1.1429250774547065e-05
leaf_weight=26 33 20 20 22 22 20 177 22 405 2067 25 80 428 60 31 23 35 42 30 179 20 21 38 439 670 204 31 25 22 85
leaf_count=26 33 20 20 22 22 20 177 22 405 2067 25 80 428 60 31 23 35 42 30 179 20 21 38 439 670 204 31 25 22 85
internal_value=-4.35687e-06 2.07694e-06 -0.000196705 1.05699e-05 0.000274944 6.50016e-06 1.86336e-05 0.000200412 5.77171e-06 3.48844e-06 4.97059e-05 1.52837e-05 2.9647e-06 2.1754e-05 3.22811e-05 4.28759e-05 5.33003e-05 1.67952e-05 6.32677e-05 2.08566e-05 3.36638e-05 5.43601e-05 1.59581e-05 6.38347e-06 7.96077e-06 1.09571e-05 1.80086e-05 3.17504e-05 5.98097e-05 1.82309e-05
internal_weight=5322 5296 217 5079 77 5002 197 55 4980 4016 45 964 3971 559 179 119 88 380 65 300 83 41 217 1904 1476 806 367 163 53 110
internal_count=5322 5296 217 5079 77 5002 197 55 4980 4016 45 964 3971 559 179 119 88 380 65 300 83 41 217 1904 1476 806 367 163 53 110
is_linear=0
shrinkage=0.05


Tree=23
num_leaves=31
num_cat=0
split_feature=208 119 39 129 1 15 111 111 145 105 84 208 136 39 165 61 18 86 162 165 111 211 29 2 185 30 165 8 56 200
split_gain=0.0162186 0.0298412 0.00500239 0.004064 0.0374033 0.000249461 0.000187618 0.000128853 3.47848e-05 3.24048e-05 0.000145922 2.2309e-05 1.52976e-05 1.52912e-05 1.46053e-05 1.03334e-05 2.53244e-05 1.63333e-05 1.51988e-05 1.16393e-05 8.53427e-06 7.10811e-06 7.13163e-06 6.53779e-06 8.73836e-06 9.21447e-06 6.14266e-06 6.32834e-06 8.5068e-06 1.23198e-05
threshold=0.99290981901445452 0.39089692101740298 0.023977695167286244 0.029553903345724903 0.99312280743562942 7.5000000000000009 0.028066914498141266 0.032899628252788103 0.99357261515027862 22.500000000000004 0.052602230483271374 0.99350459786892442 0.993170469180228 0.033271375464684012 0.039776951672862458 1.5000000000000002 0.30626963451076544 0.097735643159187022 0.26791050494215002 0.10985130111524165 0.032156133828996285 0.18499418942475307 0.17414100847835789 0.012791908374237692 0.59296139680807547 0.43717472118959105 0.11988847583643124 10.500000000000002 0.28584709207199172 0.38557935445485653
decision_type=2 2 2 2 2 2 2 2 2 2 2 2 2 2 2 2 2 2 2 2 2 2 2 2 2 2 2 2 2 2
left_child=1 -1 -2 4 5 -4 -5 -7 9 12 -11 26 -8 -14 -12 16 -13 -18 -17 -20 -15 -19 -23 -21 25 -25 27 -10 -29 -30
right_child=2 -3 3 6 -6 7 8 -9 11 10 14 15 13 20 -16 18 17 21 19 23 -22 22 -24 24 -26 -27 -28 28 29 -31
leaf_value=7.9964955881634177e-05 0.00068327769164440097 -0.0023972697122928823 4.5052893096066395e-05 0.00014106245294337545 -0.0022487364837616044 0.00029246817681599749 1.4625923241528565e-07 0.00013163221276045079 6.9150538448581324e-06 0.0001424367722590788 4.7572478179063184e-05 4.8693687445987824e-06 4.8980463703801866e-05 3.8518603481634273e-05 1.8532768446009976e-06 5.1828812229765778e-05 7.4199859608370391e-05 1.41411517633418e-05 -1.1581324879443856e-06 -5.8477227377387378e-06 5.6621909511992489e-06 2.2792099983348635e-05 5.8848133073752257e-05 1.5675222301833949e-05 5.2222262238501573e-05 5.0830344007408713e-05 6.1695558960041446e-08 3.0570635207283206e-06 6.2747818320412599e-05 1.204197853076039e-05
leaf_weight=31 27 20 27 26 20 33 2010 20 256 23 20 65 21 20 138 28 32 33 100 26 1672 24 32 274 20 20 224 32 23 25
leaf_count=31 27 20 27 26 20 33 2010 20 256 23 20 65 21 20 138 28 32 33 100 26 1672 24 32 274 20 20 224 32 23 25
internal_value=-4.13903e-06 -0.0008915 4.4467e-06 9.51577e-07 -0.000314742 0.000168757 7.0887e-06 0.000231775 6.4081e-06 4.10947e-06 2.47693e-05 1.38001e-05 3.10506e-06 6.57685e-06 7.64052e-06 2.00721e-05 3.00415e-05 4.35637e-05 1.61099e-05 1.38368e-05 6.05056e-06 3.25484e-05 4.33955e-05 1.82471e-05 2.02422e-05 1.80667e-05 6.47527e-06 1.0751e-05 2.30259e-05 3.63385e-05
internal_weight=5322 51 5271 5244 100 80 5144 53 5118 3904 181 1214 3723 1713 158 654 186 121 468 440 1692 89 56 340 314 294 560 336 80 48
internal_count=5322 51 5271 5244 100 80 5144 53 5118 3904 181 1214 3723 1713 158 654 186 121 468 440 1692 89 56 340 314 294 560 336 80 48
is_linear=0
shrinkage=0.05


Tree=24
num_leaves=31
num_cat=0
split_feature=57 120 191 210 48 146 208 129 136 112 105 84 208 136 165 150 48 214 196 210 84 207 108 38 48 75 176 133 40 205
split_gain=0.0152464 0.00413693 0.0331755 0.000336129 0.000292616 0.000502903 0.000129403 4.24265e-05 3.21692e-05 3.01281e-05 2.40631e-05 0.000109311 1.86494e-05 1.36453e-05 1.29371e-05 1.14349e-05 1.40165e-05 1.3581e-05 1.96949e-05 7.98974e-06 6.37414e-06 6.09525e-06 5.90493e-06 8.13633e-06 9.28844e-06 5.27818e-06 5.03949e-06 7.47016e-06 1.3976e-05 2.63068e-05
threshold=0.023977695167286244 0.028438661710037175 0.39621448757994948 0.058550185873605949 0.027695167286245354 0.47601517179830438 0.99290981901445452 0.029553903345724903 0.99368332941116899 0.055127832655432883 22.500000000000004 0.052602230483271374 0.99347878109060017 0.99315756079106599 0.039776951672862458 16.500000000000004 0.10539033457249071 2.5000000000000004 1.5000000000000002 0.10985130111524165 0.21449814126394054 0.23593977472990577 0.61317140449007745 0.43347463929793251 0.083085501858736061 0.13959107806691454 0.11505933706179239 3.5000000000000004 0.06050261475886113 2.5000000000000004
decision_type=2 2 2 2 2 2 2 2 2 2 2 2 2 2 2 2 2 2 2 2 2 2 2 2 2 2 2 2 2 2
left_child=-1 2 -2 -4 5 -3 9 -8 10 -6 13 -12 -10 -9 -13 19 -17 18 -18 -14 25 -15 23 24 -21 -19 27 28 -23 -30
right_child=1 4 3 -5 6 -7 7 8 12 -11 11 14 15 21 -16 16 17 20 -20 22 -22 26 -24 -25 -26 -27 -28 -29 29 -31
leaf_value=-0.0011279284179302824 -0.0021134631568565966 0.00031399350462033043 0.00016412305987024731 0.00041853912116494033 0.00012769321398809554 -1.4982848355989868e-05 5.8576237887265106e-05 -2.584896698357573e-07 5.26050956881579e-06 4.5359632972576951e-05 0.00012861376926593949 4.5193854202807418e-05 1.1666507829766321e-06 1.4085713195685207e-06 2.2964838530603224e-06 7.289612555420415e-06 2.55104840034619e-05 3.2289069324633608e-05 8.6567556526720839e-05 5.1347734242881422e-05 4.1292648255486194e-05 4.8550303944124136e-06 1.494774801610927e-06 4.4370232001648253e-06 2.1343762703845246e-05 -1.8765605983179952e-06 2.6421684843724983e-06 4.8938373937648547e-06 1.1218807350574708e-05 4.5170211876104731e-05
leaf_weight=30 20 21 37 20 25 26 38 1911 395 20 21 20 87 596 145 51 25 20 28 30 35 247 45 58 184 26 394 493 193 81
leaf_count=30 20 21 37 20 25 26 38 1911 395 20 21 20 87 596 145 51 25 20 28 30 35 247 45 58 184 26 394 493 193 81
internal_value=-3.93208e-06 2.43978e-06 -0.000361376 0.000253392 7.81156e-06 0.000132007 6.68207e-06 5.94055e-06 5.5472e-06 9.11005e-05 3.59917e-06 2.11707e-05 1.3666e-05 2.76435e-06 7.49617e-06 1.9303e-05 2.95981e-05 3.80887e-05 5.77671e-05 1.45886e-05 2.52128e-05 5.6469e-06 1.82722e-05 2.10479e-05 2.55499e-05 1.29781e-05 7.44097e-06 9.30559e-06 1.34802e-05 2.12555e-05
internal_weight=5322 5292 77 57 5215 47 5168 5123 5085 45 4101 186 984 3915 165 589 185 134 53 404 81 2004 317 272 214 46 1408 1014 521 274
internal_count=5322 5292 77 57 5215 47 5168 5123 5085 45 4101 186 984 3915 165 589 185 134 53 404 81 2004 317 272 214 46 1408 1014 521 274
is_linear=0
shrinkage=0.05


Tree=25
num_leaves=31
num_cat=0
split_feature=48 147 203 120 120 99 30 208 69 212 215 39 105 84 123 2 128 127 5 4 172 2 21 132 139 144 42 64 182 124
split_gain=0.0190962 0.00292352 0.0421271 0.00172637 0.000750864 0.000333319 0.000248688 9.47458e-05 6.55942e-05 3.11028e-05 2.18215e-05 1.4281e-05 1.30966e-05 5.95986e-05 1.30316e-05 1.0502e-05 9.83072e-06 1.05429e-05 7.61238e-06 1.14537e-05 1.01615e-05 9.00097e-06 1.1315e-05 2.16096e-05 1.92216e-05 7.21606e-06 7.30147e-06 6.31849e-06 7.7798e-06 6.13845e-06
threshold=0.0224907063197026 0.032156133828996285 0.091324512344837003 0.028438661710037175 0.028438661710037175 0.16400084284729141 0.025464684014869888 0.99290981901445452 18.500000000000004 0.22247987996180604 9.5000000000000018 0.080111524163568773 22.500000000000004 0.057992565055762078 13.500000000000002 0.2246764837126283 0.36962665476721707 0.99442804417052189 0.040717501023052792 0.034645554909936087 0.99348771766771238 0.49728543804849029 0.1120817843866171 15.500000000000002 0.14097908192911099 0.28068730365489231 7.5000000000000009 0.99525269164737862 0.081399672765134615 5.5000000000000009
decision_type=2 2 2 2 2 2 2 2 2 2 2 2 2 2 2 2 2 2 2 2 2 2 2 2 2 2 2 2 2 2
left_child=-1 2 4 5 -2 -3 -5 -8 -6 10 12 -11 25 -14 27 -16 17 -17 29 -20 -21 22 -22 -24 -25 26 -9 28 -13 -12
right_child=1 3 -4 6 8 -7 7 9 -10 11 18 14 13 -15 15 16 -18 -19 19 20 21 -23 23 24 -26 -27 -28 -29 -30 -31
leaf_value=-0.0015455243526957931 0.00027400809882046338 0.0001818190216839027 -0.002358105478460857 0.00015228834160772186 7.5815463939458531e-07 0.00044312383378501577 8.4113119890772453e-05 -4.745933484664713e-06 0.0001002943330013295 -4.5617918139332202e-06 8.6039338690666152e-07 4.2509689683356557e-05 8.8068916890430657e-05 3.2981969707179815e-07 1.7958613229580054e-05 8.6279512693181466e-05 1.8845787354848654e-05 4.1430032938718032e-05 3.7721733521098754e-05 5.9364052182080225e-06 6.2283411441174736e-06 4.173443230830608e-05 1.170520751368258e-05 7.2434679981704574e-05 1.0660549660315156e-05 4.3944697296666816e-06 1.3587700583746393e-06 -6.2570151275309634e-06 1.2803944302675064e-05 2.2212261263588075e-05
leaf_weight=20 38 26 20 29 96 23 38 775 20 56 373 27 24 100 58 20 24 38 38 668 222 31 125 34 20 933 1331 32 120 37
leaf_count=20 38 26 20 29 96 23 38 775 20 56 373 27 24 100 58 20 24 38 38 668 222 31 125 34 20 933 1331 32 120 37
internal_value=-3.39011e-06 2.347e-06 -0.000199259 9.09047e-06 8.11102e-05 0.000304472 6.28167e-06 5.45533e-06 1.79196e-05 4.86764e-06 3.76447e-06 1.87263e-05 1.38384e-06 1.73116e-05 2.28145e-05 3.42416e-05 4.57589e-05 5.68954e-05 8.62876e-06 1.07333e-05 9.80102e-06 1.57769e-05 1.37702e-05 2.31237e-05 4.95554e-05 7.33947e-07 -8.87738e-07 1.38772e-05 1.82601e-05 2.78727e-06
internal_weight=5396 5376 174 5202 154 49 5153 5124 116 5086 4711 375 3163 124 319 140 82 58 1548 1138 1100 432 401 179 54 3039 2106 179 147 410
internal_count=5396 5376 174 5202 154 49 5153 5124 116 5086 4711 375 3163 124 319 140 82 58 1548 1138 1100 432 401 179 54 3039 2106 179 147 410
is_linear=0
shrinkage=0.05


Tree=26
num_leaves=31
num_cat=0
split_feature=208 145 48 138 112 129 129 1 30 111 211 29 212 188 48 105 84 54 17 198 214 42 147 58 33 209 41 165 198 9
split_gain=0.0176273 0.0264011 0.0056784 0.00275128 0.0400267 0.000651392 0.000366981 0.000332768 0.000159935 0.00013687 8.60662e-05 3.2837e-05 2.81537e-05 1.9435e-05 1.5664e-05 1.36239e-05 5.90541e-05 1.03053e-05 1.11698e-05 1.09876e-05 8.83823e-06 7.46399e-06 7.45503e-06 7.0207e-06 7.02639e-06 7.01928e-06 9.98853e-06 9.94138e-06 8.8667e-06 8.14962e-06
threshold=0.99290981901445452 0.99308904703320544 0.023977695167286244 0.031412639405204466 0.0756101104009297 0.030669144981412638 0.028438661710037175 0.9930443641476443 0.025464684014869888 0.027695167286245354 0.032611853573503782 0.56645098914175229 0.19997271859227936 9.5000000000000018 0.080111524163568773 22.500000000000004 0.057992565055762078 0.25511455060914873 7.5000000000000009 0.51725921385334461 1.5000000000000002 8.5000000000000018 0.031412639405204466 0.0286897152818129 3.5000000000000004 0.30975754871337208 0.20631564588732779 0.10985130111524165 0.40857022450386943 0.29348325798789371
decision_type=2 2 2 2 2 2 2 2 2 2 2 2 2 2 2 2 2 2 2 2 2 2 2 2 2 2 2 2 2 2
left_child=1 -1 -2 4 6 -5 7 10 -7 -10 -4 -8 13 15 -14 21 -17 -16 19 -19 -21 -11 -23 -15 -25 26 27 -26 -29 -27
right_child=2 -3 3 5 -6 8 11 -9 9 12 -12 -13 14 23 17 16 -18 18 -20 20 -22 22 -24 24 25 29 -28 28 -30 -31
leaf_value=0.00011814969379126222 0.00072824743002894584 -0.0023415758639748672 3.9391024308770284e-05 0.0002358300266824963 -0.0022903356743154291 0.00012511663452901954 -5.8546713896583626e-07 0.00034765001960295199 0.00013583677240603721 -2.4088780443608973e-06 0.00018121234572153418 7.8566005249740563e-05 -2.0867181674136788e-06 1.6072213291589701e-06 5.5606450018785836e-05 8.6249269021209328e-05 3.3211921891052046e-07 4.4370146473926389e-05 1.001459003803942e-05 4.1848436575814816e-05 1.1020728260642886e-05 3.0971261501532436e-05 2.3229871890284167e-06 1.9100418316681995e-06 8.0568575588188516e-06 1.5140446541362876e-05 4.3286950406452111e-05 3.7166540481275264e-05 7.1331791001615459e-07 3.9131742123711962e-06
leaf_weight=24 27 20 20 31 20 28 38 24 20 1190 23 20 94 311 20 25 100 63 184 31 93 23 1793 216 179 294 35 69 22 359
leaf_count=24 27 20 20 31 20 28 38 24 20 1190 23 20 94 311 20 25 100 63 184 31 93 23 1793 216 179 294 35 69 22 359
internal_value=-3.2206e-06 -0.000999907 4.97339e-06 1.30608e-06 -0.000213506 7.31915e-06 0.000118787 0.000198497 5.94338e-06 5.29178e-06 0.000115249 2.67081e-05 4.77994e-06 3.57588e-06 1.62396e-05 1.34153e-06 1.75155e-05 2.06454e-05 1.87607e-05 2.73666e-05 1.87277e-05 6.68959e-07 2.68582e-06 8.28683e-06 1.00563e-05 1.1893e-05 1.81554e-05 1.48976e-05 2.83537e-05 8.96803e-06
internal_weight=5396 44 5352 5325 145 5180 125 67 5149 5121 43 58 5101 4616 485 3131 125 391 371 187 124 3006 1816 1485 1174 958 305 270 91 653
internal_count=5396 44 5352 5325 145 5180 125 67 5149 5121 43 58 5101 4616 485 3131 125 391 371 187 124 3006 1816 1485 1174 958 305 270 91 653
is_linear=0
shrinkage=0.05


Tree=27
num_leaves=31
num_cat=0
split_feature=48 105 102 129 138 208 24 129 58 21 145 75 211 147 8 102 93 188 138 67 70 178 189 57 32 51 209 32 28 75
split_gain=0.017921 0.0027063 0.0359016 0.00103679 0.000362673 0.00027337 0.000251936 0.00029825 0.000123592 0.000103652 4.7517e-05 2.85146e-05 2.84779e-05 2.45683e-05 1.78758e-05 1.7824e-05 2.52687e-05 1.63171e-05 1.60267e-05 2.51856e-05 1.1234e-05 1.13059e-05 1.09929e-05 1.03722e-05 8.80816e-06 7.24313e-06 7.00488e-06 8.01861e-06 6.87017e-06 6.86743e-06
threshold=0.0224907063197026 22.500000000000004 0.042007434944237913 0.030669144981412638 0.033643122676579922 0.99290981901445452 8.5000000000000018 0.026208178438661706 0.037115049389889604 0.025464684014869888 0.99298627639641479 0.055204460966542752 0.17569726902963395 0.047583643122676579 5.5000000000000009 0.034200743494423792 0.03531598513011152 9.5000000000000018 0.032156133828996285 0.047574084834398601 1.5000000000000002 5.5000000000000009 0.60677342732357664 0.16356877323420074 0.040990315100259175 21.500000000000004 0.38557935445485653 0.23632519438003 0.99303741347655705 0.21226765799256506
decision_type=2 2 2 2 2 2 2 2 2 2 2 2 2 2 2 2 2 2 2 2 2 2 2 2 2 2 2 2 2 2
left_child=-1 3 -3 6 -4 -5 10 -8 -9 -7 -2 -6 15 -14 20 16 -11 18 19 -17 23 22 -22 -15 -19 -20 27 -26 -27 -16
right_child=1 2 4 5 11 9 7 8 -10 12 -12 -13 13 14 29 17 -18 24 25 -21 21 -23 -24 -25 26 28 -28 -29 -30 -31
leaf_value=-0.0014969859179109336 1.0082295404407142e-05 -0.0021893185054796048 0.00023229997284943241 0.00013838627729012681 6.4550564211458543e-05 9.8153357853334469e-05 0.0003635030289170454 6.4125634283603491e-05 0.00022147265913540303 1.0640626796480133e-05 0.00011656833768938669 1.3337973095159133e-06 6.5384177048599668e-05 7.0016791046921003e-05 2.8327503389055505e-06 -5.4759068422660264e-07 6.1023278816113211e-05 8.5499012447649884e-07 -3.6157085912434599e-07 7.2386479323540705e-05 2.2393737859125569e-05 5.1792631495031642e-05 -9.4532252387580232e-06 2.5997069869099224e-05 1.2563233397665034e-05 3.6919491139428826e-05 5.8365660698342595e-06 3.9244535752989884e-05 6.2381395659522479e-06 2.4862058755108658e-05
leaf_weight=20 22 20 20 39 20 30 23 24 26 146 20 165 24 23 258 29 30 366 2623 20 84 21 40 32 459 20 513 30 208 41
leaf_count=20 22 20 20 39 20 30 23 24 26 146 20 165 24 23 258 29 30 366 2623 20 84 21 40 32 459 20 513 30 208 41
internal_value=-3.05957e-06 2.49819e-06 -0.000167241 9.91255e-06 3.00346e-05 6.52274e-06 0.000158357 0.000214491 0.000145946 5.49359e-06 6.07899e-05 8.16804e-06 4.93393e-06 1.597e-05 1.35933e-05 3.63514e-06 1.92286e-05 2.99211e-06 8.68749e-07 2.92214e-05 2.51644e-05 1.78661e-05 1.21205e-05 4.44053e-05 7.49338e-06 3.81453e-07 9.91818e-06 1.42001e-05 8.92949e-06 5.85349e-06
internal_weight=5396 5376 225 5151 205 5036 115 73 50 4997 42 185 4967 523 499 4444 176 4268 2900 49 200 145 124 55 1368 2851 1002 489 228 299
internal_count=5396 5376 225 5151 205 5036 115 73 50 4997 42 185 4967 523 499 4444 176 4268 2900 49 200 145 124 55 1368 2851 1002 489 228 299
is_linear=0
shrinkage=0.05


Tree=28
num_leaves=31
num_cat=0
split_feature=48 120 31 190 30 157 138 130 199 96 105 93 136 209 27 117 106 214 83 118 192 42 64 175 57 48 138 167 84 31
split_gain=0.0161737 0.00270292 0.0333772 0.000520022 0.000182178 0.000111337 9.32833e-05 0.000106578 6.53711e-05 2.55542e-05 2.42343e-05 0.000215459 2.45847e-05 1.6506e-05 1.55785e-05 2.04133e-05 1.20604e-05 1.85273e-05 1.71822e-05 9.36134e-06 7.97295e-06 7.37898e-06 7.11318e-06 7.41316e-06 1.1202e-05 6.6485e-06 6.03809e-06 6.53068e-06 5.99444e-06 5.35219e-06
threshold=0.0224907063197026 0.028438661710037175 0.051641487507263224 0.99308209636211819 0.025464684014869888 0.036243463102847186 0.033271375464684012 0.058178384660081343 0.99290981901445452 21.500000000000004 22.500000000000004 0.050371747211895905 0.9933154403200487 0.38557935445485653 0.3126580338671367 0.26791050494215002 1.5000000000000002 1.5000000000000002 0.29648222519708467 0.99442804417052189 0.057992565055762078 7.5000000000000009 0.99535496580766314 0.44145845438698433 0.19033457249070634 0.094237918215613378 0.034758364312267656 0.013026872186604829 0.060223048327137541 0.064860546194073221
decision_type=2 2 2 2 2 2 2 2 2 2 2 2 2 2 2 2 2 2 2 2 2 2 2 2 2 2 2 2 2 2
left_child=-1 2 3 5 -3 -2 7 9 -8 20 12 -12 21 14 -14 -16 17 19 -19 -17 -6 25 23 -18 -25 -10 -23 -28 -13 -15
right_child=1 4 -4 -5 6 -7 8 -9 10 -11 11 28 13 29 15 16 22 18 -20 -21 -22 26 -24 24 -26 -27 27 -29 -30 -31
leaf_value=-0.0014221366588026286 8.2232347386193211e-05 0.00012980997877699946 -0.0020679861365351829 0.00045557960508052606 -3.657470589477553e-06 0.00023780741890811402 6.9594688098872069e-05 0.00011626233036879103 -3.8845055821719409e-06 6.3380746471991119e-05 0.00017736094945576043 2.8767616740052208e-05 6.0770716979397754e-06 -1.472792526007948e-06 5.9316849599001997e-05 6.3498731820540605e-06 1.063992814074788e-05 2.2397364872714124e-05 8.3571980697646128e-05 4.2536511106542703e-05 2.9663558304421785e-05 2.3048669640342566e-05 -6.9497011591397988e-06 1.4029022333323322e-06 4.6235072127992205e-05 5.6461160877840184e-06 2.4962717475318641e-05 2.1374457877241579e-06 8.9937214942188911e-07 6.2612672995980482e-06
leaf_weight=20 23 30 20 22 58 23 39 39 980 26 20 22 571 386 28 70 319 22 24 24 26 37 47 22 38 225 32 1514 157 532
leaf_count=20 23 30 20 22 58 23 39 39 980 26 20 22 571 386 28 70 319 22 24 24 26 37 47 22 38 225 32 1514 157 532
internal_value=-2.90659e-06 2.37328e-06 -0.000272455 0.000255642 6.94683e-06 0.00016002 6.24582e-06 4.52433e-05 5.10849e-06 2.00638e-05 4.61244e-06 2.17151e-05 3.91373e-06 8.02329e-06 1.19743e-05 1.76431e-05 1.55815e-05 2.83131e-05 5.43146e-05 1.5589e-05 6.65618e-06 8.43351e-07 1.13974e-05 1.36726e-05 2.97966e-05 -2.10493e-06 3.08762e-06 2.6099e-06 4.32452e-06 3.00926e-06
internal_weight=5396 5376 88 68 5288 46 5258 149 5109 110 5070 199 4871 2083 1165 594 566 140 46 94 84 2788 426 379 60 1205 1583 1546 179 918
internal_count=5396 5376 88 68 5288 46 5258 149 5109 110 5070 199 4871 2083 1165 594 566 140 46 94 84 2788 426 379 60 1205 1583 1546 179 918
is_linear=0
shrinkage=0.05


Tree=29
