tree
version=v4
num_class=1
num_tree_per_iteration=1
label_index=0
max_feature_idx=215
objective=regression
feature_names=Column_0 Column_1 Column_2 Column_3 Column_4 Column_5 Column_6 Column_7 Column_8 Column_9 Column_10 Column_11 Column_12 Column_13 Column_14 Column_15 Column_16 Column_17 Column_18 Column_19 Column_20 Column_21 Column_22 Column_23 Column_24 Column_25 Column_26 Column_27 Column_28 Column_29 Column_30 Column_31 Column_32 Column_33 Column_34 Column_35 Column_36 Column_37 Column_38 Column_39 Column_40 Column_41 Column_42 Column_43 Column_44 Column_45 Column_46 Column_47 Column_48 Column_49 Column_50 Column_51 Column_52 Column_53 Column_54 Column_55 Column_56 Column_57 Column_58 Column_59 Column_60 Column_61 Column_62 Column_63 Column_64 Column_65 Column_66 Column_67 Column_68 Column_69 Column_70 Column_71 Column_72 Column_73 Column_74 Column_75 Column_76 Column_77 Column_78 Column_79 Column_80 Column_81 Column_82 Column_83 Column_84 Column_85 Column_86 Column_87 Column_88 Column_89 Column_90 Column_91 Column_92 Column_93 Column_94 Column_95 Column_96 Column_97 Column_98 Column_99 Column_100 Column_101 Column_102 Column_103 Column_104 Column_105 Column_106 Column_107 Column_108 Column_109 Column_110 Column_111 Column_112 Column_113 Column_114 Column_115 Column_116 Column_117 Column_118 Column_119 Column_120 Column_121 Column_122 Column_123 Column_124 Column_125 Column_126 Column_127 Column_128 Column_129 Column_130 Column_131 Column_132 Column_133 Column_134 Column_135 Column_136 Column_137 Column_138 Column_139 Column_140 Column_141 Column_142 Column_143 Column_144 Column_145 Column_146 Column_147 Column_148 Column_149 Column_150 Column_151 Column_152 Column_153 Column_154 Column_155 Column_156 Column_157 Column_158 Column_159 Column_160 Column_161 Column_162 Column_163 Column_164 Column_165 Column_166 Column_167 Column_168 Column_169 Column_170 Column_171 Column_172 Column_173 Column_174 Column_175 Column_176 Column_177 Column_178 Column_179 Column_180 Column_181 Column_182 Column_183 Column_184 Column_185 Column_186 Column_187 Column_188 Column_189 Column_190 Column_191 Column_192 Column_193 Column_194 Column_195 Column_196 Column_197 Column_198 Column_199 Column_200 Column_201 Column_202 Column_203 Column_204 Column_205 Column_206 Column_207 Column_208 Column_209 Column_210 Column_211 Column_212 Column_213 Column_214 Column_215
feature_infos=[0.09526089954792738:0.99999999999999989] [0:1] [0:0.97872973374981409] [0.010780669144981412:0.99999999999999978] [0.0072632190586868093:1] [0.0075023871231755558:1] [0:23] [0:6] [1:12] [0.09526089954792738:0.99999999999999989] [0:1] [0:0.97872973374981409] [0.010780669144981412:0.99999999999999978] [0.0072632190586868093:1] [0.0075023871231755558:1] [0:23] [0:6] [1:12] [0.09526089954792738:0.99999999999999989] [0:1] [0:0.97872973374981409] [0.010780669144981412:0.99999999999999978] [0.0072632190586868093:1] [0.0075023871231755558:1] [0:23] [0:6] [1:12] [0.09526089954792738:0.99999999999999989] [0:1] [0:0.97872973374981409] [0.010780669144981412:0.99999999999999978] [0.0072632190586868093:1] [0.0075023871231755558:1] [0:23] [0:6] [1:12] [0.09526089954792738:0.99999999999999989] [0:1] [0:0.97872973374981409] [0.010780669144981412:0.99999999999999978] [0.0072632190586868093:1] [0.0075023871231755558:1] [0:23] [0:6] [1:12] [0.09526089954792738:0.99999999999999989] [0:1] [0:0.97872973374981409] [0.010780669144981412:0.99999999999999978] [0.0072632190586868093:1] [0.0075023871231755558:1] [0:23] [0:6] [1:12] [0.09526089954792738:0.99999999999999989] [0:1] [0:0.97872973374981409] [0.010780669144981412:0.99999999999999978] [0.0072632190586868093:1] [0.0075023871231755558:1] [0:23] [0:6] [1:12] [0.09526089954792738:0.99999999999999989] [0:1] [0:0.97872973374981409] [0.010780669144981412:0.99999999999999978] [0.0072632190586868093:1] [0.0075023871231755558:1] [0:23] [0:6] [1:12] [0.09526089954792738:0.99999999999999989] [0:1] [0:0.97872973374981409] [0.010780669144981412:0.99999999999999978] [0.0072632190586868093:1] [0.0075023871231755558:1] [0:23] [0:6] [1:12] [0.09526089954792738:0.99999999999999989] [0:1] [0:0.97872973374981409] [0.010780669144981412:0.99999999999999978] [0.0072632190586868093:1] [0.0075023871231755558:1] [0:23] [0:6] [1:12] [0.09526089954792738:0.99999999999999989] [0:1] [0:0.97872973374981409] [0.010780669144981412:0.99999999999999978] [0.0072632190586868093:1] [0.0075023871231755558:1] [0:23] [0:6] [1:12] [0.09526089954792738:0.99999999999999989] [0:1] [0:0.97872973374981409] [0.010780669144981412:0.99999999999999978] [0.0072632190586868093:1] [0.0075023871231755558:1] [0:23] [0:6] [1:12] [0.09526089954792738:0.99999999999999989] [0:1] [0:0.97872973374981409] [0.010780669144981412:0.99999999999999978] [0.0072632190586868093:1] [0.0075023871231755558:1] [0:23] [0:6] [1:12] [0.09526089954792738:0.99999999999999989] [0:1] [0:0.97872973374981409] [0.010780669144981412:0.99999999999999978] [0.0072632190586868093:1] [0.0075023871231755558:1] [0:23] [0:6] [1:12] [0.09526089954792738:0.99999999999999989] [0:1] [0:0.97872973374981409] [0.010780669144981412:0.99999999999999978] [0.0072632190586868093:1] [0.0075023871231755558:1] [0:23] [0:6] [1:12] [0.09526089954792738:0.99999999999999989] [0:1] [0:0.97872973374981409] [0.010780669144981412:0.99999999999999978] [0.0072632190586868093:1] [0.0075023871231755558:1] [0:23] [0:6] [1:12] [0.09526089954792738:0.99999999999999989] [0:1] [0:0.97872973374981409] [0.010780669144981412:0.99999999999999978] [0.0072632190586868093:1] [0.0075023871231755558:1] [0:23] [0:6] [1:12] [0.09526089954792738:0.99999999999999989] [0:1] [0:0.97872973374981409] [0.010780669144981412:0.99999999999999978] [0.0072632190586868093:1] [0.0075023871231755558:1] [0:23] [0:6] [1:12] [0.09526089954792738:0.99999999999999989] [0:1] [0:0.97872973374981409] [0.010780669144981412:0.99999999999999978] [0.0072632190586868093:1] [0.0075023871231755558:1] [0:23] [0:6] [1:12] [0.09526089954792738:0.99999999999999989] [0:1] [0:0.97872973374981409] [0.010780669144981412:0.99999999999999978] [0.0072632190586868093:1] [0.0075023871231755558:1] [0:23] [0:6] [1:12] [0.09526089954792738:0.99999999999999989] [0:1] [0:0.97872973374981409] [0.010780669144981412:0.99999999999999978] [0.0072632190586868093:1] [0.0075023871231755558:1] [0:23] [0:6] [1:12] [0.09526089954792738:0.99999999999999989] [0:1] [0:0.97872973374981409] [0.010780669144981412:0.99999999999999978] [0.0072632190586868093:1] [0.0075023871231755558:1] [0:23] [0:6] [1:12] [0.09526089954792738:0.99999999999999989] [0:1] [0:0.97872973374981409] [0.010780669144981412:0.99999999999999978] [0.0072632190586868093:1] [0.0075023871231755558:1] [0:23] [0:6] [1:12] [0.09526089954792738:0.99999999999999989] [0:1] [0:0.97872973374981409] [0.010780669144981412:0.99999999999999978] [0.0072632190586868093:1] [0.0075023871231755558:1] [0:23] [0:6] [1:12]
tree_sizes=2766 2931 2929 2929 2930 2956 2937 2951 2960 2938 2958 2959 2947 2958 2976 2932 2947 2923 2967 2933 2959 2959 2978 2960 2972 2967 2956 2956 2959 2961 2967 2985 2973 2974 2962 2976 2972 2964 2965 2978 2968 2977 2982 2967 2964 2971 2961 2951 2984 2985 2989 2961 2964 2960 2966 2988 2976 2993 2972 2975 2978 2972 2989 2988 2992 2982 2993 2996 2982 2984 2998 2982 3005 2979 2986 2973 2995 2992 3010 2998 2999 3007 3008 2993 3005 2979 2991 2971 3026 2996 2998 2993 2983 3020 3001 3005 2992 2968 3003 2987 2988 3016 2988 3004 2988 3016 3007 2987 2996 3024 2996 2984 3003 3009 2980 2995 3023 2986 2990 3022 2990 3000 2997 3002 3017 2973 2968 2980 3000 3002 3027 3007 2994 2980 3012 2989 3001 2984 2973 3013 3021 2993 3013 2987 3019 2996 3017 2981 3022 3003 3011 3012 3005 2972 2987 2975 3000 2981 2990 2996 3009 3009 2985 2994 3001 2955 2965 2996 2983 3008 2991 3007 2989 3010 2962 3010 3000 2990 3006 2994 2998 2996 2987 2991 2985 3021 2975 3022 2986 3001 2986 3001 3000 2997 3005 2994 3014 2970 2980 3007 2988 2990 2981 3011 2996 3002 2986 2986 3004 3020 2995 3017 3011 2983 2993 2987 3002 3017 2988 2979 2984 2983 2962 2968 3010 2963 2998 3019 2978 2976 2985 3000 3003 3015 2988 3001 2974 3000 3012 3014 2974 3000 2983 2987 3007 3018 2980 3001 2976 2986 3001 3020 2991 3010 3006 2992 2991 2990 3021 2983 2999 2991 2999 3001 3031 3010 3007 3007 3008 3000 2981 3012 2985 3002 2989 2977 2995 2997 3009 3000 3025 2975 3046 2989 3022 2996 3005 3006 2988 3005 2997 3013 2995 2994 3006 3000 3004 2994 3010 3011 3002 3000 3008 3007 3005 3028 3004 3031 3033 2988 2989 2988 2987 3008 2996 3009 3010 3002 3013 3007 3025 3000 2994 3002 3022 3000 3009 3015 3023 3002 3025 3016 3033 3014 3005 3016 3000 3017 3018 3040 3037 3012 2998 3015 3003 3028 3014 3026 3046 3016 3010 3025 3032 3000 3026 3005 3015 3016 3016 2999 3008 3040 3024 3031 3044 3014 3027 3017 3002 2998 3029 3043 3023 3037 3015 3015 3003 3014 3022 3022 3026 3027 3032 3029 3021 3014 3036 3031 2992 3033 3039 3012 3031 3047 3042 3049 3025 3032 3029 3039 3014 3026 3014 3006 3026 3010 3013 3031 3049 3024 3030 3026 3034 3037 3050 3024 3012 3014 3012 3009 3041 3059 3020 3021 3042 3053 3046 3032 3027 3022 3036 3035 3020 3038 3025 3024 3045 3026 3036 3037 3023 3034 3029 3007 3021 3038 3036 3033 3032 3033 3064 3047 3035 3027 3030 3036 3034 3004 3013 3010 3044 3029 3050 3036 3033 3032 3031 3035 3023 3024 3039 3039 3016 3029 3040 3032 3026 3036 3030 3041 3023 3029 3006 3041 3029 3037 3005 3052 3043 3028 3027 3033 3032 3029 3021 3064 3032 3034 3037 3050 3032 3030 3045 3027 3026 3053 3049 3061 3039 3029 3055 3024 3058 3022 3007 3032 3031 3020 3031 3011 3031 3021 3034 3020 3016 3034 3040 3025 3023 3036 3023 3029 3022 3024 3029 3048 3034 3040 3028 3034 3052 3014 3043 3041 3004 3043 3054 3063 3046 3038 3022 3010 3029 3020 3003 3049 3030 3024 3014 3025 3049 3032 3026 3037 3039 2997 3018 3036 3015 3034 3028 3036 3047 3005 3024 3051 3026 3049 3043 3032 3001 3019 3022 3012 3035 3012 3014 3018 3031 3030 3043 3034 3026 3043 3017 3009 3015 3030 3024 3037 3051 3042 3055 3032 3047 3020 3033 3028 3024 3036 3032 3049 3044 3053 3043 3048 3027 3045 3088 3037 3038 3025 3026 3019 3046 3044 3025 3048 3036 3046 3020 3024 3037 3035 3024 3039 3055 3051 3068 3029 3036 3029 3033 3041 3048 3037 3039 3029 3027 3047 3036 3042 3021 3011 3049 3039 3027 3035 3010 3057 3058 3061 3038 3054 3056 3004 3055 3030 3041 3053 3067 3036 3042 3042 3029 3064 3059 3039 3070 3054 3030 3035 3031 3030 3029 3032 3023 3019 3061 3044 3041 3063 3037 3052 3039 3028 3054 3023 3037 3039 3012 3019 3027 3040 3001 3039 3042 3053 3043 3039 3029 3044 3048 3042 3041 3034 3054 3037 3020 3038 3031 3042 3043 3025 3064 3038 3032 3039 3079 3021 3029 3036 3047 3034 3045 3069 3067 3045 3038 3041 3059 3026 3049 3040 3050 3068 3047 3020 3026 3052 3021 3029 3035 3045 3037 3060 3035 3047 3042 3028 3053 3055 3048 3072 3039 3037 3039 3059 3045 3059 3029 3055 3053 3033 3045 3055 3069 3076 3070 3052 3061 3071 3049 3069 3045 3042 3045 3031 3067 3071 3064 3054 3056 3062 3067 3068 3066 3065 3071 3050 3051 3051 3049 3054 3065 3044 3048 3068 3035 3070 3036 3035 3048 3064 3088 3065 3037 3072 3049 3045 3064 3060 3041 3049 3043 3048 3037 3058 3046 3045 3056 3057 3053 3054 3070 3067 3067 3071 3058 3063 3059 3038 3045 3073 3068 3057 3056 3067 3025 3046 3049 3064 3069 3060 3032 3059 3071 3066 3057 3055 3074 3051 3048 3075 3090 3074 3065 3064 3092 3054 3065 3057 3067 3065 3084 3044 3045 3054 3052 3060 3055 3069 3047 3037 3047 3036 3043 3063 3073 3040 3044 3038 3062 3059 3064 3072 3064 3061 3057 3055 3034 3070 3059 3054 3051 3061 3057 3063 3053 3040 3058 3037 3042 3055 3045 3074 3067 3065 3050 3040 3056 3045 3067 3039 3066 3090 3049 3090 3064 3071 3065 3043 3060 3073 3078 3052 3049 3054 3058 3064 3069 3059 3065 3044 3076 3068 3052 3086 3056 3058 3059 3045 3053 3040 3066 3066 3078 3053 3061 3067 3089 3078 3066 3085 3065 3072 3053 3063 3053 3080 3064 3052 3060 3059 3084 3049 3063 3034 3078 3046 3075 3060 3081 3063 3059 3080 3068 3066 3070 3065 3067 3085 3063 3057 3064 3046 3058 3049 3065 3059

Tree=0
num_leaves=31
num_cat=0
split_feature=38 209 141 168 209 28 37 209 63 87 209 8 96 208 207 27 209 209 81 38 92 209 65 209 38 191 21 44 22 146
split_gain=45.4418 24.8975 7.76695 4.67928 3.83754 3.20292 2.34441 1.92589 1.87266 1.80489 1.5787 1.54525 1.3469 1.28753 1.01003 0.95047 0.931974 0.868536 0.80732 0.742568 0.7033 0.59371 0.580581 0.509657 0.482057 0.467411 0.451901 0.446953 0.441189 0.423809
threshold=0.50260300461103691 0.34835638851703116 6.5000000000000009 7.5000000000000009 0.46538003867321137 0.99308904703320544 0.99313224048924797 0.52922802320392692 0.26791050494215002 14.500000000000002 0.22735385988398035 9.5000000000000018 15.500000000000002 0.99309897656333013 0.50448241514060232 0.22314382039690445 0.48665030492339734 0.40684962070504244 0.21196651597578728 0.65688680648520015 0.33106500074371564 0.56645098914175229 0.58772125539193831 0.41752193961029305 0.30447716793098328 0.56113342257920573 0.056877323420074351 5.5000000000000009 0.043942475305055205 0.2167187267588874
decision_type=2 2 2 2 2 2 2 2 2 2 2 2 2 2 2 2 2 2 2 2 2 2 2 2 2 2 2 2 2 2
left_child=1 3 5 6 12 11 -1 9 13 17 28 19 23 27 24 -11 22 26 -9 -2 -10 -22 -7 -3 -8 -19 -4 -6 -5 -25
right_child=2 4 7 10 8 16 14 18 20 15 -12 -13 -14 -15 -16 -17 -18 25 -20 -21 21 -23 -24 29 -26 -27 -28 -29 -30 -31
leaf_value=0.42025780755457903 0.42804784623656111 0.41354611871478791 0.40605686269765295 0.40864261897789844 0.42306419152383073 0.41700376753514218 0.41050900857144657 0.42045212504527163 0.41917635644521828 0.42515705513554447 0.40940441240134079 0.41979463348608576 0.41907263802268468 0.41489150057217983 0.40600139462509099 0.417880783993131 0.42584684033994497 0.41941290371142087 0.42515917522343771 0.43128869599035191 0.42198183545553802 0.42615343129901623 0.42609544194832044 0.40932426854895937 0.41451257230414512 0.41262754842931998 0.41419548519530158 0.41898697823565206 0.40449693149985477 0.41666625227147241
leaf_weight=104 354 406 23 79 81 87 124 138 138 122 514 42 236 199 63 71 84 140 268 353 264 126 22 21 191 31 66 395 342 307
leaf_count=104 354 406 23 79 81 87 124 138 138 122 514 42 236 199 63 71 84 140 268 353 264 126 22 21 191 31 66 395 342 307
internal_value=0.418016 0.414764 0.424497 0.409608 0.418127 0.427632 0.41361 0.421058 0.420014 0.418817 0.407545 0.429112 0.415787 0.418269 0.411781 0.42248 0.421889 0.416098 0.423559 0.429666 0.422244 0.42333 0.418839 0.41473 0.412937 0.418183 0.412092 0.419681 0.405275 0.416196
internal_weight=5391 3590 1801 1417 2173 942 482 859 1203 453 935 749 970 675 378 193 193 260 406 707 528 390 109 734 315 171 89 476 421 328
internal_count=5391 3590 1801 1417 2173 942 482 859 1203 453 935 749 970 675 378 193 193 260 406 707 528 390 109 734 315 171 89 476 421 328
is_linear=0
shrinkage=1


Tree=1
num_leaves=31
num_cat=0
split_feature=38 209 78 168 209 38 37 209 63 78 207 209 96 208 207 36 209 143 81 119 209 209 31 150 209 0 35 182 209 209
split_gain=41.0112 22.47 7.00967 4.22305 3.46338 2.89729 2.11583 1.73812 1.69008 1.62891 1.57176 1.45194 1.21557 1.17548 0.911551 0.856622 0.796491 0.745136 0.728606 0.638037 0.688617 0.530924 0.505806 0.471206 0.459965 0.444622 0.433674 0.42348 0.406516 0.387971
threshold=0.50260300461103691 0.34835638851703116 16.500000000000004 7.5000000000000009 0.46538003867321137 0.61962665476721712 0.99313224048924797 0.52922802320392692 0.26791050494215002 13.500000000000002 0.31905601103363729 0.25658188308790725 15.500000000000002 0.99314068058985394 0.50448241514060232 0.22314382039690445 0.35899152164212411 9.5000000000000018 0.21196651597578728 0.33106500074371564 0.57176855570429874 0.29648222519708467 0.036679256246368398 4.5000000000000009 0.41752193961029305 0.19917056164278601 5.5000000000000009 0.57708612226684519 0.71802022906440588 0.18213595121225643
decision_type=2 2 2 2 2 2 2 2 2 2 2 2 2 2 2 2 2 2 2 2 2 2 2 2 2 2 2 2 2 2
left_child=1 3 7 6 12 10 -1 9 13 16 17 22 24 26 23 -11 -2 -4 28 -10 -21 -12 -5 -8 -3 -25 -6 -18 -9 -27
right_child=2 4 5 11 8 -7 14 18 19 15 21 -13 -14 -15 -16 -17 27 -19 -20 20 -22 -23 -24 25 -26 29 -28 -29 -30 -31
leaf_value=0.0020830547763930206 -0.0067624893215011868 -0.0042930496061447864 0.0090446050590056327 -0.0081529027890956934 0.0045825654685519536 0.01158699749501046 -0.0030631850577784855 0.00031737328401784627 0.00069437699336237437 0.0065681800396305339 -0.004309848896368886 -0.0077352139147316649 0.00095714363091925199 -0.0036933679590328396 -0.011460537490035807 -0.00048007572123494292 0.00073608242460844551 0.0026187612717463215 0.006739354015404226 0.0036202976945787671 0.008177311478952027 0.0031877004610359142 -0.012381689013575748 -1.0113246898981743e-05 -0.0017754855672204185 -0.012260045639949998 0.00068067117817234525 -0.0054717592905614183 0.0060437365340940815 -0.0062249454088885801
leaf_weight=104 63 406 251 84 85 520 168 91 116 128 33 404 236 151 63 65 164 55 268 297 115 83 447 20 328 38 439 33 47 89
leaf_count=104 63 406 251 84 85 520 168 91 116 128 33 404 236 151 63 65 164 55 268 297 115 83 447 20 328 38 439 33 47 89
internal_value=-4.6873e-05 -0.00313572 0.00611024 -0.00803428 5.86054e-05 0.00908898 -0.00423256 0.00284368 0.00185104 0.000714426 0.00601086 -0.0099941 -0.00216438 0.000193532 -0.00597019 0.00419442 -0.0018688 0.00788963 0.00521942 0.00397001 0.00489228 0.00105478 -0.0117127 -0.00487212 -0.00316803 -0.00693948 0.00131361 -0.00030381 0.00226766 -0.00803072
internal_weight=5391 3590 1801 1417 2173 942 482 859 1203 453 422 935 970 675 378 193 260 306 406 528 412 116 531 315 734 147 524 197 138 127
internal_count=5391 3590 1801 1417 2173 942 482 859 1203 453 422 935 970 675 378 193 260 306 406 528 412 116 531 315 734 147 524 197 138 127
is_linear=0
shrinkage=0.05


Tree=2
num_leaves=31
num_cat=0
split_feature=38 209 78 168 209 28 37 209 54 209 8 65 168 208 31 209 90 209 56 162 110 209 209 5 173 11 209 215 146 27
split_gain=37.0126 20.2791 6.32623 3.8113 3.1257 2.675 1.90953 1.58287 1.53431 1.31079 1.27854 1.16052 1.09706 0.977856 0.85973 0.824459 0.711881 0.707306 0.695812 0.680956 0.655775 0.645367 0.466574 0.446832 0.445431 0.421519 0.415119 0.412453 0.382488 0.382324
threshold=0.50260300461103691 0.34835638851703116 16.500000000000004 7.5000000000000009 0.46538003867321137 0.99308904703320544 0.99313224048924797 0.58772125539193831 0.26151252777564943 0.22199910754127619 9.5000000000000018 0.62494422132976368 7.5000000000000009 0.99309897656333013 0.44145845438698433 0.40684962070504244 0.21196651597578728 0.35899152164212411 0.64625167336010714 0.34462876407938087 0.32307005800981708 0.56645098914175229 0.61430908820467056 0.092552175692265731 0.24862412613416626 0.428157072735386 0.41752193961029305 6.5000000000000009 0.2167187267588874 0.35102674124588151
decision_type=2 2 2 2 2 2 2 2 2 2 2 2 2 2 2 2 2 2 2 2 2 2 2 2 2 2 2 2 2 2
left_child=1 3 7 6 12 10 -1 11 13 -5 18 17 -3 27 24 19 -9 25 22 -7 -10 -22 -4 -19 29 -2 -14 -6 -28 -8
right_child=2 4 5 9 8 15 14 16 20 -11 -12 -13 26 -15 -16 -17 -18 23 -20 -21 21 -23 -24 -25 -26 -27 28 -29 -30 -31
leaf_value=0.0019789020426777336 0.0020609956193948166 0.00090928652762929652 0.0080943200159121036 -0.011631349269819694 0.0031303676979852813 0.002403084821528071 -0.0052054139673944656 0.0026073220041202935 0.00053600225924478422 -0.007854315903854674 0.0015114294977614745 0.0046496889119803471 -0.0040783972838899845 -0.0029182604589336187 -0.014631982326507567 0.0058233827367075719 0.0077262158895110983 -0.00023034623532600736 0.012317573991313112 -0.0082553589039228176 0.0032800086346426887 0.0074240176982661018 0.01187451864238334 0.0041867131431742267 -0.0032660035272937872 -0.0062249241566116158 -0.0082150330811384172 5.3369712378061465e-05 -0.0012401485235333321 -0.010185438479305033
leaf_weight=104 20 236 294 406 189 47 119 111 130 529 42 170 406 191 25 124 175 242 300 22 299 137 113 75 177 66 21 257 307 57
leaf_count=104 20 236 294 406 189 47 119 111 130 529 42 170 406 191 25 124 175 242 300 22 299 137 113 75 177 66 21 257 307 57
internal_value=-4.45293e-05 -0.00297893 0.00580473 -0.00763257 5.56751e-05 0.00863453 -0.00402093 0.00270149 0.00175849 -0.0094944 0.00998705 0.00118513 -0.00205616 7.53026e-05 -0.00567168 0.00338563 0.00573951 -0.000276341 0.0104906 -0.00099526 0.00365282 0.00458214 0.00914386 0.000814699 -0.0050371 -0.00429797 -0.00300963 0.0013573 -0.00168671 -0.00681826
internal_weight=5391 3590 1801 1417 2173 942 482 859 1203 935 749 573 970 637 378 193 286 403 707 69 566 436 407 317 353 86 734 446 328 176
internal_count=5391 3590 1801 1417 2173 942 482 859 1203 935 749 573 970 637 378 193 286 403 707 69 566 436 407 317 353 86 734 446 328 176
is_linear=0
shrinkage=0.05


Tree=3
num_leaves=31
num_cat=0
split_feature=38 200 38 199 96 78 78 200 65 37 36 199 200 198 200 27 0 200 72 3 198 164 20 43 96 200 22 163 110 47
split_gain=33.499 12.7007 7.65095 2.44732 2.03688 1.98843 1.53506 1.38644 1.30193 1.17772 1.17622 1.2939 1.13739 1.05395 0.879823 0.915416 0.828048 0.795165 0.868405 0.690549 0.608874 0.556736 0.48294 0.469948 0.470728 0.460596 0.453619 0.446421 0.424285 0.419969
threshold=0.46006247211066492 0.38026178789231002 0.61962665476721712 0.99337501750079704 15.500000000000002 16.500000000000004 15.500000000000002 0.25658188308790725 0.58772125539193831 0.99310791314044244 0.27429890429852116 0.99309301884525536 0.46538003867321137 0.49808443797410151 0.21136397441618324 0.34462876407938087 0.28708528082139301 0.57176855570429874 0.21196651597578728 0.087546468401486999 0.22314382039690445 0.25658188308790725 0.40684962070504244 2.5000000000000004 19.500000000000004 0.41752193961029305 0.034936083672283562 0.99390426145644384 0.30179979175963118 0.55581585601665928
decision_type=2 2 2 2 2 2 2 2 2 2 2 2 2 2 2 2 2 2 2 2 2 2 2 2 2 2 2 2 2 2
left_child=1 4 3 6 7 -4 17 26 13 -6 11 -3 27 16 15 19 23 22 -19 -11 -8 -10 -2 24 -5 29 -1 -12 -14 -24
right_child=2 10 5 8 9 -7 20 -9 21 14 12 -13 28 -15 -16 -17 -18 18 -20 -21 -22 -23 25 -25 -26 -27 -28 -29 -30 -31
leaf_value=-0.0064553511042875879 0.0049479662183298861 -4.5461793717556711e-05 0.0043718532690965933 -0.009562342784367503 0.0024018233645862592 0.010469135754661133 0.0079726659822131705 -0.0063630993695821467 0.012399912647246807 -0.0088686802142765378 -0.00039419803208540937 -0.0038297545575469668 -0.00013131569239801619 -0.012881039455533028 -0.0030677861683712998 -0.012107676486226007 0.00089421484740363386 0.001013455615611747 0.0060310845844985641 -0.00055874966899864379 0.0041978403484677646 0.0026583448713857006 -0.0073683232075483027 -0.0010622774117666214 -0.00078577493444423785 0.00092650843756794047 -0.01079542824300006 -0.0057394417468458418 0.0037221739481467088 0.001281143852469066
leaf_weight=71 58 533 180 50 60 520 228 509 22 50 296 392 93 20 227 72 211 141 222 50 201 44 36 67 22 244 396 45 308 23
leaf_count=71 58 533 180 50 60 520 228 509 22 50 296 392 93 20 227 72 211 141 222 50 201 44 36 67 22 244 396 45 308 23
internal_value=-4.23029e-05 -0.00342804 0.00454597 0.00262734 -0.00687633 0.00890126 0.00383399 -0.00816817 -0.000563654 -0.00412942 -0.000459649 -0.00164918 0.00102326 -0.00171762 -0.00511156 -0.00780886 -0.00107971 0.00242963 0.00408209 -0.00471371 0.00620404 0.00590553 0.000768024 -0.00407609 -0.00688061 -3.20966e-05 -0.0101356 -0.00109958 0.00282847 -0.0039965
internal_weight=5391 3102 2289 1589 1435 700 1153 976 436 459 1667 925 742 370 399 172 350 724 363 100 429 66 361 139 72 303 467 341 401 59
internal_count=5391 3102 2289 1589 1435 700 1153 976 436 459 1667 925 742 370 399 172 350 724 363 100 429 66 361 139 72 303 467 341 401 59
is_linear=0
shrinkage=0.05


Tree=4
num_leaves=31
num_cat=0
split_feature=29 209 69 168 37 28 209 209 209 110 105 209 8 81 207 0 81 21 176 143 161 6 31 144 37 209 151 44 163 201
split_gain=27.5869 14.502 5.83403 5.09581 3.08293 2.96485 1.85645 1.68137 1.59453 1.44978 1.32042 1.20644 0.994703 0.865513 0.777974 0.761669 0.699612 0.630539 0.586786 0.492804 0.415246 0.551524 0.412775 0.387914 0.383939 0.377584 0.371704 0.362496 0.356851 0.353352
threshold=0.50260300461103691 0.37494422132976352 14.500000000000002 7.5000000000000009 0.9931098990464674 0.99308904703320544 0.52922802320392692 0.52391045664138047 0.25658188308790725 0.32574743418116919 16.500000000000004 0.40684962070504244 9.5000000000000018 0.21196651597578728 0.50448241514060232 0.28708528082139301 0.26151252777564943 0.070074349442379183 0.061314963852134773 9.5000000000000018 8.5000000000000018 7.5000000000000009 0.034936083672283562 0.35102674124588151 0.99303344166450713 0.71802022906440588 1.5000000000000002 6.5000000000000009 0.99427413645358909 0.07342007434944238
decision_type=2 2 2 2 2 2 2 2 2 2 2 2 2 2 2 2 2 2 2 2 2 2 2 2 2 2 2 2 2 2
left_child=1 3 6 4 19 12 17 10 22 -9 15 23 18 25 20 28 27 -2 -4 -1 -6 -22 -5 -7 26 -8 29 -11 -3 -20
right_child=2 7 5 8 14 11 13 9 -10 16 -12 -13 -14 -15 -16 -17 -18 -19 24 -21 21 -23 -24 -25 -26 -27 -28 -29 -30 -31
leaf_value=0.0048085603427554247 -0.0040665406566003232 -0.0025339132964455361 0.007661492516590894 -0.0065845677069672898 -0.00090520141331824607 -0.00020750790135934949 -0.0016512425580563453 -0.00063985113800019752 -0.006193375544844771 0.0042050637697537592 0.0024447742785274635 0.0047659729781349431 0.0013300561676408316 0.0056065227409474033 -0.0096465817158325369 5.2817707947173492e-05 0.0060000346372518663 0.00040050666045696079 0.0027819609136453699 -0.0016587425409326036 -0.0078670402788860814 -0.0031169950216241018 -0.010662023555332176 -0.0080058623267256698 0.0077798126580282331 0.0041414874428565701 0.012277722096275855 5.2309438875194504e-05 -0.0090298581725371408 0.010286216048717184
leaf_weight=131 127 542 362 72 97 52 78 260 523 99 255 215 43 241 65 406 227 209 21 38 92 182 450 23 105 44 236 112 22 62
leaf_count=131 127 542 362 72 97 52 78 260 523 99 255 215 43 241 65 406 227 209 21 38 92 182 450 23 105 44 236 112 22 62
internal_value=-4.01877e-05 -0.00259152 0.00497407 -0.00603039 -0.00237852 0.00721269 0.00139035 0.000359142 -0.00814463 0.00231777 -0.000756879 0.00286124 0.00873491 0.00386942 -0.00460067 -0.00159855 0.00407344 -0.00128793 0.00914001 0.00335437 -0.00371662 -0.0047119 -0.0100996 -0.002599 0.0104023 0.000437939 0.0112655 0.00200076 -0.0027873 0.00838755
internal_weight=5391 3573 1818 1650 605 1119 699 1923 1045 698 1225 290 829 363 436 970 438 336 786 169 371 274 522 75 424 122 319 211 564 83
internal_count=5391 3573 1818 1650 605 1119 699 1923 1045 698 1225 290 829 363 436 970 438 336 786 169 371 274 522 75 424 122 319 211 564 83
is_linear=0
shrinkage=0.05


Tree=5
num_leaves=31
num_cat=0
split_feature=38 209 47 209 96 159 209 69 209 209 153 78 66 119 96 99 191 209 93 209 198 0 39 77 110 39 72 12 196 5
split_gain=26.5756 11.715 6.21335 3.46512 2.64666 2.07561 1.78756 1.77348 1.6375 1.39401 1.31415 0.858481 0.766911 0.762983 0.739698 0.558526 0.475554 0.46663 0.434495 0.433954 0.421056 0.415596 0.394155 0.390236 0.365638 0.364517 0.359563 0.354739 0.351299 0.33154
threshold=0.45474490554811842 0.34835638851703116 0.61962665476721712 0.52391045664138047 15.500000000000002 6.5000000000000009 0.41216718726758889 15.500000000000002 0.46538003867321137 0.22199910754127619 0.23593977472990577 14.500000000000002 0.050929368029739776 0.36962665476721707 15.500000000000002 0.24871657344264808 0.56113342257920573 0.55581585601665928 0.11765799256505577 0.41752193961029305 0.26151252777564943 0.27429890429852116 0.14572490706319705 0.094189060155504031 0.24862412613416626 0.069144981412639417 0.31905601103363729 0.049256505576208177 1.0000000180025095e-35 0.046310189605783668
decision_type=2 2 2 2 2 2 2 2 2 2 2 2 2 2 2 2 2 2 2 2 2 2 2 2 2 2 2 2 2 2
left_child=1 5 3 4 6 13 27 -4 14 29 25 15 -10 18 21 28 -8 20 -1 23 -14 -3 -9 26 -19 -6 -12 -2 -5 -7
right_child=2 8 7 11 10 9 16 22 12 -11 19 -13 17 -15 -16 -17 -18 24 -20 -21 -22 -23 -24 -25 -26 -27 -28 -29 -30 -31
leaf_value=-0.0024519819222294484 -0.0097977621617484027 -0.0038798186745488137 0.0040957865392698386 -0.0029904095844055217 0.0074935131244274096 -0.0071033688145689666 0.0010292056717512005 0.0099321796461702035 -0.00092764506519568679 -0.0061477299925257467 -0.0008576693641981156 0.0074805839196108136 -0.0011821709675132299 0.0012018488499674468 0.00096322592149269504 0.0055123263601450437 -0.0056344356721577549 0.00078100566261647545 -0.0068577764198822699 0.0030443767914508715 0.0024094873199561229 -0.0013554127256584069 0.0029307633017500241 0.0032016117628452115 0.0050567413277125793 0.0035687289089599457 -0.0071537139231403332 -0.0047541553092135778 0.0028137494339438005 -0.010672060876849901
leaf_weight=115 46 360 205 30 128 80 249 470 303 515 104 243 136 76 170 238 30 70 109 117 204 298 21 44 175 110 29 144 199 349
leaf_count=115 46 360 205 30 128 80 249 470 303 515 104 243 136 76 170 238 30 70 109 117 204 298 21 44 175 110 29 144 199 349
internal_value=0.000117138 -0.00305563 0.00401883 0.00239861 0.000503578 -0.00675003 -0.00223466 0.00800188 -0.000377398 -0.00790138 0.00291755 0.00507034 0.00111406 -0.00312712 -0.00197693 0.00381618 0.000312685 0.00217156 -0.00459587 0.000681659 0.000972824 -0.00273655 0.00963273 -0.000880138 0.0038351 0.00567954 -0.00223049 -0.00597524 0.00205338 -0.0100066
internal_weight=5367 2960 2407 1711 1001 1244 469 696 1716 944 532 710 888 300 828 467 279 585 224 294 340 658 491 177 245 238 133 190 229 429
internal_count=5367 2960 2407 1711 1001 1244 469 696 1716 944 532 710 888 300 828 467 279 585 224 294 340 658 491 177 245 238 133 190 229 429
is_linear=0
shrinkage=0.05


Tree=6
num_leaves=31
num_cat=0
split_feature=38 209 78 28 209 159 209 143 209 209 78 209 81 38 66 74 90 36 96 72 94 154 209 21 209 207 141 209 4 209
split_gain=23.9844 10.6163 5.69001 3.0512 3.04128 1.81808 1.85405 1.18138 0.992346 0.925234 0.75374 1.4417 0.745946 0.699292 0.692137 0.684321 0.656336 0.536243 0.525512 0.49852 0.461857 0.436805 0.376842 0.354389 0.353268 0.335613 0.326723 0.409139 0.325816 0.315008
threshold=0.45474490554811842 0.38026178789231002 15.500000000000002 0.9930910329392304 0.53986315632901982 6.5000000000000009 0.22735385988398035 9.5000000000000018 0.428157072735386 0.46538003867321137 13.500000000000002 0.40153205414249599 0.2151559267489081 0.6622043730477466 0.050929368029739776 0.60367395507957766 0.24871657344264808 0.22314382039690445 16.500000000000004 0.25511455060914873 0.44145845438698433 0.9939127015570498 0.71802022906440588 0.056877323420074351 0.54518072289156627 0.44054095471611371 3.5000000000000004 0.12695225345827757 0.06645845438698432 0.60899152164212411
decision_type=2 2 2 2 2 2 2 2 2 2 2 2 2 2 2 2 2 2 2 2 2 2 2 2 2 2 2 2 2 2
left_child=1 5 4 7 10 12 28 13 15 18 11 23 -1 29 -11 25 22 -12 -3 -13 26 24 -6 -2 -16 -5 -14 -28 -7 -4
right_child=2 9 3 8 16 6 -8 -9 -10 14 17 19 20 -15 21 -17 -18 -19 -20 -21 -22 -23 -24 -25 -26 -27 27 -29 -30 -31
leaf_value=0.0049473416871102203 -0.009335953187124402 -0.0020787036392944588 0.0064409826555565826 -0.0010754729215477711 0.0010464818562201086 -0.0076434825681910915 -0.0052605090340331583 0.001143125707231876 0.0047195635212980269 -0.00088126281883971766 0.0040808554935557323 -0.0031883603224813354 -0.0012894096279499512 0.0099378446408910984 0.0012181004856403081 0.0061969581853675969 0.0057973157829071444 -0.0014334245280846708 0.0018742732515092939 0.0012523979318382005 -0.010423951528289101 -0.0031206958342839867 0.0054733266037973495 -0.004278731730112297 0.0037629953423639916 -0.0079635251989765548 -0.010617894073948265 -0.0033944663193477228 -0.010440755738098616 0.010012641304159818
leaf_weight=29 51 528 400 112 177 164 665 63 186 303 105 89 148 351 288 30 281 76 100 218 22 38 66 108 259 21 24 107 285 73
leaf_count=29 51 528 400 112 177 164 665 63 186 303 105 89 148 351 288 30 281 76 100 218 22 38 66 108 259 21 24 107 285 73
internal_value=0.000111281 -0.00290284 0.00381789 0.00618412 0.00132031 -0.00597099 -0.00693661 0.00774241 0.00222367 1.95854e-05 -0.000972841 -0.00203643 -0.00271128 0.00824697 0.00105836 -0.000624406 0.00415174 0.00176547 -0.00144925 -3.4988e-05 -0.00344916 0.00206298 0.00224883 -0.00590086 0.00242309 -0.00216306 -0.00289918 -0.00471784 -0.00941903 0.00699221
internal_weight=5367 2960 2407 1236 1171 1444 1114 887 349 1516 647 466 330 824 888 163 524 181 628 307 301 585 243 159 547 133 279 131 449 473
internal_count=5367 2960 2407 1236 1171 1444 1114 887 349 1516 647 466 330 824 888 163 524 181 628 307 301 585 243 159 547 133 279 131 449 473
is_linear=0
shrinkage=0.05


Tree=7
num_leaves=31
num_cat=0
split_feature=38 209 78 28 209 159 209 209 38 209 74 92 81 198 72 134 209 96 173 22 60 2 209 55 156 0 209 207 13 141
split_gain=21.646 9.61178 5.13523 2.76137 2.74703 1.69456 1.34502 1.12439 0.954087 0.949063 0.827723 0.680755 0.648799 0.633748 0.58912 0.55864 0.545575 0.504533 0.459841 0.442767 0.423358 0.398492 0.576477 0.445552 0.361835 0.357439 0.337306 0.319973 0.310443 0.296212
threshold=0.45474490554811842 0.34835638851703116 15.500000000000002 0.99305925844283138 0.56645098914175229 6.5000000000000009 0.43347463929793251 0.22199910754127619 0.65688680648520015 0.428157072735386 0.60367395507957766 0.43347463929793251 0.2151559267489081 0.26151252777564943 0.2151559267489081 9.5000000000000018 0.39089692101740298 15.500000000000002 0.22999405027517478 0.44145845438698433 11.500000000000002 0.38026178789231002 0.42283950617283955 0.99294159351085365 0.082156133828996294 0.27429890429852116 0.71802022906440588 0.44054095471611371 0.046993027309703665 3.5000000000000004
decision_type=2 2 2 2 2 2 2 2 2 2 2 2 2 2 2 2 2 2 2 2 2 2 2 2 2 2 2 2 2 2
left_child=1 5 4 8 11 12 17 28 15 10 27 16 -1 18 26 -4 -2 25 -8 29 -20 -13 23 -23 -11 -3 -6 -5 -7 -14
right_child=2 6 3 9 14 7 13 -9 -10 24 -12 21 19 -15 -16 -17 -18 -19 20 -21 -22 22 -24 -25 -26 -27 -28 -29 -30 -31
leaf_value=0.004563168089629875 -0.0064679836596135444 -0.0042198853708858963 0.0066521783493031436 -0.00089896497359852291 0.00033393952973776391 -0.0065299996975227261 -0.0066736696236249478 -0.0055694319177197141 0.0094647868412883127 0.0072741036171860554 0.0063423577012518099 0.0031496189449777981 -0.0014088225799509125 0.0021494925310311503 0.0056788276838089687 0.0011568286946455305 -0.00098022842171808914 0.00059465895001776516 -0.00062626753743627583 -0.010723608173429967 0.0026916740581558987 0.0034697616806901666 0.00091043096717711861 -0.0040979260976503921 0.0031096308583962837 -0.0014736693473855354 0.0049870424477073058 -0.0075653490189108111 -0.0097572441551241444 -0.0048402078059685029
leaf_weight=27 78 261 418 126 111 96 27 515 360 85 39 96 136 449 285 52 108 125 519 20 118 23 284 126 135 217 60 21 333 117
leaf_count=27 78 261 418 126 111 96 27 515 360 85 39 96 136 449 285 52 108 125 519 20 118 23 284 126 135 217 60 21 333 117
internal_value=0.000105717 -0.0027577 0.003627 0.00587492 0.0012543 -0.00610408 -0.000331775 -0.00714439 0.00752782 0.00249583 -0.000133279 -0.000679686 -0.00283057 0.000698578 0.00428675 0.00604418 -0.00328155 -0.00223357 -0.000282537 -0.00356182 -1.1641e-05 0.000235145 -0.00041102 -0.00292976 0.00471863 -0.00297317 0.00196661 -0.00185131 -0.00903506 -0.00299567
internal_weight=5367 2960 2407 1236 1171 1244 1716 944 830 406 186 715 300 1113 456 470 186 603 664 273 637 529 433 149 220 478 171 147 429 253
internal_count=5367 2960 2407 1236 1171 1244 1716 944 830 406 186 715 300 1113 456 470 186 603 664 273 637 529 433 149 220 478 171 147 429 253
is_linear=0
shrinkage=0.05


Tree=8
num_leaves=31
num_cat=0
split_feature=38 209 47 209 87 168 209 69 209 198 110 209 57 27 78 211 103 72 209 63 108 199 163 156 9 155 92 186 187 209
split_gain=19.5355 8.68218 4.63948 2.62942 1.82557 1.54147 1.52457 1.33885 1.32718 1.10983 0.799072 0.775021 0.689959 0.660194 0.611102 0.602506 0.451724 0.425651 0.415706 0.411121 0.405511 0.38291 0.381692 0.377492 0.373137 0.420696 0.370984 0.352858 0.346955 0.341441
threshold=0.45474490554811842 0.38026178789231002 0.61962665476721712 0.56113342257920573 14.500000000000002 7.5000000000000009 0.40153205414249599 15.500000000000002 0.22735385988398035 0.24871657344264808 0.28320690168079732 0.55049828945411283 0.052044609665427503 0.27429890429852116 14.500000000000002 0.28624346310284721 0.12427367809413133 0.2151559267489081 0.43347463929793251 0.28708528082139301 0.2151559267489081 0.99430888980902543 0.99388738125523168 0.1009293680297398 0.27429890429852116 0.67283950617283961 0.38026178789231002 16.500000000000004 3.5000000000000004 0.66752193961029305
decision_type=2 2 2 2 2 2 2 2 2 2 2 2 2 2 2 2 2 2 2 2 2 2 2 2 2 2 2 2 2 2
left_child=1 5 3 4 6 10 -2 -4 27 -6 15 13 23 -3 17 16 -1 -5 -11 -8 -12 -22 -15 -13 25 -10 -14 -7 -24 -9
right_child=2 11 7 14 9 8 19 29 24 18 20 12 26 22 -16 -17 -18 -19 -20 -21 21 -23 28 -25 -26 -27 -28 -29 -30 -31
leaf_value=-0.0062528260706853763 -0.0055567016428833983 -0.0019835494089690407 0.0034935880671596018 0.0015973367681370442 0.0048950678123005414 -0.010360934006200098 -0.0013116243081841325 0.0077803143787742507 -0.0069551151157648513 -0.00076161295225759922 0.0032220858782387287 0.00073013359242828481 0.0015604161566496234 0.00096858596720936273 0.0072420217615500508 -0.0098969225786859176 -0.00083640051782008645 0.0050193382904007884 0.0027524651678439635 0.0020625543017579961 -0.0028516325811506252 0.0040767496360627859 -0.0069345384453152947 -0.0045619157973029048 -0.0036167714336722261 -0.0023879632564081303 0.0052753277736598669 -0.0073904776439179688 0.00043191736719260616 0.011621347034989453
leaf_weight=78 161 519 205 147 272 174 190 424 270 211 49 126 138 492 180 50 76 238 140 172 150 23 31 46 277 62 131 235 33 67
leaf_count=78 161 519 205 147 272 174 190 424 270 211 49 126 138 492 180 50 76 238 140 172 150 23 31 46 277 62 131 235 33 67
internal_value=0.000100431 -0.00261982 0.00344565 0.00204559 0.000669306 -0.00539444 -0.00150875 0.00688746 -0.00645122 0.00249776 -0.00286909 2.30335e-05 0.0017881 -0.000701056 0.00483712 -0.0051281 -0.00357978 0.00371276 0.000640014 0.000291577 -0.000793232 -0.00193052 0.000496092 -0.000685182 -0.00497172 -0.00610221 0.00336954 -0.00865419 -0.00313621 0.00830445
internal_weight=5367 2960 2407 1711 1146 1444 523 696 1018 623 426 1516 441 1075 565 204 154 385 351 362 222 173 556 172 609 332 269 409 64 491
internal_count=5367 2960 2407 1711 1146 1444 523 696 1018 623 426 1516 441 1075 565 204 154 385 351 362 222 173 556 172 609 332 269 409 64 491
is_linear=0
shrinkage=0.05


Tree=9
num_leaves=31
num_cat=0
split_feature=47 209 28 209 96 150 209 209 37 209 209 6 27 96 33 209 211 56 147 172 209 207 81 207 96 19 119 129 28 209
split_gain=16.9192 8.67092 4.45613 2.63062 1.90404 1.37097 1.30092 1.16747 1.05771 0.975418 0.638994 0.611931 0.604097 0.586917 0.568965 0.482144 0.437368 0.417114 0.405724 0.405194 0.391265 0.38072 0.36939 0.369337 0.348634 0.335857 0.321248 0.318445 0.308152 0.302784
threshold=0.45474490554811842 0.37494422132976352 0.99295847371206558 0.57708612226684519 16.500000000000004 5.5000000000000009 0.20340621746244236 0.40684962070504244 0.99310791314044244 0.55049828945411283 0.41752193961029305 16.500000000000004 0.27429890429852116 15.500000000000002 19.500000000000004 0.56113342257920573 0.090862870424172001 0.39621448757994948 0.050371747211895905 0.99390426145644384 0.2167187267588874 0.24871657344264808 0.21196651597578728 0.47251168492835799 17.500000000000004 0.99300563898015792 0.57708612226684519 0.10315985130111524 0.99312479334165438 0.6515692399226537
decision_type=2 2 2 2 2 2 2 2 2 2 2 2 2 2 2 2 2 2 2 2 2 2 2 2 2 2 2 2 2 2
left_child=1 5 15 4 7 23 -7 13 16 12 -10 -11 -3 20 29 24 21 -13 -18 -14 -4 -6 -16 -1 -2 -8 -15 -21 -22 -5
right_child=2 9 3 14 8 6 25 -9 10 11 -12 17 19 26 22 -17 18 -19 -20 27 28 -23 -24 -25 -26 -27 -28 -29 -30 -31
leaf_value=-0.00084515064132393593 0.0018380992704621622 -0.0019873780880187387 -0.010676557946950199 0.0050415174437334724 0.0047511242101084782 -0.0085174482875930973 -0.0096866123903808846 0.0007037088699293364 -0.00182153862948273 0.0043136325521968425 0.0032616930447277683 -0.00040009229740971936 0.00077360683284869141 -0.0033173864615021337 0.00017807149116905703 0.0097980639613052083 0.010870667265566148 0.0036907279006968513 0.0047343001656162632 0.0010351052053184026 -0.0064366799455860425 0.0006790129003980209 0.0048025460429489616 -0.0056998618086799985 0.0069869725737262958 -0.0046680624178210093 0.0037111073071640489 -0.0068411066960613947 -0.0020997479864653494 0.0080091903379463873
leaf_weight=181 37 542 25 205 197 377 35 495 138 169 112 250 517 29 76 154 46 83 65 21 72 81 100 50 295 702 37 33 95 148
leaf_count=181 37 542 25 205 197 377 35 495 138 169 112 250 517 29 76 154 46 83 65 21 72 81 100 50 295 702 37 33 95 148
internal_value=9.54093e-05 -0.00243614 0.00320857 0.00212648 0.000985848 -0.00540153 -0.00612845 -0.000717647 0.00299325 3.34909e-05 0.000455749 0.00186317 -0.000791755 -0.00344467 0.0051279 0.00748574 0.00462404 0.000619542 0.0072773 0.000343144 -0.00484287 0.00356465 0.00280561 -0.00189595 0.00641315 -0.00490639 0.00062283 -0.00377814 -0.00396956 0.00628575
internal_weight=5367 2960 2407 1921 1392 1345 1114 753 639 1615 250 502 1113 258 529 486 389 333 111 571 192 278 176 231 332 737 66 54 167 353
internal_count=5367 2960 2407 1921 1392 1345 1114 753 639 1615 250 502 1113 258 529 486 389 333 111 571 192 278 176 231 332 737 66 54 167 353
is_linear=0
shrinkage=0.05


Tree=10
num_leaves=31
num_cat=0
split_feature=38 209 38 208 159 78 209 69 209 207 209 101 110 192 207 136 173 78 0 182 207 208 212 180 81 209 215 162 209 209
split_gain=16.4984 7.37887 3.98078 1.69597 1.4189 1.08076 1.17083 0.914869 0.877514 0.808195 0.749955 0.694389 0.65446 0.581034 0.556017 0.486652 0.420398 0.465529 0.392292 0.382599 0.382337 0.366418 0.360846 0.489135 0.360376 0.338041 0.318626 0.310667 0.306973 0.306443
threshold=0.46006247211066492 0.35899152164212411 0.61962665476721712 0.99366644920995706 5.5000000000000009 15.500000000000002 0.56645098914175229 15.500000000000002 0.45474490554811842 0.47251168492835799 0.25390450691655514 0.38557935445485653 0.25658188308790725 0.04814126394052045 0.23593977472990577 0.992995212973527 0.17150081808716347 12.500000000000002 0.28708528082139301 0.48133273836085083 0.51087081449697347 0.99323898293808854 0.29068339926340203 0.42774500038311242 0.2151559267489081 0.428157072735386 8.5000000000000018 0.71228258371006048 0.56645098914175229 0.72869254796965643
decision_type=2 2 2 2 2 2 2 2 2 2 2 2 2 2 2 2 2 2 2 2 2 2 2 2 2 2 2 2 2 2
left_child=1 4 3 5 12 6 15 -4 19 18 22 16 20 -13 -7 21 -10 -18 -5 -3 -1 -2 23 -6 -8 -16 -17 -24 -15 -9
right_child=2 8 7 9 10 14 24 29 11 -11 -12 13 -14 28 25 26 17 -19 -20 -21 -22 -23 27 -25 -26 -27 -28 -29 -30 -31
leaf_value=-0.0032131039720931739 -0.00074834646708849407 -0.00093184107536285201 0.0029557500634935525 -0.0038282150159896604 -0.0072694703397277243 0.0058906581839607954 0.0015183595438321023 0.0069851372309656795 -0.0077194318035617472 -0.011072220001369716 -0.0045689062660484725 -0.001004754148861168 -0.00022317596903431567 0.0020181488297547202 0.00016292087234183125 0.0016613021819790923 -0.00085065781524676614 0.0041501787007571416 0.00089233710066238077 -0.0036250818831114365 -0.0092302601784467701 -0.0074650772746551689 -0.011336829694919288 -0.0025726033567480045 0.0048339717121164746 0.0038721371490605182 -0.0011981946913203082 -0.0043696393840946257 0.0050802298504377501 0.010868557823593156
leaf_weight=99 45 535 148 82 414 256 134 467 20 24 501 124 182 278 91 230 443 52 95 175 36 37 80 64 211 189 169 20 116 57
leaf_count=99 45 535 148 82 414 256 134 467 20 24 501 124 182 278 91 230 443 52 95 175 36 37 80 64 211 189 169 20 116 57
internal_value=-7.42827e-05 -0.00241196 0.00320893 0.0018253 -0.00512075 0.00245802 0.00132343 0.00642711 -0.000242446 -0.00246206 -0.00598477 0.000687649 -0.00217983 0.00198024 0.00420647 -0.00027085 -0.000612467 -0.000325317 -0.00129459 -0.00159567 -0.00481768 -0.00377907 -0.00721202 -0.0066406 0.00354617 0.00266664 0.000450137 -0.00994339 0.00291968 0.00740757
internal_weight=5374 3139 2235 1563 1396 1362 826 672 1743 201 1079 1033 317 518 536 481 515 495 177 710 135 82 578 478 345 280 399 100 394 524
internal_count=5374 3139 2235 1563 1396 1362 826 672 1743 201 1079 1033 317 518 536 481 515 495 177 710 135 82 578 478 345 280 399 100 394 524
is_linear=0
shrinkage=0.05


Tree=11
num_leaves=31
num_cat=0
split_feature=38 209 78 28 209 209 168 55 38 173 209 54 198 208 114 38 21 90 209 192 207 128 212 5 129 212 209 209 119 81
split_gain=14.8902 6.90169 3.47599 1.76075 1.42089 1.32125 1.08489 0.839347 0.822911 0.720708 0.714904 0.693839 0.6117 0.541264 0.511214 0.475036 0.465287 0.433993 0.38947 0.386033 0.336316 0.333584 0.315005 0.304847 0.301414 0.298387 0.293052 0.289876 0.274688 0.258429
threshold=0.46538003867321137 0.39621448757994948 16.500000000000004 0.99309897656333013 0.56645098914175229 0.27785214933809316 6.5000000000000009 0.99295450190001577 0.34303882195448465 0.13491001041201844 0.41216718726758889 0.26791050494215002 0.44054095471611371 0.99303741347655705 18.500000000000004 0.69674996281421986 0.052602230483271374 0.21196651597578728 0.47601517179830438 0.039776951672862458 0.23593977472990577 0.13758738658337052 0.073728004365025246 0.03812576728959214 0.049256505576208177 0.051630064111308147 0.50792057117358336 0.71802022906440588 0.19277108433734938 0.2998812351543943
decision_type=2 2 2 2 2 2 2 2 2 2 2 2 2 2 2 2 2 2 2 2 2 2 2 2 2 2 2 2 2 2
left_child=1 5 4 15 7 6 8 -2 28 -3 16 13 26 -11 -7 20 -9 27 -13 -18 22 -20 -4 -8 -10 -21 -5 -6 -1 -12
right_child=2 9 3 12 17 14 23 10 24 11 29 18 -14 -15 -16 -17 19 -19 21 25 -22 -23 -24 -25 -26 -27 -28 -29 -30 -31
leaf_value=-0.0076847302373734454 0.0030562486496455675 -0.0083472003680071793 0.0056754011167008643 0.00096926356405270379 -0.00010383283325399345 -0.0034897087882230279 -0.0042607543686110725 -0.0083500388764629254 0.0051023299088807442 0.00087144961477306909 -0.00084149720396732054 0.00028770963876293261 -0.0064856616203628845 -0.0017878404937918093 -0.00010410347295779068 0.008336483905112128 0.0035065257800742985 0.0047116722202083438 -0.0034461614875389 0.00042384061706820278 0.0038584607050870545 0.0030462042219802799 0.0091455285800187743 -0.0073356279951898393 -0.0013136467381611194 -0.0045862929446027724 0.0045031027429480799 0.0046276695020695006 -0.003459931431731093 0.0019211752180761312
leaf_weight=79 160 24 273 144 104 664 95 38 22 338 196 325 21 441 134 230 25 272 21 41 180 342 86 532 109 108 99 47 75 149
leaf_count=79 160 24 273 144 104 664 95 38 22 338 196 325 21 441 134 230 25 272 21 41 180 342 86 532 109 108 99 47 75 149
internal_value=-7.05686e-05 -0.00223907 0.0031238 0.00522459 0.00122019 -0.004407 -0.00570707 -0.000135647 -0.00314921 0.000247295 -0.00105253 0.000387901 0.00170145 -0.000634002 -0.0029212 0.00643409 -0.00333764 0.00351838 0.00154497 -0.00224298 0.00562231 0.00267061 0.00650669 -0.00686974 -0.000236154 -0.00320767 0.00240898 0.00136889 -0.0056272 0.000351657
internal_weight=5374 3201 2173 1033 1140 1710 912 717 285 1491 557 1467 264 779 798 769 212 423 688 174 539 363 359 627 131 149 243 151 154 345
internal_count=5374 3201 2173 1033 1140 1710 912 717 285 1491 557 1467 264 779 798 769 212 423 688 174 539 363 359 627 131 149 243 151 154 345
is_linear=0
shrinkage=0.05


Tree=12
num_leaves=31
num_cat=0
split_feature=47 209 78 209 37 64 209 209 209 141 152 212 191 209 172 60 48 19 198 192 33 127 207 163 212 209 142 198 210 174
split_gain=13.2573 5.46539 4.1908 2.24029 1.93554 1.05046 0.911132 0.774375 0.751834 0.709173 0.593302 0.481492 0.478898 0.457525 0.438046 0.442487 0.38913 0.361875 0.350929 0.347064 0.346271 0.313368 0.313 0.310329 0.304718 0.287005 0.272834 0.458357 0.299433 0.254009
threshold=0.41752193961029305 0.32307005800981708 16.500000000000004 0.52391045664138047 0.99310394132839253 0.99294953713495337 0.428157072735386 0.44942733898557191 0.42283950617283955 3.5000000000000004 9.5000000000000018 0.057768380848451782 0.55581585601665928 0.17678119886955232 0.99413810189088048 7.5000000000000009 0.055762081784386616 0.99306720206693111 0.44693893188261435 0.035873605947955391 8.5000000000000018 0.9932687715284626 0.49168646080760087 0.99323451464953239 0.059950893466102849 0.55049828945411283 1.5000000000000002 0.2998812351543943 0.07342007434944238 0.048698884758364314
decision_type=2 2 2 2 2 2 2 2 2 2 2 2 2 2 2 2 2 2 2 2 2 2 2 2 2 2 2 2 2 2
left_child=1 9 3 5 10 20 18 -3 17 22 11 25 -10 -11 15 -9 -5 -7 21 -19 -2 -6 23 -1 -21 -4 28 -28 -13 -17
right_child=2 7 4 16 6 8 -8 14 12 13 -12 26 -14 -15 -16 29 -18 19 -20 24 -22 -23 -24 -25 -26 -27 27 -29 -30 -31
leaf_value=-0.0052530681333827003 -0.0023355692474537398 -0.0020455229550880179 0.003878109654974453 0.001122773556108837 -0.0027501082593293039 -0.0056833515966948321 0.0036816219211323188 -0.00064931438125983394 0.0009482880599192971 -0.0075132653561357579 0.0014054608756365876 0.00097030739579349759 -0.0048977919425669831 -0.0051444218197658877 -0.0064911899544919539 -0.0020568842783437245 0.0038389767502056238 0.0024448133694628879 -0.0075379162223543975 -0.00043048535622397646 0.0030698913324026696 0.0023530502238177826 -0.0064395530972008912 0.0011440065581284995 -0.003770786925967762 0.0069402541918369039 0.0094257491309293374 0.0021628688836547857 0.0071271736751944625 0.0020607512386281389
leaf_weight=26 35 700 184 186 65 95 235 486 282 317 60 25 40 571 24 42 453 36 20 99 193 56 30 70 220 131 229 24 94 346
leaf_count=26 35 700 184 186 65 95 235 486 282 317 60 25 40 571 24 42 453 36 20 99 193 56 30 70 220 131 229 24 94 346
internal_value=-6.70401e-05 -0.00262077 0.002348 0.000735842 0.00470091 -0.000741847 0.0017751 -0.000798868 -0.00162253 -0.00549197 0.00617362 0.00659005 0.000222067 -0.00599006 0.000172913 0.000355908 0.00304834 -0.00294244 -0.00140244 -0.00220895 0.00224011 -0.000388316 -0.00198163 -0.000588535 -0.00273414 0.00515157 0.00780811 0.00873678 0.00583371 0.00161503
internal_weight=5374 2612 2762 1639 1123 1000 376 1598 772 1014 747 687 322 888 898 874 639 450 141 355 228 121 126 96 319 315 372 253 119 388
internal_count=5374 2612 2762 1639 1123 1000 376 1598 772 1014 747 687 322 888 898 874 639 450 141 355 228 121 126 96 319 315 372 253 119 388
is_linear=0
shrinkage=0.05


Tree=13
num_leaves=31
num_cat=0
split_feature=47 209 78 209 37 65 209 209 209 150 143 194 8 172 184 46 212 72 119 173 209 57 54 198 209 207 190 180 127 209
split_gain=11.9648 4.93252 3.7822 2.02703 1.74682 0.833234 0.907897 0.822297 0.699566 0.646172 0.535455 0.437197 0.398425 0.48855 0.38949 0.385624 0.378512 0.382544 0.360728 0.339793 0.336542 0.326955 0.326559 0.316714 0.294751 0.294019 0.291781 0.284687 0.282814 0.264103
threshold=0.41752193961029305 0.32307005800981708 16.500000000000004 0.56645098914175229 0.99310394132839253 0.62494422132976368 0.42283950617283955 0.428157072735386 0.43879220586047901 4.5000000000000009 9.5000000000000018 0.071818305824580556 5.5000000000000009 0.99413810189088048 0.06050261475886113 0.99295251599399081 0.29068339926340203 0.37659949429162515 0.45474490554811842 0.63029897367246768 0.09500966830284098 0.069144981412639417 0.30626963451076544 0.44693893188261435 0.3337051911349101 0.51087081449697347 0.99387050105401975 0.71228258371006048 0.9932687715284626 0.71802022906440588
decision_type=2 2 2 2 2 2 2 2 2 2 2 2 2 2 2 2 2 2 2 2 2 2 2 2 2 2 2 2 2 2
left_child=1 9 3 5 10 6 15 23 -3 25 11 -4 14 19 -10 -2 17 20 29 -14 -11 -7 -8 28 -17 -1 -22 -18 -6 -5
right_child=2 8 4 18 7 21 22 -9 12 16 -12 -13 13 -15 -16 24 27 -19 -20 -21 26 -23 -24 -25 -26 -27 -28 -29 -30 -31
leaf_value=-0.0012087459073953817 0.0024971801254926535 -0.0020355320960113925 0.0051100316572623948 0.00058122147496611086 -0.0026126028837797303 0.0044030283610144464 -0.00062130334095420391 0.0034975408508437392 0.00037955254327058912 -0.0098520910644784888 0.0013351877906825395 0.007643374597757476 0.00045061847604668337 -0.0077531830365346237 0.0050460170176948958 -0.0044316384174665352 -0.0094434828887057336 -0.0024094329093920174 0.0044499339679596661 -0.0019672604617421668 -0.006092490509068846 0.00061492045483580609 0.0021802334367342102 -0.0071610203703312437 -0.0018103812376163359 -0.0065061014321999566 -0.0035084384494633736 -0.0030451948843186814 0.0022353977043946672 0.004521599710278679
leaf_weight=127 33 642 375 146 65 97 268 235 118 47 60 312 546 22 72 213 101 97 298 198 443 138 170 20 216 33 145 21 56 60
leaf_count=127 33 642 375 146 65 97 268 235 118 47 60 312 546 22 72 213 101 97 298 198 443 138 170 20 216 33 145 21 56 60
internal_value=-6.36881e-05 -0.00248973 0.0022306 0.00069905 0.00446587 -0.000472679 -0.00116494 0.00168634 -0.000758924 -0.00521737 0.00586493 0.00626055 9.83792e-05 -0.000409987 0.0021479 -0.0027112 -0.0057637 -0.00533396 0.00333777 -0.000192849 -0.0057807 0.00217852 0.000466051 -0.00133232 -0.00311184 -0.00230133 -0.00545527 -0.00834214 -0.0003689 0.0017289
internal_weight=5374 2612 2762 1639 1123 1135 900 376 1598 1014 747 687 956 766 190 462 854 732 504 744 635 235 438 141 429 160 588 122 121 206
internal_count=5374 2612 2762 1639 1123 1135 900 376 1598 1014 747 687 956 766 190 462 854 732 504 744 635 235 438 141 429 160 588 122 121 206
is_linear=0
shrinkage=0.05


Tree=14
num_leaves=31
num_cat=0
split_feature=38 209 69 28 209 209 19 164 209 47 150 81 207 82 57 212 209 209 118 172 92 189 31 209 149 60 163 209 212 90
split_gain=11.0485 4.36259 3.59787 1.75009 1.742 0.760947 0.618663 0.597354 0.580695 0.524581 0.520172 0.47198 0.450841 0.397446 0.396493 0.375287 0.364452 0.357118 0.342116 0.331908 0.312384 0.301579 0.319985 0.297883 0.29653 0.281327 0.274635 0.267653 0.266208 0.264787
threshold=0.42283950617283955 0.32307005800981708 14.500000000000002 0.99309301884525536 0.52922802320392692 0.47601517179830438 0.99310592723441748 0.091030789825970557 0.44942733898557191 0.6515692399226537 4.5000000000000009 0.21196651597578728 0.48529806145122978 0.99297535391327763 0.07676579925650559 0.29068339926340203 0.2167187267588874 0.40153205414249599 0.99328118344111849 0.99302748394643225 0.29912241558827907 0.42774500038311242 0.040310865775711795 0.09500966830284098 0.023666621197653798 11.500000000000002 0.9935472948484606 0.70738509593931298 0.027895239394352751 0.25511455060914873
decision_type=2 2 2 2 2 2 2 2 2 2 2 2 2 2 2 2 2 2 2 2 2 2 2 2 2 2 2 2 2 2
left_child=1 10 4 9 6 12 17 -3 29 24 20 27 18 -8 -10 21 -15 25 -5 -18 -1 22 28 -24 -4 -2 -13 -6 -12 -9
right_child=2 7 3 5 11 -7 13 8 14 -11 15 26 -14 16 -16 -17 19 -19 -20 -21 -22 -23 23 -25 -26 -27 -28 -29 -30 -31
leaf_value=-0.0039998383721050494 -0.0060442656300834976 -0.007572952811155588 4.0742623894356002e-05 -0.0015843158721690999 -0.0010663019801365424 0.0036437533561199179 0.0024290588249864971 -0.0028429800071468896 -0.00069482154242342365 0.0066815392251213471 -0.0072827593813980787 0.0038446349267176314 -0.0074467297916999096 -0.0070470731446023466 0.0014511407382539147 -0.0079117771507479437 -0.0062110605601143716 -0.0014224461621396539 0.0020978252628828659 -0.00011122549843714787 0.00033846825283931212 -0.0020499404098855605 -0.0099171535816134481 -0.0054829691418347521 0.0045677700145738175 -0.00016834391839802267 -0.0018002774566411974 0.0034877283410686584 -0.0020572181934543905 -0.00085773046085131383
leaf_weight=109 110 31 39 120 114 239 114 274 462 372 31 341 20 23 403 121 24 152 133 315 67 82 41 497 499 25 23 45 114 434
leaf_count=109 110 31 39 120 114 239 114 274 462 372 31 341 20 23 403 121 24 152 133 315 67 82 41 497 499 25 23 45 114 434
internal_value=-6.05037e-05 -0.0023454 0.00218896 0.00392212 0.000272506 0.00158362 -0.00125106 -0.00069962 -0.000564164 0.00523784 -0.00483112 0.00249523 -0.000219933 -0.000145528 0.000304974 -0.00532432 -0.00095631 -0.00308463 0.000351355 -0.000543072 -0.00234832 -0.00491506 -0.00525904 -0.00582089 0.0042396 -0.00495613 0.00348795 0.000222575 -0.0031744 -0.00162603
internal_weight=5374 2666 2708 1422 1286 512 763 1604 1573 910 1062 523 273 476 865 886 362 287 253 339 176 765 683 538 538 135 364 159 145 708
internal_count=5374 2666 2708 1422 1286 512 763 1604 1573 910 1062 523 273 476 865 886 362 287 253 339 176 765 683 538 538 135 364 159 145 708
is_linear=0
shrinkage=0.05


Tree=15
num_leaves=31
num_cat=0
split_feature=38 209 78 143 168 209 209 110 8 209 96 101 9 212 0 13 128 200 48 181 83 6 57 209 209 43 128 209 38 211
split_gain=10.1734 5.76792 2.03213 1.05696 1.00904 0.76729 0.736859 0.812704 0.729677 0.701535 0.593622 0.501521 0.492948 0.415851 0.367336 0.354595 0.353526 0.359227 0.351384 0.319714 0.313095 0.29474 0.291223 0.300202 0.285088 0.284741 0.273169 0.272652 0.272176 0.264168
threshold=0.49196787148594379 0.38026178789231002 15.500000000000002 9.5000000000000018 7.5000000000000009 0.57708612226684519 0.52922802320392692 0.38557935445485653 3.5000000000000004 0.29384203480589027 15.500000000000002 0.54518072289156627 0.20236955022603634 0.072636748056199713 0.30626963451076544 0.034936083672283562 0.75 0.39089692101740298 0.11765799256505577 0.9939127015570498 0.43879220586047901 7.5000000000000009 0.044237918215613382 0.6622043730477466 0.64625167336010714 2.5000000000000004 0.21136397441618324 0.22735385988398035 0.22999405027517478 0.040310865775711795
decision_type=2 2 2 2 2 2 2 2 2 2 2 2 2 2 2 2 2 2 2 2 2 2 2 2 2 2 2 2 2 2
left_child=1 4 5 8 12 20 10 -8 11 15 14 -4 -1 18 19 29 17 -11 24 -3 25 27 -9 -24 -10 -2 -7 -14 -23 -6
right_child=2 6 3 -5 9 26 7 22 13 16 -12 -13 21 -15 -16 -17 -18 -19 -20 -21 -22 28 23 -25 -26 -27 -28 -29 -30 -31
leaf_value=0.0022942922555375844 -0.0052308641264543817 -0.001575160547655406 -0.0014636195456499564 0.0001297208476164367 -0.0059385578958123615 -0.0014430056851837906 -6.0018128413284618e-05 5.7689775504903603e-05 0.0043279796751689416 -0.0026005249275889092 0.0016499155858327294 0.0044656000520044477 -0.0071511481177400464 0.0068375846129002148 0.00031929220250204757 -0.0061290628968879747 0.0034628291055560111 -0.0063677604266006178 -0.00088810426033368063 -0.0073530139941722153 0.00050804366956448243 -0.0048691244024128 0.0033673970337775787 0.008203223231091239 0.0078129658533725894 -4.4275822583585982e-05 0.0035001118214879664 -0.0027101339751063416 -0.00096020678685144816 -0.0010938858524348369
leaf_weight=60 51 566 68 130 48 31 366 56 363 318 253 75 55 344 304 575 20 79 28 25 411 54 242 37 70 55 284 93 254 68
leaf_count=60 51 566 68 130 48 31 366 56 363 318 253 75 55 344 304 575 20 79 28 25 411 54 242 37 70 55 284 93 254 68
internal_value=-6.26659e-06 -0.00161823 0.00292481 0.00435759 -0.00379245 0.00106838 0.000291412 0.00156875 0.00493736 -0.00464297 -0.000488565 0.00164611 -0.00196613 0.00552202 -0.00109307 -0.00562033 -0.00302341 -0.00335018 0.00454034 -0.00181957 -0.000116834 -0.00252671 0.00334824 0.00400871 0.00489137 -0.00253971 0.00301365 -0.00436051 -0.00164554 -0.00309858
internal_weight=5383 3473 1910 1078 1624 832 1849 701 948 1108 1148 143 516 805 895 691 417 397 461 591 517 456 335 279 433 106 315 148 308 116
internal_count=5383 3473 1910 1078 1624 832 1849 701 948 1108 1148 143 516 805 895 691 417 397 461 591 517 456 335 279 433 106 315 148 308 116
is_linear=0
shrinkage=0.05


Tree=16
num_leaves=31
num_cat=0
split_feature=38 209 69 28 168 209 47 8 208 46 9 207 74 178 175 48 21 155 4 48 207 209 27 201 5 200 94 210 209 39
split_gain=9.18149 5.22011 1.84323 1.01432 0.894435 0.849263 0.704212 0.532366 0.456829 0.443644 0.405161 0.403634 0.391071 0.340939 0.406799 0.338878 0.32792 0.324638 0.322504 0.315516 0.312277 0.310136 0.305713 0.287801 0.278285 0.26492 0.248412 0.288129 0.262687 0.329353
threshold=0.49196787148594379 0.39621448757994948 14.500000000000002 0.9931098990464674 7.5000000000000009 0.29384203480589027 0.41216718726758889 9.5000000000000018 0.99319628595855225 0.99310791314044244 0.25511455060914873 0.43414297754961306 0.6515692399226537 1.5000000000000002 0.070525857059848943 0.078996282527881045 0.065241635687732349 0.14688383162278748 0.036243463102847186 0.11765799256505577 0.2998812351543943 0.64093410679756058 0.3126580338671367 0.082156133828996294 0.052039285227117725 0.38557935445485653 0.4642649622312609 0.18810408921933089 0.17414100847835789 0.16802973977695171
decision_type=2 2 2 2 2 2 2 2 2 2 2 2 2 2 2 2 2 2 2 2 2 2 2 2 2 2 2 2 2 2
left_child=1 4 8 7 9 18 15 13 16 -1 12 -5 -10 23 19 -3 -2 -17 -6 -15 -16 22 -8 -4 -9 -7 27 28 29 -11
right_child=2 6 3 11 5 25 21 24 10 26 -12 -13 -14 14 20 17 -18 -19 -20 -21 -22 -23 -24 -25 -26 -27 -28 -29 -30 -31
leaf_value=0.00075381132115389369 -5.4245561346432716e-05 -0.0010332778010855024 0.0016701512082756777 0.0019415601457229868 -0.0030629739145368821 -0.0018903355897056261 0.00041379335176415424 -0.0031825824194432551 -0.0048245836250466311 -0.0068992061639779854 0.00058027002866284047 -0.0054199388266351891 0.0028521180175413892 0.0050886357564443397 0.0080577454914040319 -0.0040681182985391586 0.0029981264592040067 0.0010685561733597196 -0.0058518903727875615 -0.0010834725668907844 0.0026801095449275549 0.005053006337188623 0.0029203654326290865 0.0052788807930086151 0.0040408833029990402 -0.0042506105040184452 -0.0078577353131203433 0.0013560823819716461 -0.0019314729167621383 -0.00060995271196588878
leaf_weight=133 133 637 111 270 127 354 293 30 79 68 238 20 21 352 209 33 260 453 564 22 31 68 208 110 24 179 21 48 257 30
leaf_count=133 133 637 111 270 127 354 293 30 79 68 238 20 21 352 209 33 260 453 564 22 31 68 208 110 24 179 21 48 257 30
internal_value=-5.95325e-06 -0.00153732 0.00277857 0.00400162 -0.00342673 -0.0041826 0.000451473 0.00483924 0.000805957 -0.0017657 -0.000541844 0.00143387 -0.00321248 0.00515039 0.00575654 -0.000274613 0.00196514 0.00071977 -0.00533931 0.00472557 0.00736313 0.0018845 0.00145445 0.00346635 2.78468e-05 -0.002683 -0.00255602 -0.00227975 -0.00277136 -0.00497392
internal_weight=5383 3473 1910 1179 1781 1224 1692 889 731 557 338 290 100 835 614 1123 393 486 691 374 240 569 501 221 54 533 424 403 355 98
internal_count=5383 3473 1910 1179 1781 1224 1692 889 731 557 338 290 100 835 614 1123 393 486 691 374 240 569 501 221 54 533 424 403 355 98
is_linear=0
shrinkage=0.05


Tree=17
num_leaves=31
num_cat=0
split_feature=38 209 69 143 168 47 8 209 92 209 209 9 110 99 212 92 128 5 200 13 164 69 151 201 164 207 92 211 47 200
split_gain=8.2863 4.7265 1.66351 0.918907 0.825453 0.63905 0.625162 0.561584 0.444033 0.437383 0.42975 0.425689 0.411152 0.380966 0.370887 0.32603 0.319735 0.31451 0.30428 0.292481 0.283153 0.355384 0.27244 0.315353 0.270309 0.277937 0.266106 0.259903 0.259135 0.364387
threshold=0.49196787148594379 0.38026178789231002 14.500000000000002 9.5000000000000018 7.5000000000000009 0.36962665476721707 3.5000000000000004 0.29384203480589027 0.54518072289156627 0.58772125539193831 0.56113342257920573 0.20236955022603634 0.39621448757994948 0.28708528082139301 0.073728004365025246 0.41752193961029305 0.75 0.13811212658573183 0.39089692101740298 0.034936083672283562 0.091030789825970557 14.500000000000002 1.5000000000000002 0.06579925650557622 0.53454558976647337 0.2151559267489081 0.50260300461103691 0.11671993027309703 0.20340621746244236 0.24594674996281421
decision_type=2 2 2 2 2 2 2 2 2 2 2 2 2 2 2 2 2 2 2 2 2 2 2 2 2 2 2 2 2 2
left_child=1 4 9 6 11 20 8 19 27 15 24 -1 -12 -11 17 -2 18 -8 -9 -6 -3 -22 23 -16 -7 -26 -5 -4 29 -13
right_child=2 5 3 26 7 10 14 16 -10 13 12 28 -14 -15 22 -17 -18 -19 -20 -21 21 -23 -24 -25 25 -27 -28 -29 -30 -31
leaf_value=0.0021823309197983084 -0.0027643247072554229 -0.0065370733023155485 0.00065603228017257955 0.0022017652904781112 -0.0027820853244175572 0.0010490211088769799 0.0042397909060314844 -0.0023696729816432677 0.0039592942185082795 0.0010623722109937249 0.00028905527060851458 -0.0077342876779806355 0.0042997963054666015 0.0053380729630589487 -0.0013109452640334062 0.00054179279669341234 0.0034196085669100287 -0.0020060967365723281 -0.0058368419512923623 -0.0055343804823022097 -0.00094412244355003615 0.0017854389023689674 0.0069115475801224931 0.0054141799143205089 -0.0042071721180797217 0.00031397233712565403 -0.0021426267977672775 -0.0056343282184874027 -0.001777349140111469 -0.00041696250285625593
leaf_weight=60 91 20 52 70 116 494 501 318 83 146 100 46 177 81 23 413 20 21 79 575 773 141 262 72 55 89 71 24 383 27
leaf_count=60 91 20 52 70 116 494 501 318 83 146 100 46 177 81 23 413 20 21 79 575 773 141 262 72 55 89 71 24 383 27
internal_value=-5.65559e-06 -0.00146045 0.00263964 0.00380154 -0.00342862 0.000268217 0.004316 -0.00419789 0.00143089 0.00076566 0.00120736 -0.00177678 0.00285188 0.00258806 0.00483789 -5.51451e-05 -0.00274886 0.00398852 -0.00305961 -0.00507235 -0.000651821 -0.000523041 0.00607982 0.00378599 0.000493363 -0.00141285 1.41636e-05 -0.0013304 -0.00229772 -0.00502788
internal_weight=5383 3473 1910 1179 1624 1849 1038 1108 159 731 915 516 277 227 879 504 417 522 397 691 934 914 357 95 638 144 141 76 456 73
internal_count=5383 3473 1910 1179 1624 1849 1038 1108 159 731 915 516 277 227 879 504 417 522 397 691 934 914 357 95 638 144 141 76 456 73
is_linear=0
shrinkage=0.05


Tree=18
num_leaves=31
num_cat=0
split_feature=47 209 38 209 96 209 114 207 69 87 209 212 81 93 200 191 119 209 75 96 208 171 38 11 157 190 209 208 174 34
split_gain=7.49665 3.78996 1.91138 0.998849 0.872499 0.77233 0.559844 0.537482 0.421615 0.393012 0.366312 0.345757 0.522268 0.32416 0.318042 0.313269 0.307568 0.342306 0.318407 0.294854 0.269467 0.262333 0.260527 0.259231 0.256749 0.241647 0.286226 0.249463 0.227445 0.222231
threshold=0.45474490554811842 0.32307005800981708 0.64093410679756058 0.52391045664138047 16.500000000000004 0.44942733898557191 20.500000000000004 0.24232817408627691 11.500000000000002 17.500000000000004 0.35899152164212411 0.3391761014868368 0.40217224733736878 0.1187732342007435 0.46006247211066492 0.57176855570429874 0.20868659824483118 0.52922802320392692 0.059107806691449813 20.500000000000004 0.99342814048696415 0.68670025285418734 0.056782686300758591 0.41216718726758889 0.14214119697850089 0.99387050105401975 0.084039863156329012 0.9931098990464674 0.23903345724907063 1.5000000000000002
decision_type=2 2 2 2 2 2 2 2 2 2 2 2 2 2 2 2 2 2 2 2 2 2 2 2 2 2 2 2 2 2
left_child=1 6 3 4 10 14 11 13 16 24 23 12 22 -6 28 -12 29 -18 -19 -5 -10 -13 -1 -2 -4 27 -27 -24 -3 -7
right_child=2 5 9 19 7 8 -8 -9 20 -11 15 21 -14 -15 -16 -17 17 18 -20 -21 -22 -23 25 -25 -26 26 -28 -29 -30 -31
leaf_value=-0.009376796091405246 -0.00047686813768985521 -0.0010333671654896334 0.0034452368470295836 0.0025579911781205612 0.0037801001583836571 0.00045637414490772509 -0.0006791383532496791 0.00034538551354601694 0.0025446058067728214 0.005644067059975208 0.00029059490109446329 -0.0081312336196052905 -0.00049020703824084277 -0.0021674786265939473 -0.0047120379443679541 -0.0052973371999407264 -0.00074547982300238993 0.00011062722113523736 0.0031876465730194103 0.0060631624158861037 -0.0034635462105507032 -0.0025395351427572746 -0.0021516304660407415 -0.0044395334881292435 -0.0025905385508667679 -0.0071552376920247787 -0.0021799361313798184 -0.0053239133264483584 -0.0061943489984101199 -0.003385322216882532
leaf_weight=26 68 720 148 574 274 59 114 325 279 369 353 94 93 25 70 27 318 181 157 67 20 27 72 105 20 34 193 445 22 104
leaf_count=26 68 720 148 574 274 59 114 325 279 369 353 94 93 25 70 27 318 181 157 67 20 27 72 105 20 34 193 445 22 104
internal_value=-5.37281e-06 -0.00165091 0.00211042 0.00133625 0.000471355 -0.000316681 -0.00399615 0.0017529 0.000535732 0.00473137 -0.000974731 -0.00438044 -0.00402949 0.00328281 -0.00149032 -0.000106442 -5.09475e-05 0.000432045 0.00153989 0.00292437 0.00214272 -0.0068835 -0.00445696 -0.00288195 0.00272669 -0.00428503 -0.00292514 -0.00488213 -0.00118639 -0.00199477
internal_weight=5383 3028 2355 1818 1177 1930 1098 624 1118 537 553 984 863 299 812 380 819 656 338 641 299 121 770 173 168 744 227 517 742 163
internal_count=5383 3028 2355 1818 1177 1930 1098 624 1118 537 553 984 863 299 812 380 819 656 338 641 299 121 770 173 168 744 227 517 742 163
is_linear=0
shrinkage=0.05


Tree=19
num_leaves=31
num_cat=0
split_feature=38 209 78 143 168 209 209 47 8 92 9 164 69 212 209 31 128 92 209 36 36 207 192 54 128 48 92 174 81 207
split_gain=6.7746 3.92523 1.3925 0.736978 0.677867 0.621875 0.550322 0.546941 0.506461 0.388856 0.355491 0.330805 0.415953 0.319239 0.301037 0.279439 0.278558 0.261803 0.26058 0.266882 0.253776 0.277049 0.249996 0.262429 0.262682 0.249743 0.245488 0.23712 0.23583 0.235129
threshold=0.49196787148594379 0.39621448757994948 15.500000000000002 9.5000000000000018 7.5000000000000009 0.29648222519708467 0.59303882195448476 0.41216718726758889 3.5000000000000004 0.54518072289156627 0.20236955022603634 0.091030789825970557 14.500000000000002 0.072636748056199713 0.64625167336010714 0.036679256246368398 0.21136397441618324 0.42283950617283955 0.64093410679756058 0.3126580338671367 0.27429890429852116 0.15760286568079077 0.22342007434944239 0.36381311776875336 0.75 0.11765799256505577 0.50260300461103691 0.052044609665427503 0.17359780859704235 0.50448241514060232
decision_type=2 2 2 2 2 2 2 2 2 2 2 2 2 2 2 2 2 2 2 2 2 2 2 2 2 2 2 2 2 2
left_child=1 4 6 8 10 15 17 11 9 -4 -1 -3 20 14 25 27 -8 -2 19 -9 21 28 23 24 -7 -10 -5 -6 -13 -12
right_child=2 7 3 26 5 22 16 18 13 -11 29 12 -14 -15 -16 -17 -18 -19 -20 -21 -22 -23 -24 -25 -26 -27 -28 -29 -30 -31
leaf_value=0.0020562394334363841 -0.0022080693438877924 -0.0064523553082142917 -0.001462019730442718 0.0022152033973431499 -0.0065356215390448393 -0.0029023290107090967 -0.0019201407112025967 0.00030841688268776771 0.0034732607723614293 0.0037630045869216124 -0.0015746645397203712 -0.00012844227033857467 0.0020453428975117671 0.0056966754808198926 0.0066537670474240765 -0.0050303398866426152 0.0031744535223227526 0.0004843991699869678 0.0045713155996054411 0.0026537454643685743 0.00059341535890112781 -0.0018117199467223848 -0.0069951128456051705 0.00038775856803921569 0.0027159276418387891 -0.0015995823530829513 -0.0021303379838354887 -0.0011078481610833008 0.0055484364341412276 -0.0050421750767749149
leaf_weight=62 114 21 67 65 26 383 30 295 363 76 440 142 185 344 72 587 254 434 68 206 316 438 27 90 22 26 65 89 21 55
leaf_count=62 114 21 67 65 26 383 30 295 363 76 440 142 185 344 72 587 254 434 68 206 316 438 27 90 22 26 65 89 21 55
internal_value=-5.10417e-06 -0.00132052 0.00238675 0.0035728 -0.00295892 -0.00361695 0.00085002 0.000404053 0.00405693 0.00131492 -0.0015129 -0.000235839 -0.000117375 0.00454402 0.0036839 -0.0045888 0.00263629 -7.57129e-05 0.00166697 0.00127276 -0.000553692 -0.00115683 -0.00230998 -0.00205443 -0.00259714 0.0031342 4.24327e-05 -0.002335 0.000602935 -0.00195994
internal_weight=5383 3473 1910 1078 1781 1224 832 1692 948 143 557 1123 1102 805 461 702 284 548 569 501 917 601 522 495 405 389 130 115 163 495
internal_count=5383 3473 1910 1078 1781 1224 832 1692 948 143 557 1123 1102 805 461 702 284 548 569 501 917 601 522 495 405 389 130 115 163 495
is_linear=0
shrinkage=0.05


Tree=20
num_leaves=31
num_cat=0
split_feature=38 209 69 209 47 209 81 171 19 209 209 63 153 212 99 162 137 146 137 33 165 210 84 84 46 209 70 208 7 60
split_gain=5.94194 2.18718 1.99335 1.29133 1.10505 0.803049 0.474027 0.411727 0.402552 0.389918 0.318015 0.315545 0.308278 0.303375 0.41901 0.319738 0.298789 0.284683 0.409973 0.273218 0.262417 0.257539 0.248234 0.245547 0.243512 0.236298 0.235202 0.266349 0.224399 0.218553
threshold=0.42283950617283955 0.29648222519708467 13.500000000000002 0.53986315632901982 0.64093410679756058 0.48133273836085083 0.2151559267489081 0.30626963451076544 0.99310791314044244 0.45474490554811842 0.40684962070504244 0.28068730365489231 0.27429890429852116 0.29068339926340203 0.40217224733736878 0.64834112328557203 0.32574743418116919 0.56645098914175229 0.78190539937527903 16.500000000000004 0.043122676579925648 0.081226765799256515 0.13959107806691454 0.067472118959107832 0.9931451488784101 0.78190539937527903 3.5000000000000004 0.99387050105401975 5.5000000000000009 11.500000000000002
decision_type=2 2 2 2 2 2 2 2 2 2 2 2 2 2 2 2 2 2 2 2 2 2 2 2 2 2 2 2 2 2
left_child=1 13 3 8 5 7 -5 22 10 17 -2 12 29 14 24 -15 23 26 21 -16 -7 -19 -4 -10 -1 -22 27 -3 -8 -11
right_child=2 9 4 6 -6 20 28 -9 16 11 -12 -13 -14 15 19 -17 -18 18 -20 -21 25 -23 -24 -25 -26 -27 -28 -29 -30 -31
leaf_value=-0.0019592548662132974 -0.0046581062819808722 -0.0012844760165204539 0.0020362381409324286 -0.00019338170644074966 0.0048358426824948158 0.0074723564348555807 0.0037136301437911408 -0.0009378385401796551 -0.007002424963866361 -0.00065223506349182143 -0.0012535807711581009 0.0015400241726254188 -0.0045507169011133634 -0.0072848263101706516 0.0012664437279653773 -0.0020640173983737463 0.00025190546332060131 -0.00506909098631079 0.0031697446674418951 -0.005329696835251526 0.0028596636676381263 -0.0010326131267055613 -0.0034272890067024325 -0.00025453091702029969 -0.0042790038775166123 0.0077709636471879028 0.00015512488923767316 -0.0059823096429957364 8.572007466985572e-06 0.0022082229692750844
leaf_weight=147 125 352 378 156 477 38 275 225 28 404 152 277 44 103 73 41 338 124 24 20 422 58 22 26 491 26 315 33 48 80
leaf_count=147 125 352 378 156 477 38 275 225 28 404 152 277 44 103 73 41 338 124 24 20 422 58 22 26 491 26 315 33 48 80
internal_value=5.11513e-05 -0.00166731 0.0016754 8.81036e-05 0.00282289 0.00195865 0.00206992 0.000773254 -0.00133087 -0.000627447 -0.00278992 0.000173304 -0.000543706 -0.00370069 -0.00328748 -0.00579835 -0.000299851 -0.00133893 -0.00297274 -0.000152081 0.00348307 -0.00378274 0.00173574 -0.00375344 -0.00374452 0.00314469 -0.000858125 -0.00168715 0.00316303 -0.000179432
internal_weight=5322 2586 2736 1148 1588 1111 479 625 669 1711 277 805 528 875 731 144 392 906 206 93 486 182 400 54 638 448 700 385 323 484
internal_count=5322 2586 2736 1148 1588 1111 479 625 669 1711 277 805 528 875 731 144 392 906 206 93 486 182 400 54 638 448 700 385 323 484
is_linear=0
shrinkage=0.05


Tree=21
num_leaves=31
num_cat=0
split_feature=38 209 69 209 47 209 81 19 37 208 18 164 209 38 126 187 200 137 211 209 137 84 156 93 209 108 131 7 173 97
split_gain=5.3626 1.97393 1.799 1.16543 0.997305 0.735744 0.427809 0.363303 0.363001 0.361413 0.509903 0.329466 0.287008 0.284481 0.284109 0.321464 0.295197 0.269657 0.262638 0.254521 0.247609 0.221606 0.217525 0.210151 0.208163 0.251778 0.224734 0.20252 0.201219 0.196811
threshold=0.42283950617283955 0.29648222519708467 13.500000000000002 0.53986315632901982 0.64093410679756058 0.43879220586047901 0.2151559267489081 0.99310791314044244 0.99310791314044244 0.99299968126208316 0.27429890429852116 0.13491001041201844 0.40684962070504244 0.12159750111557339 0.28068730365489231 1.0000000180025095e-35 0.31243492488472419 0.32574743418116919 0.091589192330040675 0.69674996281421986 0.037669195299717392 0.067472118959107832 0.054275092936802972 0.10873605947955391 0.44410977242302546 0.58759865144433376 0.2673577956622562 5.5000000000000009 0.49728543804849029 2.5000000000000004
decision_type=2 2 2 2 2 2 2 2 2 2 2 2 2 2 2 2 2 2 2 2 2 2 2 2 2 2 2 2 2 2
left_child=1 13 3 7 5 8 -5 12 18 -3 14 -12 -2 -1 15 -11 -17 21 23 22 -15 -9 -7 -4 25 26 -13 -8 -14 -16
right_child=2 9 4 6 -6 19 27 17 -10 10 11 24 28 20 29 16 -18 -19 -20 -21 -22 -23 -24 -25 -26 -27 -28 -29 -30 -31
leaf_value=-0.0055902094732452412 -0.004425200967071578 0.0012525699640762501 0.0013429946855739276 -0.00018371265450229822 0.0045940505619591837 0.0044582932500837396 0.0035279486363182185 -0.0066523037534872336 -0.0010164011669405984 -0.0042857875419634109 -0.0052031150083699873 -0.00052251435250032132 0.0013318889904442043 0.0011776936684327667 -0.002654081926577621 0.0038615855444543838 -0.0013191948068732636 0.00023931020005934524 0.0045686411917530241 0.005833524184549476 -0.003319387042000182 -0.00024180443993268108 0.0020882341211881325 -0.004016471025533974 0.0011788646228783209 0.0049493627413175999 -0.0059651815239340072 8.1433932943279316e-06 -0.0025027529202416195 -0.007882351183022062
leaf_weight=139 125 229 214 156 477 129 275 28 226 89 29 367 52 32 45 29 530 338 61 73 704 26 388 20 323 20 20 48 100 30
leaf_count=139 125 229 214 156 477 129 275 28 226 89 29 367 52 32 45 29 530 338 61 73 704 26 388 20 323 20 20 48 100 30
internal_value=4.85938e-05 -0.00158395 0.00159163 8.36985e-05 0.00268175 0.00186071 0.00196643 -0.00126432 0.000491462 -0.000596075 -0.000881729 2.34569e-05 -0.00265042 -0.00351566 -0.00183199 -0.00149479 -0.00105042 -0.000284859 0.00164664 0.00306983 -0.00312386 -0.00356577 0.0026796 0.000884921 0.000231088 -0.000521079 -0.000803789 0.00300488 -0.0011909 -0.00474539
internal_weight=5322 2586 2736 1148 1588 1111 479 669 521 1711 1482 759 277 875 723 648 559 392 295 590 736 54 517 234 730 407 387 323 152 75
internal_count=5322 2586 2736 1148 1588 1111 479 669 521 1711 1482 759 277 875 723 648 559 392 295 590 736 54 517 234 730 407 387 323 152 75
is_linear=0
shrinkage=0.05


Tree=22
num_leaves=31
num_cat=0
split_feature=38 209 69 209 47 209 81 189 19 208 27 46 120 164 212 99 162 209 105 205 137 209 46 84 212 153 209 209 117 131
split_gain=4.83974 1.78147 1.6236 1.0518 0.900068 0.664009 0.386098 0.356093 0.327881 0.326176 0.466638 0.291681 0.360932 0.283626 0.270871 0.437 0.305329 0.259025 0.254449 0.25401 0.243365 0.233159 0.218882 0.199999 0.195179 0.192097 0.18839 0.187957 0.193227 0.20456
threshold=0.42283950617283955 0.29648222519708467 13.500000000000002 0.53986315632901982 0.64093410679756058 0.43879220586047901 0.2151559267489081 0.22314382039690445 0.99310791314044244 0.99299968126208316 0.26791050494215002 0.99347034098999421 0.064684014869888493 0.13491001041201844 0.27752012003819398 0.40217224733736878 0.63555474676270018 0.40684962070504244 19.500000000000004 1.0000000180025095e-35 0.32574743418116919 0.61962665476721712 0.9931451488784101 0.067472118959107832 0.039489837675624063 0.19277258447628537 0.61962665476721712 0.44942733898557191 0.55562792123208948 0.2673577956622562
decision_type=2 2 2 2 2 2 2 2 2 2 2 2 2 2 2 2 2 2 2 2 2 2 2 2 2 2 2 2 2 2
left_child=1 14 3 8 5 7 25 -4 17 -3 11 19 -13 -12 15 22 -16 -2 -9 -11 23 -7 24 -10 -1 -5 -8 28 29 -15
right_child=2 9 4 6 -6 21 26 18 20 10 13 12 -14 27 16 -17 -18 -19 -20 -21 -22 -23 -24 -25 -26 -27 -28 -29 -30 -31
leaf_value=-0.005277789027119676 -0.0042039408992975954 0.0011899414499495287 0.0022211675584267432 0.00071679094276811577 0.0043643479993146113 0.0023178262278535345 0.0017441613774572034 -0.0020374700335426799 -0.0063196886214427657 -0.0039442821101938657 -0.0046355300375580553 -0.00097515975076627615 -0.0061627977834034127 -0.00048779353378717238 -0.0067254319777777507 0.00043642188901739083 -0.0019597385451672789 -0.0011313566493443335 0.00073368991415230305 -0.00084384233249233719 0.00022734468938426678 0.004567025944389993 -0.0038896044205274415 -0.00022971416586257807 -0.00075325983017482314 -0.0036283841662225315 0.0041677005390001057 0.0010930562493105919 0.0039746129298177755 -0.0056669224312645393
leaf_weight=30 125 229 186 124 477 433 175 150 28 77 32 60 76 408 107 85 49 152 185 465 338 157 488 26 116 32 148 321 23 20
leaf_count=30 125 229 186 124 477 433 175 150 28 77 32 60 76 408 107 85 49 152 185 465 338 157 488 26 116 32 148 321 23 20
internal_value=4.61641e-05 -0.00150475 0.00151205 7.95135e-05 0.00254766 0.00176768 0.0018681 0.000466889 -0.00120111 -0.000566271 -0.000837643 -0.0018038 -0.00387413 -2.28955e-05 -0.00333988 -0.0029301 -0.00522852 -0.0025179 -0.000507128 -0.00128431 -0.000270616 0.00291634 -0.00338145 -0.00338748 -0.00168296 -0.000174527 0.00285464 0.000168302 -0.000489894 -0.000729809
internal_weight=5322 2586 2736 1148 1588 1111 479 521 669 1711 1482 678 136 804 875 719 156 277 335 542 392 590 634 54 146 156 323 772 451 428
internal_count=5322 2586 2736 1148 1588 1111 479 521 669 1711 1482 678 136 804 875 719 156 277 335 542 392 590 634 54 146 156 323 772 451 428
is_linear=0
shrinkage=0.05


Tree=23
num_leaves=31
num_cat=0
split_feature=47 209 47 209 207 141 209 214 131 1 163 60 27 114 110 172 36 209 74 97 48 8 49 88 211 207 208 146 87 180
split_gain=4.36131 2.17682 1.21075 0.858867 0.576847 0.468624 0.455475 0.373739 0.309139 0.307192 0.306379 0.404586 0.300106 0.296115 0.299888 0.253982 0.307171 0.234602 0.291995 0.261659 0.233717 0.220297 0.272407 0.225573 0.22309 0.217971 0.21615 0.215842 0.203959 0.201446
threshold=0.45474490554811842 0.39621448757994948 0.64093410679756058 0.58772125539193831 0.49808443797410151 4.5000000000000009 0.1954112747285438 2.5000000000000004 0.18735506752148412 0.99329856011883677 0.99476763410078684 12.500000000000002 0.27429890429852116 20.500000000000004 0.21935891715008179 0.99579732637471874 0.30626963451076544 0.43879220586047901 0.64625167336010714 3.5000000000000004 0.3884758364312268 11.500000000000002 0.048736199883788502 1.5000000000000002 0.14809703660662407 0.17039882001379203 0.99303741347655705 0.51859289007883391 17.500000000000004 0.26151252777564943
decision_type=2 2 2 2 2 2 2 2 2 2 2 2 2 2 2 2 2 2 2 2 2 2 2 2 2 2 2 2 2 2
left_child=1 6 3 4 5 -2 13 21 28 -9 11 12 26 15 -15 16 -1 18 19 -7 29 22 -8 -24 -25 -13 27 -3 -4 -11
right_child=2 10 8 -5 -6 17 7 9 -10 20 -12 25 -14 14 -16 -17 -18 -19 -20 -21 -22 -23 23 24 -26 -27 -28 -29 -30 -31
leaf_value=-0.0033607770208015867 0.0019064982710733178 -0.0016891126557729667 0.002425371211296649 0.0030171421725194696 -0.0080130143929272903 -0.0026525069069327435 -0.0016261347156528031 -0.0024244706135856269 -0.0022728072479367258 -0.0019955620521531357 -0.005696939491529272 0.0044108834040040767 0.00080288791864356775 -0.0032309747510589661 0.0044440821543685156 -0.0012659790482486418 -0.006366565393567173 0.00068060051532531937 0.0016139596088848253 0.0001165736352191769 -0.0053585416264832026 -0.00085386836680730711 -0.0035909512817796693 -0.009714014214197441 -0.0039837642772137328 0.0010910810677550176 -0.0016857754546247092 0.0014953942222513913 0.004545014828851595 0.00095750549795545518
leaf_weight=169 429 87 162 413 20 216 126 259 21 77 22 57 380 35 20 57 171 475 91 141 20 95 196 35 33 373 395 137 379 231
leaf_count=169 429 87 162 413 20 216 126 259 21 77 22 57 380 35 20 57 171 475 91 141 20 95 196 35 33 373 395 137 379 231
internal_value=4.38559e-05 -0.00122746 0.00165535 0.00101813 0.000416384 0.000541079 -0.00254717 -0.00198589 0.00367926 -0.00113728 0.000158645 0.000248793 -0.000303171 -0.00387836 -0.000440045 -0.0043547 -0.00487251 -9.35526e-05 -0.000914362 -0.00155884 -0.00012087 -0.00301297 -0.00353891 -0.00445182 -0.00693316 0.00153115 -0.000982173 0.000258554 0.0039103 0.000219239
internal_weight=5322 2975 2347 1785 1372 1352 1524 1072 562 587 1451 1429 999 452 55 397 340 923 448 357 328 485 390 264 68 430 619 224 541 308
internal_count=5322 2975 2347 1785 1372 1352 1524 1072 562 587 1451 1429 999 452 55 397 340 923 448 357 328 485 390 264 68 430 619 224 541 308
is_linear=0
shrinkage=0.05


Tree=24
num_leaves=31
num_cat=0
split_feature=38 209 69 209 28 209 209 72 65 11 19 154 209 48 146 137 38 73 149 11 209 210 105 137 83 209 11 7 164 209
split_gain=3.95828 1.4615 1.36968 0.871949 0.747751 0.376988 0.364052 0.338352 0.298836 0.295905 0.292454 0.281503 0.290225 0.26864 0.249534 0.360456 0.240892 0.237437 0.236724 0.226233 0.218654 0.218019 0.216911 0.212115 0.20177 0.194294 0.226606 0.189851 0.182783 0.182543
threshold=0.42283950617283955 0.29648222519708467 13.500000000000002 0.53986315632901982 0.99310592723441748 0.67815707273538606 0.43347463929793251 0.2151559267489081 0.67283950617283961 0.39621448757994948 0.99310791314044244 0.99481926765743534 0.45474490554811842 0.07676579925650559 0.56645098914175229 0.79254053250037193 0.12159750111557339 0.99360687202920883 0.091324512344837003 0.0042763647181317871 0.40684962070504244 0.081226765799256515 19.500000000000004 0.32574743418116919 0.30179979175963118 0.012791908374237692 0.30179979175963118 5.5000000000000009 0.10828499181912836 0.43879220586047901
decision_type=2 2 2 2 2 2 2 2 2 2 2 2 2 2 2 2 2 2 2 2 2 2 2 2 2 2 2 2 2 2
left_child=1 16 3 10 5 8 9 -5 29 -6 20 12 14 18 -3 21 19 -11 -14 -1 -2 -16 25 -12 28 -18 -27 -10 -24 -4
right_child=2 11 4 7 6 -7 -8 -9 27 17 23 -13 13 -15 15 -17 22 -19 -20 -21 -22 -23 24 -25 -26 26 -28 -29 -30 -31
leaf_value=-0.00015052310911761155 -0.0039071181094273927 -0.00057310088569276771 0.0013517542138358676 -0.00020512358834432533 0.0016620024866768994 0.0058106764216690546 0.0020326924748742324 0.0026168225824130791 0.0050062643492067753 -0.0028487446388074508 -0.0031454996671527627 -0.0047101464547151225 8.452156632635403e-05 0.0012080097536551759 -0.0044279129624799421 0.0036445368036982563 -0.0070734410525931579 0.0017069249133881484 -0.0026837247390246307 -0.0057830653605209191 -0.0010841096503243438 -0.00072803840132407995 0.0020544414897449314 0.00022926759654382235 0.0029380626666049166 -0.0019558189175286852 -0.003898038749313017 0.0014887300081075714 -0.0036177251701794417 0.0030112806978752232
leaf_weight=21 125 669 310 159 98 116 306 320 191 126 54 39 300 393 127 21 28 37 104 118 152 58 20 338 30 340 269 48 49 356
leaf_count=21 125 669 310 159 98 116 306 320 191 126 54 39 300 393 127 21 28 37 104 118 152 58 20 338 30 340 269 48 49 356
internal_value=4.16631e-05 -0.00136092 0.00136735 5.15937e-05 0.00231854 0.00312708 0.000862601 0.0016801 0.00278311 -0.000509231 -0.00111441 -0.000510894 -0.000412945 0.000277286 -0.00104165 -0.00256328 -0.00302309 -0.00181464 -0.000628096 -0.00493211 -0.00235803 -0.00326795 -0.00266256 -0.000235624 -0.000485231 -0.00300095 -0.00281371 0.00429981 -0.00197362 0.00223883
internal_weight=5322 2586 2736 1148 1588 1021 567 479 905 261 669 1711 1672 797 875 206 875 163 404 139 277 185 736 392 99 637 609 239 69 666
internal_count=5322 2586 2736 1148 1588 1021 567 479 905 261 669 1711 1672 797 875 206 875 163 404 139 277 185 736 392 99 637 609 239 69 666
is_linear=0
shrinkage=0.05


Tree=25
num_leaves=31
num_cat=0
split_feature=47 200 87 141 207 208 200 163 69 202 214 40 110 39 65 8 184 48 212 90 171 139 22 203 202 203 56 92 158 75
split_gain=3.70918 1.43173 1.04756 0.529052 0.485815 0.437168 0.395818 0.354934 0.351021 0.317924 0.267367 0.269468 0.264385 0.259722 0.251485 0.250775 0.288925 0.240934 0.233303 0.31136 0.300693 0.288628 0.362703 0.241215 0.29107 0.238027 0.230469 0.226381 0.222599 0.221725
threshold=0.46538003867321137 0.39621448757994948 17.500000000000004 3.5000000000000004 0.31905601103363729 0.99358949535149066 0.22735385988398035 0.99413810189088048 14.500000000000002 0.077643811737361998 2.5000000000000004 0.040746658919233007 0.428157072735386 0.088661710037174726 0.33638256730626215 5.5000000000000009 0.054837303893085415 0.030669144981412638 0.3391761014868368 0.40217224733736878 0.68670025285418734 0.18957001743172575 0.063698431144683335 0.034306370208702773 0.13110110400929692 0.25051152639476199 0.73936486687490699 0.29648222519708467 0.081776019642613565 0.1154275092936803
decision_type=2 2 2 2 2 2 2 2 2 2 2 2 2 2 2 2 2 2 2 2 2 2 2 2 2 2 2 2 2 2
left_child=1 3 5 27 9 17 18 8 13 29 11 -8 -6 15 -15 16 -3 -2 19 21 -20 22 23 -5 -25 -21 -11 -1 -17 -4
right_child=2 7 4 6 12 -7 10 -9 -10 26 -12 -13 -14 14 -16 28 -18 -19 20 25 -22 -23 -24 24 -26 -27 -28 -29 -30 -31
leaf_value=-0.0010846184754228483 -0.0042996640633126458 0.00010819255872515247 0.0030563061240430384 -0.0054891480436158741 -0.0027313837925802271 -0.0018044282807924068 -0.00043286744944958223 -0.0052315415197881528 0.0016437741403735632 0.0040194643680195596 -0.0010677395530607706 -0.0035534906310082277 0.001653680401239613 -0.00071034548350353303 0.0018273923040040708 -0.00057790985688381861 0.0060530817722901711 0.0011051826626060602 -0.0073795533800301589 0.0038069804673324585 -0.0014677870266799195 0.0010829928743381365 -0.0057240063582295149 0.0001399044539882905 -0.0065286094974726441 -0.0031148716058258131 0.0075610928633441142 0.0023834214432394835 -0.0025153921602648109 -0.00042151130484282975
leaf_weight=121 21 112 452 43 46 157 90 32 294 186 480 299 136 167 235 510 25 1137 76 27 30 30 159 90 20 23 61 77 209 51
leaf_count=121 21 112 452 43 46 157 90 32 294 186 480 299 136 167 235 510 25 1137 76 27 30 30 159 90 20 23 61 77 209 51
internal_value=2.84782e-05 -0.00107888 0.00158036 -0.00215147 0.00286272 0.000671486 -0.00250135 -1.91519e-05 8.832e-05 0.00342507 -0.00185727 -0.0028315 0.000545367 -0.000275196 0.000773158 -0.000767531 0.00119303 0.00100717 -0.00362525 -0.00306249 -0.00570641 -0.00360129 -0.0040517 -0.00231382 -0.00107255 0.000622929 0.00489412 0.000264064 -0.0011411 0.00270368
internal_weight=5396 3149 2247 1565 932 1315 1367 1584 1552 750 869 389 182 1258 402 856 137 1158 498 392 106 342 312 153 110 50 247 198 719 503
internal_count=5396 3149 2247 1565 932 1315 1367 1584 1552 750 869 389 182 1258 402 856 137 1158 498 392 106 342 312 153 110 50 247 198 719 503
is_linear=0
shrinkage=0.05


Tree=26
num_leaves=31
num_cat=0
split_feature=209 168 87 37 209 209 119 37 209 36 82 58 0 137 200 193 134 40 91 4 172 152 75 175 212 2 209 47 69 151
split_gain=3.54349 2.20872 1.28912 1.17827 0.762484 0.427366 0.528242 0.401539 0.330684 0.398431 0.33533 0.325947 0.323152 0.3588 0.314705 0.308107 0.345187 0.359859 0.310845 0.294232 0.268631 0.262285 0.235308 0.231043 0.226511 0.21953 0.205751 0.204428 0.199933 0.18972
threshold=0.43879220586047901 7.5000000000000009 16.500000000000004 0.99313224048924797 0.25658188308790725 0.58772125539193831 0.45474490554811842 0.99326430323990655 0.20868659824483118 0.35102674124588151 0.99352147807013635 0.021135967460778619 0.27429890429852116 0.79254053250037193 0.60367395507957766 0.14417489831493319 8.5000000000000018 0.11889889599070308 0.99314961716696615 0.067184776292853007 0.99403632420710231 8.5000000000000018 0.039776951672862458 0.070525857059848943 0.046719410721593239 0.30711735832217762 0.64093410679756058 0.39621448757994948 10.500000000000002 1.5000000000000002
decision_type=2 2 2 2 2 2 2 2 2 2 2 2 2 2 2 2 2 2 2 2 2 2 2 2 2 2 2 2 2 2
left_child=1 3 5 15 27 14 11 23 9 10 21 -7 13 19 20 16 17 24 -18 -6 -2 -5 -13 26 -1 -10 -4 -3 -14 -25
right_child=2 4 7 8 12 6 -8 -9 25 -11 -12 22 28 -15 -16 -17 18 -19 -20 -21 -22 -23 -24 29 -26 -27 -28 -29 -30 -31
leaf_value=0.00089945343473010655 0.00044080041055547198 -0.0034139988254833944 0.0025021484712879588 0.0014292578189633786 -0.0019190723114904705 0.0057591317379514558 0.0032214628673809609 0.00094526232305351232 0.00089685105992908366 -0.0058400179033300708 0.0017510934678804397 -0.0016105727566219136 7.4950203657895612e-06 0.0035531255106131237 -0.0031954984191757186 0.0059930032610686287 -0.0040851828601305559 -0.0041420587128959598 0.0011150429471764344 -0.0044538020094941292 -0.0043565691001034188 -0.0053266810182500263 0.00096488112846482863 0.0025660757132125304 0.0035168370917639602 -0.0014581304978600032 0.0061619134568091901 -0.0058077306392799802 -0.0021517756220418962 0.0060451777514257711
leaf_weight=118 1068 454 262 20 374 28 309 146 194 70 56 127 338 24 68 45 42 20 91 165 30 51 294 52 276 202 45 111 157 159
leaf_count=118 1068 454 262 20 374 28 309 146 194 70 56 127 338 24 68 45 42 20 91 165 30 51 294 52 276 202 45 111 157 159
internal_value=2.70543e-05 -0.00120303 0.0013617 0.0004381 -0.00240126 0.000706135 0.00163037 0.00326126 -0.00113722 -0.00281125 -0.00114185 0.000535385 -0.00160929 -0.00242866 0.000105303 0.00201608 0.00168891 0.00240082 -0.000527134 -0.00269501 0.000309725 -0.0034236 0.000187963 0.00391403 0.00273295 -0.000304427 0.0030386 -0.00388427 -0.000677365 0.00518777
internal_weight=5396 2808 2588 1185 1623 1924 758 664 593 197 127 449 1058 563 1166 592 547 414 133 539 1098 71 421 518 394 396 307 565 495 211
internal_count=5396 2808 2588 1185 1623 1924 758 664 593 197 127 449 1058 563 1166 592 547 414 133 539 1098 71 421 518 394 396 307 565 495 211
is_linear=0
shrinkage=0.05


Tree=27
num_leaves=31
num_cat=0
split_feature=209 150 87 209 37 64 209 110 138 191 33 106 193 104 93 209 167 200 173 13 212 3 3 171 211 99 167 209 32 10
split_gain=3.198 2.0192 1.16343 0.681019 0.497649 0.476076 0.389758 0.472418 0.377258 0.270525 0.253519 0.251914 0.248073 0.248408 0.245044 0.235763 0.219573 0.218826 0.240356 0.217434 0.212725 0.203887 0.20381 0.201567 0.297437 0.378393 0.201309 0.196449 0.186879 0.184543
threshold=0.43879220586047901 4.5000000000000009 16.500000000000004 0.25390450691655514 0.99310791314044244 0.99295251599399081 0.56645098914175229 0.39621448757994948 0.10873605947955391 0.48133273836085083 20.500000000000004 3.5000000000000004 0.16088030214991286 0.14997953894420954 0.03810408921933086 0.64625167336010714 0.09678079388896467 0.58240368882939175 0.31778967722742829 0.019247530505520048 0.056540717501023054 0.047026022304832715 0.23680297397769517 0.72506896023293232 0.27520337013364321 0.41496820167037007 0.21334060837539218 0.6622043730477466 0.042217978447687904 0.99313224048924797
decision_type=2 2 2 2 2 2 2 2 2 2 2 2 2 2 2 2 2 2 2 2 2 2 2 2 2 2 2 2 2 2
left_child=1 4 6 5 12 -3 17 10 15 11 -8 28 13 16 -9 20 -1 18 29 -7 -4 -13 -23 24 25 26 -21 -16 -5 -2
right_child=2 3 8 9 -6 19 7 14 -10 -11 -12 21 -14 -15 27 -17 -18 -19 -20 23 -22 22 -24 -25 -26 -27 -28 -29 -30 -31
leaf_value=0.001744622066895197 0.00026585952776561806 0.00078078271685894031 0.0022362899343332395 -0.00035433303365834946 -0.00035601949404482248 0.00077559524819392853 0.0013583865093368839 -0.00095737452369227887 0.00071682772667871976 -0.0034026172159321829 -0.0010672579367258927 -0.0018539038526560953 0.007662100045126863 -0.0032086999377828433 0.0022088314362203824 0.0062725196250156797 0.0051153870095221104 -0.002840584577415939 0.00038094307015721865 -0.0041177167137282375 0.0044012953885949509 0.00072651202595420473 -0.0035686339453483624 0.00068492333375616001 -0.006376764883513554 0.0014672829699217498 0.00041356937010557609 0.0045971649715330649 -0.0021925556585695809 -0.00557415628234946
leaf_weight=317 24 68 239 192 337 27 227 47 133 136 205 139 20 22 326 76 57 64 883 428 216 348 30 24 107 36 26 117 494 31
leaf_count=317 24 68 239 192 337 27 227 47 133 136 205 139 20 22 326 76 57 64 883 428 216 348 30 24 107 36 26 117 494 31
internal_value=2.57016e-05 -0.00114287 0.00129362 -0.00195449 0.0010721 -0.00319923 0.000670828 0.00141271 0.0030982 -0.0012889 0.000207328 -0.00104994 0.00222902 0.00195462 0.00247541 0.00369466 0.00225835 -1.18193e-05 0.000181188 -0.00361689 0.00326407 -0.00021649 0.000385627 -0.00380786 -0.00398848 -0.00346695 -0.00385822 0.00283961 -0.00167807 -0.00302579
internal_weight=5396 2808 2588 2055 753 716 1924 922 664 1339 432 1203 416 396 490 531 374 1002 938 648 455 517 378 621 597 490 454 443 686 55
internal_count=5396 2808 2588 2055 753 716 1924 922 664 1339 432 1203 416 396 490 531 374 1002 938 648 455 517 378 621 597 490 454 443 686 55
is_linear=0
shrinkage=0.05


Tree=28
num_leaves=31
num_cat=0
split_feature=209 168 87 37 209 209 119 37 209 191 0 137 200 10 4 202 39 212 84 47 155 119 42 139 209 212 2 11 69 203
split_gain=2.8862 1.83701 1.05 0.979631 0.623217 0.352683 0.442964 0.345624 0.292288 0.29756 0.280649 0.3234 0.273049 0.263108 0.259866 0.257455 0.281692 0.277364 0.256831 0.244657 0.220273 0.191758 0.191236 0.190423 0.189283 0.199944 0.187673 0.207678 0.183911 0.180586
threshold=0.43879220586047901 7.5000000000000009 16.500000000000004 0.99313224048924797 0.25658188308790725 0.58772125539193831 0.32042986761862274 0.99334920072247279 0.17414100847835789 0.052097278000892457 0.27429890429852116 0.79254053250037193 0.59303882195448476 0.99303344166450713 0.067184776292853007 0.17162986635676933 0.071189591078066924 0.040990315100259175 0.039776951672862458 0.34835638851703116 0.14956120779413953 0.21935891715008179 5.5000000000000009 0.097254503195816397 0.64625167336010714 0.068953758013913527 0.39089692101740298 0.47069760523575782 21.500000000000004 0.027486018278543172
decision_type=2 2 2 2 2 2 2 2 2 2 2 2 2 2 2 2 2 2 2 2 2 2 2 2 2 2 2 2 2 2
left_child=1 3 5 15 22 12 13 24 9 -5 11 14 20 -7 21 16 17 -1 29 -11 -2 -6 -3 -21 25 -4 -10 -28 -12 -8
right_child=2 4 7 8 10 6 18 -9 26 19 28 -13 -14 -15 -16 -17 -18 -19 -20 23 -22 -23 -24 -25 -26 -27 27 -29 -30 -31
leaf_value=0.00025465589990744778 -0.0036995179322488955 -0.0024008966666817862 0.0021874877655483653 0.0018517574320347713 -0.0065129149425774821 0.0015155977223856518 -0.0041261116153604926 0.00057449362623738132 0.0003941504727622218 -0.0056538188509497947 -0.0002429048033461542 0.0034529519597223651 -0.0024485860704612371 -0.001577144241947617 -0.0041318417564263762 0.0074260230455547574 0.00053742648473109492 0.0037189477874562727 0.0029255852348599887 0.0019371427223086359 0.00045005202918724528 -0.0014806283977508183 -0.0042758784242280419 -0.0038868706089488117 0.0056430963439282125 0.0043146741483238629 -0.0036391496186455093 0.0001617972087789921 -0.0032394575482989057 0.0012173348041415013
leaf_weight=80 33 228 262 28 20 130 21 125 287 77 437 24 97 146 165 20 284 208 397 25 1036 354 337 32 86 191 75 69 58 64
leaf_count=80 33 228 262 28 20 130 21 125 287 77 437 24 97 146 165 20 284 208 397 25 1036 354 337 32 86 191 75 69 58 64
internal_value=2.44165e-05 -0.00108573 0.00122893 0.000410942 -0.00217849 0.000637287 0.00147689 0.00294329 -0.00102546 -0.00283609 -0.0014625 -0.00222608 9.14725e-05 -0.000120418 -0.00247895 0.00184977 0.00165479 0.00275664 0.00239153 -0.00381564 0.000321955 -0.00174973 -0.00351925 -0.00133248 0.00349264 0.00308438 -0.000344898 -0.00181786 -0.000594016 -0.000102811
internal_weight=5396 2808 2588 1185 1623 1924 758 664 593 162 1058 563 1166 276 539 592 572 288 482 134 1069 374 565 57 539 453 431 144 495 85
internal_count=5396 2808 2588 1185 1623 1924 758 664 593 162 1058 563 1166 276 539 592 572 288 482 134 1069 374 565 57 539 453 431 144 495 85
is_linear=0
shrinkage=0.05


Tree=29
num_leaves=31
num_cat=0
split_feature=209 150 87 209 48 73 203 138 6 209 119 209 200 88 18 207 156 8 203 13 77 154 42 84 210 4 5 209 19 30
split_gain=2.60671 1.70715 0.936189 0.539043 0.442555 0.410871 0.397351 0.393453 0.374727 0.344449 0.299455 0.386138 0.255447 0.243269 0.238635 0.235689 0.228884 0.227342 0.221045 0.356078 0.245638 0.215109 0.214408 0.213741 0.210499 0.237425 0.195763 0.193474 0.189113 0.179567
threshold=0.44410977242302546 5.5000000000000009 14.500000000000002 0.25390450691655514 0.082156133828996294 0.99297535391327763 0.038534988405401725 0.10873605947955391 5.5000000000000009 0.79254053250037193 0.35899152164212411 0.58240368882939175 0.48133273836085083 3.5000000000000004 0.2998812351543943 0.51087081449697347 0.10873605947955391 9.5000000000000018 0.086413858955122089 0.10335560720511332 0.13756649843131907 0.99442804417052189 5.5000000000000009 0.03810408921933086 0.045353159851301117 0.080403834979662997 0.079320692947756108 0.64625167336010714 0.99314068058985394 0.052602230483271374
decision_type=2 2 2 2 2 2 2 2 2 2 2 2 2 2 2 2 2 2 2 2 2 2 2 2 2 2 2 2 2 2
left_child=1 4 9 5 6 8 -1 27 -3 10 16 14 13 -5 -12 17 -2 18 19 -6 -20 -17 -7 -13 -18 28 -19 -4 -26 -15
right_child=2 3 7 12 15 22 -8 -9 -10 -11 11 23 -14 29 -16 21 24 26 20 -21 -22 -23 -24 -25 25 -27 -28 -29 -30 -31
leaf_value=-0.00096323031896321199 0.00025940479164742987 -0.0037757763564784798 0.0029232252394316188 -0.0016846138727515244 0.0018770316765063775 -0.0022690691531973479 0.0028413316801217245 0.00058578356924616473 0.0019331642420650963 0.0044962927129947481 -0.00048173778141799844 -0.00080230062467638748 -0.004912509711252319 -0.0016101147500033092 0.001352745698026602 -0.0059490167244803166 0.0028659507077896879 -0.003055017878068611 0.0045827992890374609 -0.0050935399735213393 -0.00046402920787740092 0.00031297438739178086 -0.0042549958247124157 0.0025412718015057133 -0.00022822062176904489 -0.00043874320892827221 0.00018611401709759694 0.0055566540039661862 -0.005335877491381473 0.00032956364116980697
leaf_weight=87 338 47 502 719 53 221 325 175 74 54 469 55 45 175 285 32 21 72 73 28 36 24 353 365 24 82 132 81 74 375
leaf_count=87 338 47 502 719 53 221 325 175 74 54 469 55 45 175 285 32 21 72 73 28 36 24 353 365 24 82 132 81 74 375
internal_value=2.31957e-05 -0.00100741 0.00119503 -0.00180606 0.000853925 -0.00293221 0.00203794 0.00266499 -0.000284358 0.000564454 0.000440508 0.000888446 -0.00121041 -0.00107913 0.000211668 -0.000230108 -0.000535149 0.000201291 0.0014458 -0.000532549 0.00291596 -0.00326531 -0.00349038 0.00210342 -0.00187126 -0.00242394 -0.000957815 0.0032891 -0.00408502 -0.000287607
